{
  "layers": [
    [
      {
        "weights": [
          0.0013941413859301574,
          -0.02905429485994108,
          -0.021742639828820506,
          -0.005319238388920098,
          0.027502180335510808,
          -0.02541381466852288,
          -0.013789997773225881,
          0.0067195973768499825,
          -0.02640095237482209,
          0.023621662456663986,
          0.007885130565035335,
          -0.026407720047634458,
          0.02143841545540672,
          0.00046857648094544846,
          0.02683403351615927,
          -0.0025019759098088012,
          0.00465628697410192,
          0.02482440083085511,
          -0.013404070647534846,
          -0.011639575461099057,
          -0.006984169066454774,
          0.005783096754713106,
          -0.0051408572942549,
          -0.028611435430572336,
          0.02617471677981674,
          0.02479641670660305,
          0.01881591131701745,
          0.015624518944475328,
          0.015359609124133228,
          0.018671362087544316,
          0.0005731130306386722,
          -0.007314152536885804,
          -0.002819534988664305,
          -0.011233494850077495,
          -0.029616408342629245,
          -0.007146961534930024,
          -0.0223181026533904,
          0.00934532174058448,
          -0.010798014914982973,
          -0.004822366803255339,
          -0.019499057616132923,
          -0.02177912640138223,
          -0.02425811216574244,
          -0.01544386320517637,
          -0.008034873772087878,
          0.02971944000941531,
          -0.016210013341275073,
          0.0007369599200504721,
          -0.005498271169813985,
          -0.013408873300033597,
          -0.006210763315423352,
          -0.003126174635867056,
          -0.021124810281519326,
          0.02243348765743531,
          0.006136968271423404,
          -0.01755639501303955,
          -0.013991570161812548,
          0.028069519797179712,
          0.005393947777072479,
          0.028712061173861034,
          0.014752866861938628,
          0.02925449006928934,
          -0.029654644463905297,
          -0.021840135588429288,
          -0.003145253608958832,
          0.0023054223191332213,
          0.0024653003598198373,
          0.009093183525859305,
          -0.027153941483475965,
          -0.00409111122522178,
          0.013561488915458067,
          0.0004052055895432116,
          0.0005775686331211741,
          -0.0027505662326275694,
          0.02001312115071359,
          0.020384633317843265,
          -0.02594138621947164,
          0.011688593673618845,
          0.001228876835248513,
          -0.005084393358605482,
          0.0048517184235077546,
          0.006851951820960087,
          0.024587183464108486,
          -0.006851994457663761,
          -0.0023011557408826495,
          -0.00352510361867785,
          -0.01246225918661946,
          0.02960354256769672,
          -0.01895687907576331,
          0.009071506690884107,
          0.02226446111515673,
          0.008960074454773356,
          0.020458787344670923,
          0.0195325324395038,
          0.01968318592262472,
          0.023517468888396655,
          0.0060867455710069684,
          -0.024367719410700678,
          -0.02137418048404642,
          0.016932185844578583,
          0.022762694325696955,
          -0.023194215525191644,
          0.0043466028471813856,
          -0.0004964408344407638,
          0.020698507126568677,
          -0.006213373459841933,
          0.024309654378368115,
          -0.021318295362312945,
          -0.023709926942218847,
          0.02506610880070248,
          0.02914501923634666,
          -0.014563679765577861,
          -0.017131703522652628,
          0.023936758255965654,
          0.007698479127160679,
          0.006047021238829914,
          0.018192065757469914,
          -0.0249477146355916,
          0.021210472511970987,
          0.002779524391028687,
          -0.0023876024293781536,
          0.014080764463989322,
          -0.01955296796637767,
          -0.014238637380693794,
          -0.02424081070527472,
          0.027823871653700726,
          0.019226573220882365,
          0.0023478510638234307,
          0.02565951090437213,
          0.0005999928738309977,
          -0.01099551071777172,
          0.018627298531518434,
          -0.028309542805077192,
          -0.00706902195758892,
          -0.00718859167039354,
          0.016473439753288098,
          -0.005388036316197501,
          0.013083542020763166,
          0.010111300082099053,
          -0.006701877081806772,
          -0.020240431932342595,
          -0.006308454625565431,
          -0.017717890836188556,
          0.0186233046731668,
          -0.016151374999867886,
          -0.01179541325035455,
          -0.025729126299849456,
          -0.0272604765678128,
          0.007588410240668739,
          -0.009180710774492718,
          -0.02504013020634683,
          -0.02900183647853841,
          0.02668222493963169,
          -0.01207079297470873,
          0.011366539318199045,
          0.028019310904929574,
          -0.0008693274973469202,
          -0.02742237885517345,
          -0.011249870140383773,
          -0.0003827386340021742,
          -0.023959415902187708,
          0.00393914954543248,
          0.022168741368932744,
          -0.003984822335715569,
          0.02266711183769611,
          0.025056064603306304,
          0.012793091249819998,
          0.014201573009522288,
          0.01371944297165241,
          -0.029604479223916687,
          -0.010465958091237394,
          0.009124638301107525,
          -0.021421452407107973,
          0.00344177576339226,
          0.023548105564658868,
          0.01572218211842575,
          0.002146936596414198,
          -0.01916586261445337,
          0.013261696830519844,
          -0.0026948009517994524,
          0.008308189483693024,
          -0.02151997914808207,
          0.020774862557432237,
          -0.025923705808611638,
          0.021037149762641996,
          0.01272323288323142,
          -0.0035508347055284786,
          -0.016915170610652654,
          -0.0044371234493527575,
          -0.009376273343248063,
          -0.0025210933470437118
        ],
        "bias": 0.7471818950561752
      },
      {
        "weights": [
          0.0221936123877053,
          0.006395528803890292,
          -0.01694207449646455,
          0.016646817506645373,
          -0.006110310007554246,
          0.023169897811436933,
          0.0006089887451918609,
          0.009885218821910166,
          0.013246069169672477,
          0.008546629553129965,
          0.021115479615167354,
          -0.026510396760259358,
          0.026714511205617603,
          0.016032245426383436,
          0.010529534513949806,
          0.0015916159271948047,
          -0.006110129613873826,
          -0.013074443444448053,
          -0.027486132341881603,
          -0.012127154446547793,
          0.010730736461486153,
          0.0063001056169992575,
          -0.012392341698311198,
          -0.029000164175306046,
          0.016179129249393312,
          0.00260922447270992,
          -0.004465955407402938,
          0.013707933627831917,
          -0.008705770451363094,
          -0.02650814736320716,
          0.007810250826484677,
          0.023121332128652555,
          0.011509341207714144,
          -0.01573695787126068,
          -0.009729986285049726,
          0.01484723689520169,
          -0.003001008078566191,
          -0.013726002074658943,
          -0.001040223062491498,
          0.019637667180540545,
          0.0029953988556696842,
          0.020623181352585604,
          0.0035712919461536943,
          0.011845938728219388,
          -0.0114776264616798,
          -0.02564226525629305,
          -0.007754831549618129,
          0.0022849069096460978,
          0.010610481284478855,
          0.015360974016229843,
          -0.009063394244310692,
          0.027364445386405895,
          0.01747203370669801,
          0.02768945332452096,
          -0.01956014175842032,
          0.015408512145927089,
          -0.0019525049419136797,
          0.0029861211857938053,
          -0.017756336743383998,
          0.01945550954675558,
          0.0228138303513767,
          0.008547953277679425,
          0.015931352133260267,
          -0.008541591386469628,
          0.014196776602475557,
          -0.024275531204071048,
          0.011183423230446084,
          0.029792678790038316,
          0.0003009823901066709,
          0.02122236260072547,
          -0.011962678744679187,
          0.02935110058978639,
          0.029089248994690127,
          0.023650689234591918,
          -0.005091328219841151,
          -0.01345057397337867,
          -0.005687427949523743,
          -0.0048963783944896075,
          0.003712657799707593,
          0.028021186413660193,
          -0.029379614540400847,
          -0.015098367797373346,
          -0.028308885768367046,
          0.013895619135481915,
          -0.014870639955713714,
          0.022945164843512632,
          0.021741154495421446,
          -0.021835684550316224,
          0.029532407117677864,
          -0.017631343128336426,
          0.024300835750443735,
          -0.012169952745889695,
          0.0063558595274117585,
          -0.026962678614515553,
          -0.028108496670507594,
          -0.01149978256244244,
          -0.025645452121467405,
          -0.027362621041136,
          0.02070695159009918,
          -0.026737522821648055,
          0.0025250807543682682,
          0.021331607801681654,
          0.017396970500125758,
          0.023654951923141078,
          0.02143604312217444,
          0.022801727804966837,
          0.011928546756879946,
          -0.02566319142439537,
          -0.022542266172705005,
          -0.018246938797863464,
          -0.0217584622642899,
          -0.007785128087913203,
          0.0022962034511473522,
          0.01795293878173186,
          -0.0010692243673376851,
          0.020305055046229058,
          0.01416374190172423,
          0.021445608736577318,
          -0.0034077843555062153,
          0.022288992238228382,
          0.026853700720539025,
          0.0028991227533400887,
          0.018128017953261383,
          -0.007863405007288674,
          0.018917775759479415,
          0.014157834838642615,
          0.01305803749283177,
          0.025524008312079113,
          0.007309375875553276,
          -0.0066591078316279514,
          0.024263228593495424,
          0.013541332855959383,
          0.017261453388661856,
          0.021649013289022342,
          -0.00721039967588161,
          -0.012460526587818342,
          -0.017564530340695744,
          -0.011614673897615255,
          -0.025117614185306163,
          0.01167074659780866,
          -0.007012314978866514,
          -0.029881298022602955,
          -0.0011725667312058874,
          0.021745221418765386,
          0.02709500659237573,
          -0.012215247408995357,
          -0.006817395485127893,
          0.002470634622866022,
          0.004636194687961281,
          -0.01828814836811555,
          0.02764327634494409,
          -0.02353534105787328,
          0.018493762148040507,
          0.010269656920826209,
          -0.017834323235736603,
          -0.02477825090172749,
          -0.0017860899920700939,
          -0.01676919901290083,
          0.024186462296286702,
          -0.00695348823932164,
          0.027547802479364558,
          -0.005142622806410792,
          -0.008724822136371213,
          -0.015439762692341747,
          0.01306398574864999,
          -0.014768898876752616,
          0.013423350543486291,
          0.020991523763555536,
          0.006541964878129913,
          -0.013065267853778883,
          0.026609651360991124,
          0.023101614126715797,
          -0.028569226049399595,
          0.0033434817990325577,
          0.0003991411484878145,
          -0.012938538129932148,
          -0.015144753364497823,
          -0.006670788417915838,
          -0.005010630102623318,
          -0.0058002669102203315,
          0.025643626407378224,
          -0.0017090388253954251,
          -0.0024440979920050676,
          0.0037745084892052,
          0.0046848551064718955,
          0.020188613397637875,
          -0.007966194251205955,
          -0.0005489344301142368,
          0.004439262976470959,
          -0.014262601798829398,
          0.01998921414140656
        ],
        "bias": 0.6295936772101004
      },
      {
        "weights": [
          0.026303322217674924,
          0.015342893667617569,
          0.006305915094660566,
          -0.016512977773784885,
          0.013640604619320935,
          -0.003796563072215934,
          -0.010836898400665571,
          -0.002789333105078187,
          0.014652723413242155,
          -0.01717908756866284,
          -0.022675632177140522,
          0.011154675491951274,
          0.0033607550912556072,
          0.004474885826949056,
          -0.02029521109646745,
          0.0069158166340580335,
          0.008207885586887079,
          0.01860598423651011,
          0.0023616452385022482,
          0.003672718846139074,
          0.028536987163465664,
          -0.014736191113794405,
          -0.016847751929226565,
          -0.01251552156196974,
          -0.016430786604536042,
          0.0053633814892602855,
          -0.01844299587440169,
          -0.011694014240306111,
          0.0036807082999100946,
          -0.016217900703302965,
          -0.028402763523820485,
          0.007980926115432559,
          -0.0058696662421970774,
          -0.02988430748397695,
          0.025761418163595423,
          -0.011371621827946102,
          0.02418379998203219,
          0.004746658262960481,
          -0.02180020513284217,
          0.02477636641941343,
          0.021368845149128332,
          0.028856234905327828,
          -0.013786223195571323,
          -0.019967794079186297,
          -0.0057358032979202556,
          0.0001275422047061596,
          -0.02289657378523594,
          -0.0060442199006882115,
          -0.004845114935576048,
          0.026354865336899687,
          -0.014706025828746527,
          0.003537517381038663,
          -0.006095841020407472,
          -0.0016725612649852103,
          -0.014480875347603445,
          0.0031692629414636145,
          -0.020353786878349683,
          -0.023848843588188187,
          0.021371132509109346,
          -0.001617796071355964,
          -0.029692154007737396,
          0.0007004798869805623,
          -0.025580222054397223,
          -0.004326823436748145,
          -0.013616697810788312,
          0.025897275561988002,
          0.027219098305115264,
          0.02041954832667365,
          -0.028220977684076238,
          -0.024255404894253572,
          -0.029743303054069446,
          0.006972698759093857,
          0.02419286881414607,
          0.0017793623365509048,
          -0.0033831188797710347,
          0.012009525108545971,
          0.02412318169889336,
          -0.015424186935374352,
          0.0035641131991624234,
          -0.017381241282985408,
          -0.004876799306020439,
          -0.005463068006032797,
          0.003015952719527211,
          0.02481332581528651,
          0.019324466913201457,
          0.00971920403104315,
          -0.00158365703511067,
          0.0019096227392584944,
          -0.02109756385482977,
          0.019329872171234316,
          0.015879731464707315,
          -0.029131221297096416,
          0.0015647315191238756,
          0.00901933280098436,
          0.009720346451452873,
          -0.0008759947552674369,
          -0.0026863450082679798,
          0.0037842584131487778,
          -0.021970153804759713,
          0.023094764805179552,
          0.02893019355200943,
          -0.0023554654383010354,
          -0.024607159497523616,
          -0.02274896204027063,
          -0.029416235017260248,
          -0.0019163042164456363,
          0.02860961708903819,
          -0.02264972844975581,
          0.01890368236286999,
          0.012019645425305876,
          0.013290197462976272,
          0.025792584990230606,
          -0.015562570709964378,
          -0.02685540427751359,
          -0.0010981213511656353,
          0.018155188933055205,
          0.005694962850078859,
          0.012345131586764431,
          -0.00438085095922024,
          -0.022276001869001305,
          0.02382968046231286,
          -0.02347880310620226,
          -0.0003017466111896322,
          -0.01673965936379447,
          0.004266810043666455,
          0.003402268211446541,
          0.017740117677629258,
          -0.017929603509962845,
          0.0035423200821959114,
          -0.020254876667571364,
          0.026908990328742687,
          -0.014313056261848082,
          -0.02423135626389143,
          0.007641789969916567,
          -0.010010866795971789,
          -0.024655950685390973,
          -0.014008871040740844,
          -0.013698969060911018,
          -0.0022396521818373732,
          0.015270114061850817,
          -0.0030836424805988707,
          0.023375045703615288,
          -0.02734738860369229,
          -0.0006556675911363191,
          -0.010992131786845452,
          0.007989547605329432,
          0.0013071966459770532,
          -0.011163206559421542,
          0.005274603788616591,
          0.016597753045552104,
          -0.0026877731839594146,
          -0.028305581524928024,
          0.014383581009997433,
          0.023559142798197562,
          -0.01333781260369251,
          0.028538392991509884,
          0.01175988457957769,
          -0.029996233953769283,
          -0.01435403584603464,
          0.005659374949409747,
          0.011057923218739621,
          -0.009904112992671108,
          0.02712097037761703,
          -0.01250048365313761,
          0.011957581108630766,
          -0.025509365372144682,
          -0.006439965969060303,
          0.015088165016536967,
          -0.002653456762357717,
          -0.005983645042079978,
          0.01887232682968796,
          0.012372446043371725,
          0.001316782731478075,
          -0.021853065400857616,
          -0.02996415345100685,
          -0.013654295946411758,
          0.0054196338526826815,
          0.012286477803810529,
          -0.015388294660946366,
          0.0008945058299142418,
          0.02606267638105495,
          0.027706574353290228,
          0.01740895384371565,
          -0.001882718151673294,
          0.007338006482183308,
          -0.015026752383863229,
          0.027724626023764805,
          -0.0063511363019701575,
          -0.003448094487987746,
          -0.027542960911763576,
          -0.008453202986078122
        ],
        "bias": 1.3716064551135234
      },
      {
        "weights": [
          0.007568952630722513,
          -0.022156294055479257,
          0.01647855186219538,
          0.008983257973996787,
          0.02280845705203846,
          -0.014757999393491676,
          -0.022877255419230018,
          -0.020085488439984863,
          -0.02411900733151848,
          -0.013725194411554915,
          -0.019909047741161968,
          0.004710278329837642,
          -0.009762591702386553,
          -0.006443253811911263,
          0.025211292071044597,
          -0.004349475818608509,
          -0.02174484801876661,
          -0.0074389369788505355,
          0.021198932243833603,
          0.009673537816396287,
          -0.0160137030177301,
          0.008750406316862254,
          0.01827923340627529,
          -0.009859964020125508,
          0.018176381309698578,
          0.0053597377311514205,
          -0.014887919439341648,
          0.009935299134030594,
          -0.020754464845168227,
          0.01250844210720762,
          0.023484705867530827,
          0.0246658970639988,
          0.009850683369806962,
          0.013708629890513205,
          0.003826099638730318,
          0.006268457367731385,
          0.023408628298905824,
          -0.012748959918552873,
          -0.01588105696106103,
          0.014278447385771977,
          0.006097219216954712,
          0.01812622448293854,
          -0.027597075586761534,
          -0.028570609375862588,
          0.004573829308266136,
          -0.0016866376623794546,
          0.012269330314999737,
          0.0037151952396788854,
          0.020581236677496687,
          -0.01507301563682811,
          -0.010132861647102937,
          0.0016081732026680326,
          0.0039738006833609715,
          0.0036014494835940464,
          -0.013989197938787345,
          0.006164202897920752,
          -0.0105215450406324,
          0.017738829288435343,
          -0.002486476649377928,
          0.009042505843761768,
          -0.00440631199143221,
          -0.023368158140339008,
          0.02974059923865094,
          0.010604478357275363,
          -0.012488643429550344,
          0.0029607069255926446,
          -0.026458377253249322,
          0.028469822665688725,
          0.017174156917370363,
          -0.011989436052553742,
          -0.01521147228403932,
          -0.017609731750738607,
          -0.014912363487085007,
          0.01852829282853969,
          0.02114009971237111,
          0.017901848929605814,
          -0.011006188999796707,
          0.013097843236893919,
          -0.00957253304132679,
          -0.022634466790822625,
          0.02332125909956008,
          -0.021251293998043035,
          -0.025680178713139202,
          0.02586993197902205,
          0.022796565377836045,
          -0.02315712413815965,
          -0.019656196612794958,
          -0.005336790383708892,
          0.027829648570715182,
          -0.021393147471021397,
          0.017625018358729094,
          0.018048662719224944,
          -0.025410401660616904,
          -0.01635902589445573,
          -0.019339057259948035,
          0.0020371030098077225,
          -0.019246339887142867,
          -0.029206217327416736,
          0.017308057874127633,
          0.018546553202609603,
          0.0190759071216606,
          -0.01942735390973052,
          -0.013387687679213004,
          0.02118761608879531,
          -0.017925389765673205,
          0.023430799157172076,
          -0.02370903918221958,
          0.005905006164961819,
          0.02341409697018896,
          0.006304141543396369,
          0.009452288625543454,
          -0.016137347438063575,
          -0.010067253096498203,
          0.009201538177451722,
          -0.021910980280168794,
          -0.018998046481269938,
          0.008784248301786764,
          -0.023189257388163978,
          -0.017284133757147206,
          0.006575849404169019,
          -0.013975627894404822,
          -0.029057149046199132,
          0.020500539320971116,
          -0.01651885128909365,
          -0.02911464282760842,
          0.0007454432628875782,
          -0.0035049359099689897,
          0.004514767396780209,
          0.021300895863811176,
          0.027180277267462756,
          -0.01754283531561926,
          -0.006099097098769792,
          -0.028949498418963823,
          0.012490698709940906,
          0.009250328195962387,
          -0.003744924428364379,
          -0.025416167008563955,
          -0.016231976079435023,
          -0.02909913576044397,
          -0.007092141196282212,
          -0.011886898583816172,
          0.016291693324586395,
          -0.027450351501564628,
          -0.006942005509874838,
          0.006818270648981432,
          0.010285084390103914,
          -0.007309546740159226,
          0.013863863465502536,
          -0.029565325115974983,
          -0.024809482008717677,
          0.015401620450391819,
          -0.01375373384685702,
          0.008525124639083642,
          -0.004717639024351163,
          -0.023591435461203274,
          0.00977150131742014,
          0.00904209764772785,
          0.02389276607288019,
          -3.4215007567613837e-05,
          -0.0026008527309959346,
          -0.008034161845769262,
          0.023837451497856953,
          0.015189847859218841,
          -0.0036296814172486133,
          0.020880196190708293,
          -0.007892121484341989,
          -0.0052250237333622725,
          0.02053372805467965,
          0.023098266587223512,
          -0.01232794144545337,
          0.020681022030659586,
          0.021451743053235543,
          -0.02808872482600901,
          -0.0007525246388500259,
          -0.020731662419343485,
          0.014255347368224064,
          -0.0071795829744612585,
          -0.00948602392504077,
          -0.024602106902279257,
          -0.02602710165795162,
          0.027572279648594378,
          -0.020514778013926028,
          -0.02686174437414526,
          0.01630621228918193,
          0.00021225985088395988,
          -0.009387661305548647,
          -0.0223782884390641,
          -0.011974611494258748,
          0.002580293941526611,
          -0.022946956852750777,
          0.02922055298678785
        ],
        "bias": 1.3392136253405427
      },
      {
        "weights": [
          -0.008326004740190303,
          0.00501023815642726,
          -0.00028156690710685883,
          0.025302046029726646,
          0.0032370434595882652,
          0.012146753552245572,
          0.015370577764857715,
          0.008285630290767482,
          0.01355495135123553,
          0.011115870681157637,
          0.0025315646655889312,
          0.009735771143191678,
          0.028457303172817805,
          -0.029559407600149152,
          0.01473812320050498,
          -0.010321396283805719,
          -0.004758568679392384,
          -0.01718660875905559,
          -0.023623007723245406,
          0.01140090348650459,
          -0.0238954856013853,
          -0.023454484923650737,
          -0.0015375852992615228,
          -0.022010649687694842,
          -0.015664416439201096,
          0.016834204762240138,
          -0.019603059392228128,
          -0.02577266661239858,
          0.020031492493732032,
          0.014487079447490163,
          -0.006675343701933411,
          -0.00743980331036518,
          0.01235478373021686,
          0.01798454481410798,
          -0.02170591761800525,
          0.029620876131854622,
          0.013647793019637026,
          -0.01685632086498164,
          -0.012504130357753673,
          -0.01636458982153307,
          -0.007074714069053266,
          -0.007235327255639162,
          -0.017771263775728685,
          0.002610797664698558,
          -0.02127333467827318,
          -0.0026618084556210737,
          -0.027221769796295012,
          0.01270511393839345,
          -0.005917681226704986,
          -0.0024389759110456655,
          -0.02028639468167058,
          0.0020421418913348158,
          0.027232022673745755,
          -0.029283594646727962,
          -0.024543099798483344,
          0.009926984787764992,
          0.008849799555697889,
          0.02970421631074026,
          -0.013873991274611606,
          -0.02306300477226012,
          -0.025639618519924145,
          0.012663132593383399,
          0.003407801123730611,
          -0.02603133625933314,
          -0.027030793954275097,
          0.009641116125368887,
          -0.0038437252815412097,
          0.025474999095754403,
          0.0018584443321029431,
          0.018550665556994632,
          -0.0014173396288593258,
          -0.02054145855549745,
          0.024726071468976638,
          0.0016027684213149387,
          -0.022438874087953517,
          -0.0026788073100063314,
          -0.0005123984403598569,
          0.01440801960947282,
          0.02102472291466226,
          0.024407304867114767,
          -0.02367629607071676,
          -0.015314182754692497,
          -0.028003185876025884,
          -0.012519055406121003,
          0.007260276150613053,
          0.02496681872266386,
          -0.002705568192699792,
          -0.010053926411715704,
          -0.011847608907198964,
          -0.012623383652101555,
          0.009520358353792502,
          0.01040636747573885,
          -0.01217513807611837,
          0.027627414381808386,
          -0.008195927751292454,
          -0.02307381379517491,
          -0.008580326153218985,
          0.02700428260869872,
          -0.0013684111352604798,
          0.019662272047104398,
          0.011937327933290241,
          -0.015778923144177948,
          0.028993585125965907,
          -0.029141035107909934,
          0.005711147473726932,
          0.015994457042803487,
          0.011137962974057322,
          0.02548025213383536,
          0.006257820098285648,
          0.010311771849248176,
          -0.008522047604153392,
          0.012006769965090272,
          0.023037402646247977,
          -0.011138354127128106,
          0.02940045596905138,
          0.0030985151532209043,
          -0.015815100577723753,
          0.024634494731081445,
          -0.025834638621394138,
          -0.01897537844924603,
          0.023307661119783454,
          -0.003216378515040842,
          0.015941355771234213,
          0.012160793433733948,
          -0.011556224277880046,
          0.01980851634928315,
          0.002772461309523737,
          -0.007243021829106924,
          0.019856505976688345,
          -0.012199298693144813,
          0.00037193282078047327,
          -0.018493603649850594,
          -0.005296976507801896,
          0.02199081554000589,
          0.01387884113068142,
          0.018642313374691334,
          0.018047935815116718,
          -0.0016596429225903889,
          0.01180644531485512,
          -0.012259634208066531,
          0.012884925200163065,
          0.002976612673279172,
          -0.003040719541384646,
          -0.015440035461312677,
          -0.021545257765893597,
          -0.017450056831897924,
          0.009010631032739809,
          0.0009741840070556507,
          0.009917801842802929,
          -0.005825234430678814,
          -0.025344167467885433,
          0.0003971976750193375,
          -0.004377751524037705,
          0.029948238920692413,
          0.005557609981818985,
          -0.005347122819014321,
          -0.006097298180851203,
          0.002450855862950782,
          0.028724049327184524,
          -0.01698246540235551,
          -0.004052957362611666,
          0.006682477505044929,
          0.0029868560942995018,
          0.011867412240380779,
          0.027644906867409315,
          -0.0019164860171389242,
          -0.02221590499869069,
          -0.004144157968650083,
          -0.01307222303342227,
          0.004944951205962861,
          -0.01685407248115956,
          0.024806666196760925,
          -0.026352904723084138,
          -0.001950944998090478,
          0.00521535221969769,
          0.022036119510199896,
          -0.021982509414003953,
          -0.012199998377308653,
          -0.003285051390311145,
          -0.02294867267286015,
          -0.0035239537903821,
          0.014548997473785276,
          -0.027388849285191013,
          -0.028239078906535993,
          0.0012427715649046094,
          0.00013574912592072622,
          -0.01739875686902894,
          -0.005129547507805421,
          -0.00024057588069383712,
          0.022663556915897824,
          -0.002694746910446716
        ],
        "bias": 0.7618774288742646
      },
      {
        "weights": [
          0.01560828088991608,
          0.015637403095620263,
          -0.022982895691738336,
          0.023791204671330432,
          0.013211165597586338,
          -0.013509877544648153,
          0.004755258728590554,
          0.023411064697136108,
          -0.005841321418345622,
          0.012117733476542797,
          -0.023834044115098194,
          0.014721181738226875,
          -0.029576819668041786,
          -0.02605885699458367,
          -0.027746802277795104,
          0.029384616526837715,
          -0.02873209096069271,
          -0.024838528888010362,
          -0.025613761166963803,
          0.020223120590646328,
          0.0024187002046860695,
          0.003090038366260754,
          0.015990924624501773,
          -0.00398886024870938,
          0.02051772471522901,
          -0.01051738325969381,
          0.007688503422908936,
          -0.007457412203461428,
          0.015169258733941843,
          -0.02271874698834841,
          -0.007160833623301652,
          0.014793544852446057,
          0.011334554392370369,
          0.006911765209080267,
          -0.02796257653363654,
          0.00439134313935842,
          -0.024277083796392655,
          -0.005429142199993516,
          -0.0045446228840234255,
          0.02122277567909671,
          0.012444003024114768,
          -0.017003810938966777,
          0.010133567869670033,
          0.02076410230047234,
          0.02180323097275167,
          -0.023335446846002954,
          0.01913249175675978,
          -0.02232115828474507,
          0.027510198170009735,
          -0.029563522711386823,
          0.007285477849218368,
          0.005591786298229075,
          0.003077184166174203,
          -0.018564187082417402,
          -0.0018682379085771944,
          0.002218657821627716,
          0.001148501793244848,
          -0.019314555692239933,
          -0.02923280356603497,
          0.009620609290253504,
          -0.01992096483895073,
          0.00527330352771907,
          -0.01626219801515049,
          -0.0009760825076199284,
          -0.017760002597012693,
          0.02193826014560917,
          -0.012894340574784353,
          -0.014725611878645687,
          -0.029403216812963234,
          0.002500089101900395,
          -0.011711223675960555,
          -0.014271809321967862,
          -0.001501973715646407,
          0.009287628651557675,
          -0.0004331919224534152,
          -0.007278203263489352,
          0.010169253860436621,
          -0.02870662861447061,
          -0.0004755922407819295,
          -0.019693511419867124,
          -0.014320351767941431,
          0.01235205237688844,
          -0.02020867860451861,
          -0.017705329643106595,
          0.022041482929347614,
          -0.022278212956256892,
          -0.0014026503928537583,
          -0.003553966313047628,
          -0.0014553121739626675,
          -0.017569168411245208,
          0.028718143597931158,
          0.019059139632091618,
          -0.0010312687135058847,
          0.007108979523615257,
          -0.024052724459249684,
          -0.029111455364818715,
          0.025841372284895227,
          -0.024247477757369865,
          -0.022226307926289088,
          0.013907277141850569,
          -0.018328582963336018,
          -0.010716487554266213,
          -0.021554975360147745,
          0.023463954017078993,
          -0.02765066722843331,
          0.025069366419522565,
          0.01249854768700609,
          -0.014581582428265329,
          0.0026700406100682306,
          0.025365170279320857,
          0.02117276329379468,
          0.02349776095422653,
          -0.0024419991023542052,
          0.02200329083787455,
          -0.026301182057595705,
          -0.008325879801393054,
          0.012035121939854662,
          0.024465610830388285,
          -0.029522502881267246,
          -0.023101033609670554,
          -0.0181741366091837,
          0.016300990899981938,
          0.0028083385066664315,
          -0.016075771889821823,
          -0.02181604689473813,
          -0.00015812858912071445,
          -0.00596858392911271,
          0.0016994096871981584,
          -0.0006028082609017688,
          -0.027996284968856932,
          0.015277375126639542,
          -0.0010464994063165527,
          0.013491955838705896,
          0.002888218809541765,
          -0.004982796657836991,
          0.021036110546625797,
          -0.012330414107094397,
          -0.015858621563393314,
          0.009545960251645752,
          -0.014203527120464559,
          0.003539739875688265,
          0.010532372251486163,
          -0.02639574233029858,
          0.023983630627851575,
          0.0075022172791680344,
          -0.006552130218692952,
          0.0017032630262416096,
          -0.016717891602187524,
          0.013475246066955347,
          0.0266976706661333,
          -0.024091766730022647,
          -0.0017826600789886057,
          -0.026279116860599333,
          0.018260664141649632,
          -0.019391779493333157,
          -0.028717369268756166,
          -0.025878106691253414,
          -0.026168699266875605,
          0.023666003294155177,
          -0.024968817869794997,
          0.0022461160825111084,
          -0.024825337202656172,
          0.00641787457738726,
          0.01170672264118456,
          -0.02644060593421501,
          -0.023207989939383288,
          0.0031051198025123378,
          -0.025772461167905922,
          -0.025014926836790796,
          -0.012828987606125851,
          -0.015300830935156542,
          0.027421188105044382,
          -0.00604463534161085,
          -0.00276822156853386,
          -0.010078455097528232,
          0.012468625626669082,
          -0.017908220445853443,
          0.028629360971600057,
          0.017370707513795193,
          0.016609956300306275,
          0.012626881350738813,
          -0.02304210550917008,
          0.029635652251080086,
          -0.028798424176168062,
          0.023627697322613953,
          -0.018543736484576502,
          0.016314118621263606,
          0.01337342488742814,
          0.02385182299941311,
          -0.027501674387603228,
          -0.010886411905167488
        ],
        "bias": 1.0730180430382563
      },
      {
        "weights": [
          0.012703487453274882,
          -0.000260128197625175,
          0.018062947896339547,
          0.02831747862094324,
          -0.004035711601562658,
          0.025960858719933637,
          -0.02359431582983537,
          -0.02172858205181754,
          -0.005846527757037808,
          0.026229865197283896,
          0.02456238978956083,
          0.02419478959494615,
          -0.02865775523670273,
          -0.01599773696703142,
          -0.013587351721660305,
          0.002167416387507101,
          -0.010157904098870404,
          0.005688480835120607,
          -0.006459347242358873,
          -0.0029289436529875285,
          -0.0096615757420466,
          -0.0033307709262833246,
          0.01844386327634811,
          0.021317315473341765,
          0.024379701126435692,
          -0.00343098850860284,
          -0.02743931143213578,
          0.0030409191794870047,
          -0.010750305187328016,
          -0.022048645052776816,
          0.02557583381214846,
          -0.028797799877916454,
          -0.025192027049127073,
          0.011272740931045487,
          -0.0103919358925758,
          0.02632316584449939,
          -0.020362789682392447,
          -0.026292301600915502,
          -0.005564107433210296,
          0.014843955128522338,
          -0.024811545137658493,
          -0.029076639200201235,
          -0.016281139834953915,
          -0.0024283280234341682,
          0.0011036632659863592,
          0.001464180198247296,
          0.02333657990113825,
          -0.01926319233445751,
          0.0007658115912875241,
          -0.025423548826065706,
          0.01863308554168832,
          0.026113054016008788,
          0.0005082256809647405,
          -0.02689357018174542,
          -0.016809793166062716,
          0.004431595815963432,
          -0.009728348708965825,
          -0.010250529672144966,
          0.001742047988468276,
          -0.029523816216177126,
          -0.02023893433714123,
          -0.008490717571328393,
          -0.029015736118163524,
          -0.004075483349236787,
          -0.023548066810242567,
          0.012333039763148125,
          -0.018205383233725732,
          0.024629235465327158,
          -0.009826192637989312,
          -0.00021938501050932854,
          -0.01991349965768323,
          -0.02824998159368666,
          0.007265435172616387,
          -0.0048741982091869,
          0.0021847493560667453,
          -0.02739909987126437,
          -0.011846031735443102,
          0.01938669782550216,
          0.005900678300479911,
          0.005712435201552256,
          -0.028445069340569163,
          -0.01768964594319503,
          0.01836618464375224,
          0.02647310901254102,
          0.010030464262226882,
          0.006507593755286527,
          -0.002808390534492774,
          -0.027796047932736063,
          -0.01862130736682458,
          -0.011054690229633957,
          0.021463405247625682,
          0.0014143190743093823,
          0.020895632374455138,
          0.014835234253808186,
          -0.015994485687147956,
          0.02732325712265523,
          -0.0017107674491137446,
          -0.018481230914974264,
          0.026378440334056404,
          0.023600362927923182,
          0.005733267379849319,
          0.018559829066550133,
          -0.009801843095292372,
          -0.022166068702050047,
          -0.003663216738962912,
          0.020738106050708728,
          0.012108722030191324,
          -0.01784487948383031,
          0.015852731954833242,
          0.027486225477533287,
          0.013588044363993981,
          0.01651388604696092,
          0.025983118433455417,
          -0.01778155397663477,
          0.023666568034524188,
          -0.012050639123162479,
          -0.022725179739508036,
          0.0015619980332935574,
          0.005248152222602623,
          -0.009364474766875987,
          0.02363733878823772,
          -0.005291285485928995,
          -0.0022288891782690605,
          0.005347888850993639,
          -0.029158811612100825,
          0.0023824995944831118,
          0.014340097448674163,
          0.027003835404635357,
          -0.00796496648300599,
          0.022099672167264127,
          -0.002170087886781854,
          0.004496936514564551,
          0.0072687537144016864,
          0.0041790312519705206,
          0.028571107634601182,
          -0.007844466061385419,
          0.0030893833572114143,
          -0.005936742975852387,
          0.004708351600047532,
          0.0007218113289147177,
          -0.02481997677188533,
          -0.02544983575059561,
          -0.006469777729018574,
          -0.019348085146648306,
          -0.011519952249816782,
          -0.026014950608892334,
          -0.015334308946546475,
          -0.023112691140942963,
          -0.015305985628141396,
          0.026358642699034006,
          0.009715051851092248,
          -0.019145181544484163,
          -0.017196395546186842,
          0.005602486951315704,
          0.0018091300845291258,
          0.02228172308956735,
          -0.014936530861785084,
          -0.016075684390576404,
          0.007344053054791841,
          -0.0095780824565147,
          -0.008871316113173468,
          -0.02762263113810821,
          -0.021223218517822592,
          -0.0154715509164498,
          -0.023307876754306293,
          0.015308935284298525,
          -0.005032351554416864,
          -0.0042518816715029495,
          0.011953902722316986,
          0.005480837169704995,
          0.015773214216342882,
          0.028132664402536547,
          -0.013989341392156015,
          -0.01782692444336019,
          -0.02184887524854147,
          0.01948954735328324,
          0.02828038589315779,
          -0.007568686465367715,
          -0.020936765958777356,
          0.005972367340064913,
          0.01348814089803587,
          -0.0006999774480221967,
          0.016151963879936296,
          -0.013410793758186594,
          0.019236783090526788,
          -0.023974518554428406,
          -0.024901852248190894,
          0.029981978189112732,
          0.026513400997149543,
          0.02378610883673911,
          -0.003398222730020932
        ],
        "bias": 0.5881995560496274
      },
      {
        "weights": [
          -0.018968061974422364,
          -0.01001480127681409,
          -0.0007139914699652618,
          -0.007368827814168893,
          0.011027674249396088,
          -0.013452897129352302,
          0.017523501352985603,
          -0.002507439034424238,
          -0.01577646328241014,
          -0.012640863488786753,
          0.02718354112670405,
          -0.017462046108086708,
          0.009003918537083953,
          0.0161109336423804,
          0.02034569731337331,
          0.023609325488303953,
          -0.027758366681987886,
          -0.0032076501527312125,
          0.006402577517797506,
          0.01796940180557008,
          0.001809838536372857,
          -0.005897694638947511,
          -0.017493773498256125,
          -0.014818154868500875,
          -0.015866901583008415,
          0.016787673629920834,
          0.025276903935739267,
          0.02099625149432384,
          0.010840256716061286,
          -0.02628579698258942,
          0.025633554648517798,
          0.002094616343197908,
          0.01800027989558714,
          -0.013232069794090268,
          0.022278950685598306,
          -0.020135904401813585,
          0.0288213886828664,
          0.022893337741647618,
          -0.0033895625750798818,
          -0.0014639257510806608,
          -0.022098929335849213,
          0.021574111742658254,
          0.012226270334965088,
          0.02704192716453696,
          0.022839658608646687,
          0.02487056221631917,
          -0.02869064351626266,
          -0.006921223268835545,
          -0.025369187868988154,
          0.02316338798677072,
          0.021072935903448657,
          -0.014145450785729291,
          0.015714196740442353,
          0.021653754473473077,
          -0.00151336025470682,
          -0.013344006418909746,
          0.0143316691595428,
          0.02527391743294439,
          0.02044918134318923,
          0.021870616343268784,
          0.01607512910588344,
          -0.005509785465273722,
          0.0037917820950723533,
          0.02668142433720938,
          0.005525176321847833,
          0.014818472277510028,
          0.018881892306822863,
          -0.004402346861089292,
          -0.002589828961548312,
          0.024882823783230965,
          0.020949140625906373,
          -0.027263806977947946,
          -0.01841941498993825,
          -0.02777361125272223,
          0.01928886701446233,
          -0.008334017161702519,
          -0.016264836270997837,
          -0.009056991448509414,
          0.026027625861009096,
          0.006877709988745435,
          -0.024799496004181246,
          0.0196714928477394,
          0.01335543946513168,
          0.007837794141962666,
          -0.012563340359600845,
          -0.009220740501155837,
          -0.0029482465381176076,
          0.022983820312467762,
          -0.010740426677046364,
          -0.01612018446074874,
          -0.010272736104535302,
          0.015649407395887098,
          -0.013539868319882225,
          0.003179098036785892,
          -0.022875300092964637,
          0.011093286469047094,
          -0.009002622489755828,
          0.0015864568933945389,
          -0.011397620032556396,
          0.025975532912362168,
          -0.01357369882831811,
          -0.022238767769736087,
          0.027391677699090553,
          0.0007386290892729581,
          -0.005504168585911091,
          -0.018521991687984615,
          0.021686660391321264,
          -0.0013226383384565138,
          -0.02392437460127598,
          0.02202166870973169,
          0.025223422858739936,
          0.0039006363975841105,
          0.02302989247009877,
          -0.025240110418259215,
          -0.00878110954775977,
          -0.016267458578202144,
          0.0011819915913967964,
          0.018826618904740584,
          0.00451553382374649,
          -0.020215685854941913,
          0.006546622843302187,
          0.015202224897850232,
          -0.01682918517514203,
          0.011264851880889284,
          0.0010342353762801335,
          -0.023977843945935967,
          -0.01703364869789708,
          -0.027561108990492054,
          0.001948650132630965,
          -0.025052199744360584,
          0.002004219348806416,
          0.02843522377024068,
          -0.006310484853570077,
          0.016690471475198303,
          0.024130233917509757,
          -0.01850610245141525,
          -0.022594681338621386,
          -0.019215337454952363,
          -0.012918914011704679,
          0.011502494527691351,
          -0.019706224489348678,
          -0.013935116555818812,
          0.017789397887703298,
          -0.004404711598975073,
          0.006401359503380374,
          0.028536141354900763,
          -0.016333781648042004,
          0.010849985438515224,
          0.0033233034713692072,
          0.024869166584758504,
          0.017073042799478404,
          -0.015073856216451171,
          0.014790132060891366,
          -0.0011685084332941909,
          -0.010535030052991754,
          -0.011793896607155692,
          0.011693290248881008,
          -0.014800597374149148,
          0.01638491057480891,
          -0.014443159743845866,
          -0.015026516698054711,
          0.026989913611078505,
          0.013724642139397301,
          -0.01871126878600543,
          -0.0077064113579106246,
          -0.018942228496854042,
          0.02564017980028778,
          0.008887224610118663,
          0.0029202223499126614,
          -0.020664465374683957,
          -0.025690907846367877,
          0.0184662678991694,
          0.00756068082568602,
          -0.029925946395962553,
          -0.00443140728067332,
          0.014034928583130213,
          -0.015383447993453684,
          0.026665803577402995,
          -0.023519960149405238,
          -0.009189425676543947,
          -0.00024597870451550236,
          0.027297555426638594,
          -0.017553093051040997,
          0.01896511789634208,
          0.017300846885324767,
          0.024227712178352484,
          -0.00021870917138821708,
          0.0032031995463032426,
          -0.01665361415046475,
          0.009432793882083582,
          0.022759326149364767
        ],
        "bias": 0.8807469440150383
      },
      {
        "weights": [
          -0.014462852051466494,
          0.0033251105655636923,
          -0.000998689500173941,
          0.006058406673657542,
          0.02002286475930635,
          -0.02419844777402904,
          -0.026991758928619325,
          0.006384580626935227,
          0.019316393187210436,
          -0.015201086277140317,
          0.005748692007562228,
          -0.0007281511529019409,
          0.024948016255108146,
          0.006335048406869416,
          -0.02019991030272156,
          0.0065921360065081605,
          0.018912811353809088,
          0.019496935452057863,
          0.01238029331979016,
          0.02256980910136313,
          -0.011890111832130578,
          -0.00010963530997410223,
          -0.023864028416195893,
          0.00857533345750671,
          -0.028364458916287232,
          0.023574818877783718,
          -0.018583061416976996,
          0.012532274000672847,
          0.010736406837975832,
          -0.011425883804967799,
          -0.01176782107007765,
          -0.023851545288320515,
          -0.02619239831311196,
          0.012711180209370704,
          0.008843898048976596,
          0.02773115053692478,
          0.00199292618380123,
          -0.014814698671820491,
          -0.001476967548260242,
          -0.025618475783095798,
          -0.017767075944074298,
          -0.019285803603431108,
          -0.01722862700968414,
          0.028611415623619345,
          -0.0053763061342242055,
          -0.0220503076361658,
          0.004380026672575997,
          0.027575845176800985,
          0.006863873477622538,
          -0.008097947023927923,
          0.0033683475255789214,
          -0.0038363198226775107,
          -0.008810334802474493,
          0.003686476941782646,
          0.0004240589345589005,
          -0.018812461361379366,
          -0.029170721552926764,
          0.0005506707214535701,
          -0.023311554843553458,
          0.006770217736313214,
          -0.00832119658656507,
          -0.0014770492623601347,
          -0.017900762673955177,
          -0.0019453633748519258,
          0.007259154400078988,
          0.009686352167605834,
          -0.028025390732849386,
          0.016102059023388716,
          -0.01518193981069506,
          -0.02636335931580076,
          -0.017699716064899243,
          0.020021537290543102,
          0.029438289707849112,
          -0.022608644465154357,
          0.011494061895809031,
          0.025588620371614808,
          -0.02086279546821085,
          -0.007517954376487203,
          0.025177196628243532,
          -0.02454014164592194,
          -0.017798624965439717,
          -0.029363027380840442,
          0.007662666242246638,
          0.021666274241442428,
          -0.026346109468538315,
          0.009892353862054663,
          0.02847463139513868,
          -0.0022680492845355282,
          0.007079740680724256,
          0.01479130675363971,
          0.0038606524077145696,
          0.029629327353207537,
          -0.01246081231562176,
          0.006924893495379954,
          -0.01741318908020855,
          -0.017007139423897644,
          0.02893370124173391,
          -0.027846222850211926,
          -0.025078863027763996,
          -0.018668717326827594,
          0.017698525815100417,
          -0.016524132112569437,
          -0.021879108138248428,
          -0.02918091185611828,
          0.017429536159749084,
          -0.009911435675831332,
          -0.0047202849893971215,
          -0.013160078983708783,
          -0.00899421562137856,
          -0.02381108041589208,
          0.02400977804032523,
          -0.02526818200518284,
          0.011966754344777057,
          -0.01578689223195751,
          0.006645789890563275,
          0.001939128033069011,
          -0.02870423910851,
          0.022805998323545053,
          0.024728552496040536,
          0.022743401575139946,
          0.0015366588525553004,
          -0.004504569610077849,
          0.019484000430333347,
          -0.0006097726484871509,
          -0.022025959194892447,
          -0.006949959202200887,
          0.02605500484295257,
          0.0043639907976509296,
          0.012092386057652393,
          -0.02385162132920457,
          -0.0255849233045099,
          0.021589358084247987,
          0.005155798491290581,
          0.022240034151575855,
          0.006103264392708654,
          0.017739796582857896,
          0.011965106761303627,
          0.012542020901890855,
          -0.019992721671898764,
          0.024123656855231462,
          0.028303566405796038,
          0.014976081711315578,
          0.020019003840206065,
          0.017899213935202107,
          0.017342217919630108,
          -0.00415951991071075,
          -0.0026776898033152863,
          -0.016277423875322067,
          -0.008947066387002222,
          -0.021795140027976605,
          0.0260195728241501,
          0.014673496699683791,
          0.010981261288122886,
          -0.02901816953395112,
          0.0212560117895884,
          0.012734887793739227,
          0.028961614121546277,
          -0.002769127390002922,
          0.007289306074385778,
          0.00284205497515945,
          -0.00570456230845701,
          -0.0037217309058065334,
          0.029130705042934753,
          -0.018026357834530472,
          0.0079132244502007,
          0.012855255565929223,
          0.02131751640768942,
          -0.025132671923970378,
          -0.020657853830901275,
          -0.019362632930315125,
          0.003977726608806874,
          -0.017210525531619617,
          0.02815136804609219,
          0.013816773698093927,
          0.026299692993447456,
          0.020129765939473576,
          0.010621184988660388,
          -0.0031403956138977285,
          -0.0005172048834011268,
          0.005244380758878543,
          0.0018343970480971458,
          0.010248277551054265,
          0.016880740956376566,
          0.016906454937290177,
          -0.02348562366460262,
          -0.02848430264251662,
          0.02413613462979644,
          -0.010392861606261697,
          0.0019535251563193787,
          -0.023732654001176683,
          0.0241114985259432
        ],
        "bias": 0.5224392979967349
      },
      {
        "weights": [
          -0.024896095452844023,
          -0.015498852059435646,
          -0.022397424104335026,
          -0.012107467370242632,
          -0.022304399480387743,
          0.006777115947390798,
          -0.016977175784198606,
          -0.005822955029868952,
          0.014192365472548554,
          0.01085676553564311,
          0.02559792789674885,
          -0.004251900319269201,
          -0.0022393020115284053,
          0.01779623625119507,
          -0.0035486871690795264,
          0.004395768167246836,
          0.02543935848398464,
          0.01948436120426334,
          0.019052374073942377,
          -0.006647165988251193,
          0.0027145962173770258,
          -0.01537098385684123,
          -0.006974866092172145,
          -0.009508891282105532,
          0.015086421859864786,
          0.005519657199112016,
          0.022751738015900073,
          -0.005009173321416392,
          -0.015499667348350312,
          0.0030116706272691612,
          0.0031589396249222315,
          -0.01572645656325542,
          0.00955720019041581,
          -0.02357745384811547,
          0.02324906715878807,
          0.02444016092630208,
          -0.0005537022462884442,
          -0.015964347042769243,
          -0.015297072199651032,
          0.02959502279046996,
          0.01317369219269908,
          -0.013943440854300576,
          -0.014134322074168197,
          -0.028130351639824785,
          -0.026600922336183223,
          0.005063631875841822,
          -0.024580621126109314,
          0.029921144909584065,
          0.02399845184660463,
          -0.01340589755932426,
          0.011279342086310928,
          -0.003656077749608834,
          0.010553836076788774,
          -0.01764715599632402,
          -0.0006374345396324213,
          0.01698895404224806,
          0.029115435452674948,
          0.019719802635602697,
          -0.007398897003906349,
          -0.017850753755129345,
          0.0164988878351359,
          -0.020803535047057793,
          -0.02703651850208356,
          0.026893089340688014,
          -0.011897370076899932,
          -0.029148093414911258,
          0.0020356919074792854,
          0.020561304303817682,
          0.003601538421206779,
          -0.02764855045856916,
          -0.009164284003938462,
          -0.007706996675673598,
          -0.018053538062190906,
          -5.9605743087175894e-05,
          -0.009593303657437623,
          0.026711661643870954,
          -0.026679724783484102,
          -0.001244595298571214,
          0.012749966703559303,
          -0.018733947630443268,
          -0.020442937266374618,
          0.016025370036436566,
          -0.016568603424209224,
          -0.0070762727287350564,
          0.025152229042730588,
          0.007636923479479828,
          -0.019051158047160465,
          0.003109279161832207,
          -0.0028673585868991373,
          -0.025342596062738552,
          -0.02415971501778515,
          -0.020491733605780337,
          -0.02433140090524865,
          -0.0017377723174890301,
          0.027221778332293542,
          -0.021990208213392863,
          -0.025010504224940503,
          -0.0022066068585237623,
          0.010452456951163869,
          -0.005597960058755097,
          0.00850067406853821,
          -0.015967858816601087,
          -0.012654076015781748,
          -0.0047232028709743405,
          -0.012741762378172355,
          0.027707458228675513,
          0.026092637259561305,
          -0.004175746041648418,
          -0.021688849954022378,
          0.029199227720294325,
          -0.014524475239570768,
          0.00543542540565492,
          -0.014467595713257354,
          -0.027783385412225223,
          0.0198784815058968,
          0.010924375811068171,
          -0.00846782352478975,
          0.013855798308116757,
          0.0005353955407583627,
          0.012930059306090959,
          0.003405639326270242,
          0.017425900545251692,
          0.026302624930806408,
          0.013040110093679252,
          -0.003209489433529212,
          -0.009160805242271051,
          -0.012653829476765799,
          -0.0056758840833559185,
          0.02510404983558743,
          -0.01082441890386375,
          -0.00922573592855715,
          -0.0003478407441574287,
          0.012222575687951119,
          0.0029233236890569697,
          -0.02848199919608802,
          0.020310035227994745,
          -0.021234059128827726,
          0.011674701637193252,
          -0.018887542817905077,
          0.012136946879977684,
          0.00505233421717334,
          0.0018660065046205779,
          -0.028559022240687,
          0.009071289565924338,
          -0.01307068019540468,
          0.02840881814699469,
          0.015504831505832192,
          0.024064566881133675,
          0.01872842206635683,
          0.006526883471468195,
          0.007563821665758676,
          0.01678557918157928,
          -0.02976039806498159,
          -0.017073553626161385,
          0.02635289890242551,
          -0.007201706254909682,
          -0.010797712646130265,
          -0.023513085468876482,
          -0.014009521801827816,
          0.0042406978587673574,
          -0.014735734411054519,
          -0.02852396997606212,
          0.02564202044874702,
          -0.028255013250831282,
          0.0028649941029069217,
          0.028655411766983836,
          -0.014929964851058138,
          0.01222550610098537,
          0.020159676069751026,
          0.013997391214309221,
          0.0046672001640837915,
          -0.004345055278040501,
          -0.0034541854048803673,
          0.005494510670354759,
          0.02452160654998671,
          -0.02587151431155132,
          0.01936518864736523,
          0.021747165954704772,
          0.014138766183871332,
          -0.028737124661942615,
          -0.015756876107547585,
          -0.007110743954565263,
          -0.002725253718497505,
          -0.01833304861459721,
          0.011913762059542206,
          -0.028635094044996187,
          -0.015390125973969373,
          0.025799632232679122,
          0.025928771632032527,
          -0.002578782252185035,
          0.008969702472674139
        ],
        "bias": 0.9118943998163193
      },
      {
        "weights": [
          -0.011988690852704549,
          0.012419754334137403,
          0.009465549113744517,
          0.017903417647485723,
          -0.02350294197366124,
          -0.01701020072239479,
          -0.02285528656954235,
          -0.007243145439407406,
          -0.014536377549369432,
          -0.022772580484183257,
          0.0068153881631532395,
          -0.026198448341053854,
          0.003384142988034633,
          0.00244336850736062,
          -0.02387671128145038,
          -0.0014717770371846413,
          -0.01791814480908211,
          0.003501193041163725,
          -0.012947545785414967,
          -0.020077343714308582,
          -0.01524965699366455,
          -0.01187292741922789,
          -0.004128534622776639,
          0.009176859724353024,
          -0.028943630394982597,
          0.010581355047334526,
          0.0006754635591615411,
          -0.003667036344137776,
          0.018707782865466316,
          -0.005946412870017039,
          0.007350044265577262,
          -0.0007884528082073745,
          -0.026339596452288675,
          -0.022903669044760176,
          0.013665616624331245,
          0.009136987348756197,
          0.0031996774622068402,
          0.005627646413813067,
          -0.027165922437343188,
          0.01764555012796709,
          -0.02892488811541059,
          0.0299848601877828,
          -0.02502112056449502,
          -0.0030355951163448143,
          -0.00828622428760135,
          -0.029912158876581513,
          0.009606058995668992,
          -0.0067246369862125135,
          0.011326339051465198,
          -0.020911364612040045,
          0.014568434658547472,
          0.00469093708043377,
          -0.004221032250689288,
          -0.027169056865373433,
          0.025553266756465583,
          -0.0001066521351414558,
          0.0031402795437164358,
          0.0121319398563512,
          -0.005027008480546085,
          0.027167916476124924,
          0.024006698164622954,
          -0.00494502164441199,
          0.0006744462087389103,
          -0.02699643910741809,
          -0.002286796660558251,
          -0.018212577610334874,
          0.014243912404174629,
          0.010821068063323044,
          -0.027283174745693927,
          -0.01836749578560507,
          0.016934536356799118,
          0.006057385701697872,
          0.003983346547221503,
          0.023904576814810466,
          -0.013686084044377642,
          -0.0021697678453252954,
          -0.01874732099041616,
          0.028322796611555172,
          0.014359562714403862,
          0.0002833635240565534,
          -0.00807300495956564,
          -0.010465758611419854,
          -0.025809040018641403,
          -0.028747342180028137,
          0.026675875578798386,
          -0.027238202986875664,
          0.023462425088347345,
          0.021847962328506353,
          -0.004856496826884476,
          0.0029813012481314516,
          0.005474274611704112,
          0.02619589716620925,
          0.02622463734603131,
          0.003629720251560449,
          0.018814405751015298,
          -0.023476301836274513,
          -0.011148995727995728,
          0.023691648767706117,
          0.027622286417197245,
          0.01939944606170902,
          -0.019689356730949924,
          0.0012314679729737883,
          0.01552303247476921,
          0.007935863232313677,
          0.01884974698375879,
          0.0010155240470965665,
          -0.00015311270890558393,
          0.0017196766322862475,
          0.00025474280835334484,
          -0.024588561053313723,
          -0.0012124109429882367,
          -0.01631552966770669,
          -0.026678286095483228,
          -0.019491185373738836,
          -0.018717927329252412,
          -0.026322301629864257,
          -0.006496140788579897,
          0.01439189192313016,
          0.023680166614735654,
          -0.02003300835311512,
          0.010552817497840941,
          0.004728342245721565,
          0.016640320902434426,
          -0.013535595308117074,
          -0.0018796219373007177,
          -0.028586040780842023,
          0.028851661465013147,
          0.014309892592117554,
          -0.0023357332420427777,
          0.010436327145059439,
          0.018373993124791745,
          0.005193087418883219,
          0.01250929368544957,
          -0.020612126815136224,
          -0.0008699154291930793,
          0.02928814263735824,
          -0.016717191637078795,
          0.0007873081795740922,
          -0.008737938120988074,
          -0.004474245911673152,
          0.0022898994159930366,
          -0.006051248467928257,
          0.015327044693470508,
          -0.02038237973809582,
          -0.007017736075835397,
          0.024573408586146643,
          0.028973428197860328,
          0.011044538569456433,
          0.008747934227664733,
          -0.0006159678112628818,
          -0.027227673439755753,
          -0.019533351828079783,
          -0.012622540320138733,
          -0.0057895203802334,
          0.005468963972002049,
          0.00451135150581404,
          0.0048361224093246835,
          0.008616301256804564,
          0.016234494793188843,
          -0.004507318195155707,
          0.015761355513828776,
          0.017996903956230874,
          -0.010284043972820525,
          0.019484080201222262,
          0.014681403382820812,
          -0.0036045740815467305,
          -0.026315172104663852,
          0.027080153171874566,
          -0.02575124327730361,
          0.009038079326013145,
          -0.018670931919635807,
          -0.02424126557901275,
          0.014227785091541066,
          0.02699279106671304,
          0.0037494908041079272,
          0.01434926702996183,
          0.01462475904182764,
          -0.011281400055559637,
          0.01163125367242858,
          -0.026654627916757902,
          -0.01724992793911801,
          -0.01933463222178458,
          -0.016541667435402203,
          0.02198098546793016,
          -0.029502844982117322,
          -0.020286015064482524,
          0.02763988899087122,
          0.003823382526221976,
          0.025838939451759392,
          0.00700841141320873,
          0.024698265418220636
        ],
        "bias": 0.8970590920154365
      },
      {
        "weights": [
          -0.012750609892805267,
          -0.01205443335159206,
          0.004689031618352504,
          0.014898292728250273,
          0.005064134705838823,
          0.00964529847495494,
          -0.006297994840215093,
          -0.006387815223688479,
          -0.012726509289239817,
          -0.009626719601129475,
          0.006611828110060988,
          -0.01979175820082705,
          0.0260379031456311,
          -0.002663012466606874,
          0.007380937028336268,
          -0.027388808204252164,
          0.025078015815111196,
          0.026034923930946238,
          -0.014266773547314988,
          -0.02218186616178565,
          -0.022232643665559555,
          0.025376710953134186,
          0.022441635280404784,
          -0.014777106488767162,
          0.013035964751097369,
          -0.004119922040483958,
          0.026550074896695808,
          -0.027363309979656133,
          0.02038948389849555,
          -0.004714029996378103,
          0.01610042261248111,
          -0.011810707765885217,
          -0.014960396290687517,
          -0.02704731663475112,
          -0.019344073836166528,
          -0.006510637236104379,
          0.017394510677372493,
          -0.020944717091263006,
          0.00026180549575122516,
          0.0006854903120712755,
          -0.004453070936007476,
          -0.0076120095831929205,
          -0.01869697605318278,
          0.021876699279487002,
          -0.005203328032006585,
          0.010141707102600081,
          0.017659909009141564,
          0.016381154845958507,
          -0.015116396032639062,
          -0.007891590660308832,
          0.02751802781878221,
          -0.019520334851212885,
          -0.023174089826811642,
          0.01461943894518785,
          -0.01963843292656351,
          -0.018971856766634453,
          -0.016191952662166907,
          0.012436667156387561,
          -0.001367463085256218,
          -0.014951757799420786,
          -0.012349654178439012,
          0.02617653387856618,
          0.026477477689868988,
          -0.0031204519925686416,
          0.017743965470637335,
          -0.029629441333665518,
          0.02710890442099053,
          0.010631305646253836,
          0.011347923814701767,
          -0.003550372726375907,
          0.005198526956969436,
          -0.010290292593724628,
          0.014142657484870536,
          0.01569962027281485,
          0.00419222479670113,
          0.005074041512678262,
          -0.018054309734845377,
          -0.006623152717728148,
          0.001612118430184016,
          -0.020656566038124637,
          -0.022629545685166425,
          -0.016861290934245918,
          0.014747517257157713,
          0.029047204904489664,
          -0.009985768620279584,
          -0.007251140434900036,
          0.024595299052800126,
          -0.02037882454934168,
          0.0027057401903443565,
          -0.0024598795464783434,
          0.012843410793747512,
          -0.0013288390884577776,
          -0.020527810726127742,
          -0.00509180544233797,
          0.01534410301305971,
          0.009032062404656906,
          0.027417053678077945,
          0.004309997127944963,
          -0.007276100786922764,
          -0.0180798150168762,
          -0.026929611446254574,
          -0.01241653124482512,
          -0.0028615023926670605,
          0.019370472750517606,
          -0.022533788889147505,
          0.004333386822427815,
          -0.009031190759306907,
          0.0037321047651096076,
          -0.019347201496751072,
          -0.02277460300960711,
          0.0021042386785372832,
          -0.0178602938049729,
          -0.016753734042026142,
          -0.019030907054669564,
          0.016659802002403197,
          0.004015287311563365,
          -0.01575047018591805,
          0.01156407143758996,
          0.007042885662713272,
          0.018211833585664416,
          0.024528534643415326,
          -0.02006955934713034,
          -0.005086148529060742,
          0.02415375035778808,
          0.024260239532519517,
          -0.011755673090063517,
          -0.02127923817116801,
          0.0048175483683229325,
          0.022252989412825518,
          0.01968327290626793,
          -0.014371647982476844,
          0.028756655384788575,
          0.018273111021310816,
          0.019990773410917644,
          0.02343287277385763,
          0.018961940149685545,
          -0.007447591670580261,
          -0.026454558184291425,
          -0.02509556932196798,
          -0.020041801580281876,
          0.013694029952514092,
          -0.007929996664263333,
          -0.029028838966985642,
          0.026871843330593163,
          -0.027319663548226132,
          0.010626985850343114,
          0.01954265375276098,
          -0.015786601903635965,
          0.010031507004158176,
          -0.01655136052056949,
          -0.007343510421533077,
          0.02917455829684385,
          -0.009704867825088375,
          0.008898311310951826,
          0.024164044141722324,
          0.02791452086420687,
          -0.011837310224733416,
          0.00785831719508328,
          0.003922066135079685,
          0.0023033906405092175,
          0.010961799242450651,
          -0.025251455592117063,
          -0.016752482914925867,
          0.008150838109655133,
          0.02801522674029911,
          0.021284498494615917,
          0.02145774754814128,
          -0.0034377112016825417,
          0.029903005389032733,
          0.006277415296646979,
          -0.01456218006933024,
          -0.009288095059101654,
          -0.02990021480706378,
          -0.01289051864160446,
          0.014131559199766747,
          0.014847758369804377,
          -0.005045910536302781,
          -0.014901310042341591,
          0.024679569421854466,
          -0.016030051272519788,
          -9.053333077712472e-05,
          0.0035931456098160924,
          -0.00035472907297274744,
          -0.0085384971331713,
          0.02871323982561174,
          0.019623032884336297,
          -0.007490824854990492,
          -0.008849442482377783,
          -0.01404215392115482,
          -0.0041478832474733905,
          -0.028164260082305513
        ],
        "bias": 1.3522955959988698
      },
      {
        "weights": [
          0.016725075619450844,
          0.013540553444067183,
          0.012459184275672087,
          0.009100137227086254,
          -0.020541768093638987,
          0.0185666365976701,
          -0.0294230783644973,
          -0.014488041339853822,
          0.006339774183523959,
          -0.022487817977154177,
          -0.004183591306025303,
          0.0242537078130243,
          -0.024407861536511276,
          -0.022335757373024286,
          -0.02722610528978955,
          -0.01612916987181899,
          0.017463385956563472,
          0.01770034491063001,
          0.01994333194077664,
          0.003267964299539801,
          0.029369893432815063,
          -0.004368354879530054,
          -0.001220320515911609,
          -0.024439107465322314,
          0.007258697466690819,
          -0.013773758152510446,
          0.0037501343718287297,
          0.007368732924679197,
          -0.009331367869303504,
          -0.013625995272706474,
          0.013596424565731548,
          -0.026918850700065458,
          0.004396807060546404,
          0.01780872057474142,
          0.021531896369824985,
          -0.028076896201350496,
          -0.010557234735100132,
          -0.011814846455905484,
          -0.009143109867070141,
          -0.02997430049843581,
          0.002884148837896547,
          0.0003438627466282422,
          -0.015934488864509315,
          -0.008715646126215556,
          0.019543804315522606,
          0.023376356199829446,
          -0.01229053847688508,
          -0.015619025891290597,
          -0.0015517313529322709,
          0.016459075782476358,
          0.002768306417995456,
          -0.003705867495311769,
          0.005400292955137352,
          0.009012733804298317,
          0.026934055095413946,
          0.01997297623802751,
          0.003064898691112254,
          0.020569066606007554,
          0.014666434129786611,
          -0.00021322629832460152,
          -0.02811134802046462,
          -0.010349304545301183,
          0.024147558420420635,
          0.001590677024943865,
          -0.024796076739124342,
          0.015260390441798354,
          0.008457671639005584,
          -0.006004422822413754,
          0.020210504982680906,
          0.01997159158189369,
          -0.006184327448695643,
          0.028738395248831657,
          0.023500910890785924,
          0.008681493388221703,
          -0.02538127871655973,
          -0.0072550843502118476,
          0.016751779810047433,
          0.01170648619975459,
          -0.012556061603111741,
          -0.026820762371050397,
          0.0055072464900902535,
          0.02322927011389648,
          -0.020331812601501298,
          -0.009065046479369548,
          -0.023627985490232074,
          -0.012712749498292927,
          0.004616653917649267,
          -0.023775214659874488,
          -0.028710971174429077,
          0.02094459534527763,
          -0.027352171544203267,
          0.01997920905053894,
          0.024155968821430125,
          0.0010413924513375666,
          -0.01871923099011076,
          -0.027260475418118022,
          0.019887588014022274,
          0.019930962023509725,
          -0.014657037140097855,
          0.015169182359194018,
          -0.0017035077975475835,
          -0.022390690504253446,
          -0.005394188433120794,
          0.010786625304261437,
          0.002736883112916831,
          -0.022998027446395453,
          -0.0010358955177902016,
          0.01706707775519769,
          -0.020995565102592886,
          0.028016646503452633,
          0.01482574395195873,
          0.014449260346300875,
          -0.025842873463781908,
          -0.02571889126255806,
          0.020202239049178186,
          -0.010916174777011931,
          -0.02226754071098613,
          -0.02520696659726241,
          0.028632597379237686,
          0.013035468605414595,
          0.019211206482143764,
          -0.018762419640183794,
          0.026871016333590098,
          -0.0013754540166424564,
          -0.01680305472596748,
          0.007447108866824433,
          0.017033390229034037,
          0.0025416901868195174,
          0.0049158800619583665,
          -0.02905695758634538,
          0.022395503636329563,
          -0.018512292211326248,
          -0.003310657153695915,
          -0.014546931877592874,
          -0.02198382353514227,
          -0.023814245564571943,
          -0.027647237618713665,
          0.02536907990626884,
          0.008399991207663084,
          0.008909943269645053,
          0.026991384683345256,
          0.009186353535578562,
          0.02243187195836044,
          -0.014701291836268258,
          -0.014504572617196093,
          -0.009283984690857096,
          0.012935540623217674,
          -0.006236852863737145,
          -0.002104516277854157,
          -0.008490787919571832,
          -0.02743816275045378,
          -0.022426322366834492,
          -0.0035645042791012313,
          0.024395999802849885,
          0.020614504583285433,
          0.010070684962130913,
          0.026505234649855568,
          0.010553008514092459,
          0.005646037338730099,
          0.004495037853437529,
          0.02976457083587685,
          -0.027587941705137255,
          0.016692619350743752,
          -0.016854963720080364,
          -0.009836090572746738,
          0.021931320358057158,
          -0.029125331450134302,
          -0.002459095685143138,
          -0.01680060271737087,
          -0.00274862283317771,
          0.015053223403600408,
          -0.02958093425086032,
          0.021339371930854063,
          0.005423803153152405,
          0.009932457691341344,
          0.021490692335495935,
          -0.00355205992070462,
          0.005572257979557259,
          0.009652758501710733,
          0.024982096058172837,
          -0.006648593929658123,
          0.013299019821542371,
          -0.007413547384870073,
          0.001525645992548702,
          0.00318134242211824,
          -0.02729886358971632,
          0.010205037459266555,
          -0.013536630185455412,
          -0.012970615756650525,
          -0.014486510488530231,
          -0.020041374739641574
        ],
        "bias": 0.5550970536314219
      },
      {
        "weights": [
          0.005536363087525892,
          0.0017449555875201847,
          0.007732134398857518,
          -0.028193189887712758,
          0.026722691365674484,
          0.01829989661042941,
          -0.02834538476254283,
          -0.02364390021988407,
          0.017734733173855544,
          -0.007591129797760384,
          -0.009093581697623625,
          -0.008677936274685757,
          -0.027972116329849788,
          -0.004739609496966227,
          -0.027024065053267907,
          0.0001011101216592189,
          0.02903979480295741,
          0.009262491174863448,
          -0.006201194769801202,
          0.02876334884569777,
          0.005978321095624163,
          0.029948248504069137,
          0.01669830058525052,
          0.029957449146923575,
          0.003915992102289018,
          -0.028299485830268936,
          0.021426803389567456,
          0.00440812177040531,
          -0.0127320979085041,
          0.01017329493552574,
          -0.017159042167769076,
          0.01244108011064693,
          -0.0072672000905514185,
          -0.01751150390018435,
          -0.015415017678981466,
          -0.022857465489922114,
          0.019609820168648442,
          -0.003835166574349704,
          -0.018184765500128812,
          0.02325744105127156,
          -0.022912003354463834,
          -0.023067314736131894,
          0.01340038676029734,
          -0.01948856195778917,
          -0.011885326297230384,
          0.015038917871248135,
          0.005283502747183234,
          0.021104409020056523,
          0.009184019059948978,
          -0.017824873190002418,
          -0.018284469248618047,
          0.0126801228943252,
          -0.02196984230562051,
          0.016691778690958614,
          0.022517010519747124,
          -0.01933191622280231,
          0.007346578684651196,
          0.023928393269926157,
          0.005890082109857191,
          0.013141828156513935,
          0.006592603445274028,
          0.028502773767786316,
          -0.0240740783571861,
          -0.007146291590580934,
          -0.02558875743075403,
          -0.009079997409530867,
          -0.001532923935910549,
          0.004031684995470186,
          -0.02905150447971392,
          0.0075187177744487285,
          -0.018379976731492893,
          -0.029281026483882252,
          0.009678605791935968,
          -0.017863773205062806,
          0.022970617268294094,
          0.024100551619630053,
          0.008862053755010493,
          0.023986746963245598,
          0.0006964798507781284,
          0.010014054062839048,
          -0.004292868109458559,
          -0.018792608702485433,
          0.007277053327295481,
          -0.021709998518973726,
          0.005564891876229418,
          -0.02679481826854095,
          -0.013538943076984299,
          0.029957686434917245,
          0.017534466310610133,
          -0.023012151055523827,
          -0.015155448869624472,
          -0.02105200781687302,
          -0.019367991050122636,
          0.014066586221541728,
          0.006651112351955556,
          -0.009627265480732776,
          -0.003156666960020406,
          -0.023222032416684416,
          -0.020248550857436994,
          0.026584029400860888,
          -0.01625008998219743,
          -0.02001654319171363,
          0.0018073445026014837,
          -0.0035253459791080334,
          -0.027778570325350003,
          0.010046698054960557,
          -0.0005850405503806701,
          0.019508492928997916,
          -0.01573011958825312,
          -0.007610946887262365,
          -0.024089662086302865,
          -0.027195030166901446,
          0.006670109885419606,
          0.0237735243180673,
          0.008162347454831173,
          -0.015378290698613859,
          -0.0178330625009776,
          -0.02729028979571704,
          0.02434749860848058,
          -0.011196182834185955,
          -0.021167362702938924,
          -0.01663043792849867,
          -0.0011566209110534,
          -0.02550496545016243,
          0.029808984483827933,
          0.027489465941631958,
          -0.013190877927278855,
          -0.026051375916175696,
          0.022850700595794353,
          -0.025605303786982725,
          -0.01583490045254395,
          -0.02181842974060571,
          0.026867065539298525,
          -0.004666885040255021,
          0.02869189865568641,
          0.024767987819575787,
          -0.008754057643675001,
          -0.029022645156907365,
          -0.016618348233222526,
          0.026581559290185845,
          0.009533408567037029,
          0.019249837254776185,
          0.0031504453905856974,
          -0.012839232903714134,
          0.007988518831024492,
          0.012955460862990882,
          0.01672689814723699,
          -0.011149642431541696,
          0.021354199264789035,
          -0.027065436374766463,
          -0.02163398574429143,
          -0.015759320343506696,
          0.023700411220894467,
          0.026288530213906106,
          -0.022033717968696208,
          0.014416844968569195,
          0.023733165126683567,
          -0.013725259590856076,
          -0.022145775512022698,
          -0.020030799641840114,
          0.015473029427230368,
          0.015304647065068774,
          0.012397547599562506,
          -0.02120579262183412,
          0.01088289287396639,
          -0.029646661410531808,
          0.022962019459849818,
          0.003101138118712307,
          0.014841705352004637,
          0.009386480741418395,
          0.003949112715904993,
          -0.023147137439574243,
          0.0045151702091511745,
          -0.0032425312655602542,
          0.02287318623965507,
          -0.00769607627862692,
          0.0011555973628550077,
          -0.005140538514751918,
          0.01319837141815447,
          0.01751711120958588,
          0.026698193980352822,
          -0.01455550205638929,
          0.027468587514000532,
          0.01714641485870244,
          -0.00913536152135799,
          0.02068899106963174,
          0.02303325951008569,
          -0.0037883573661303786,
          -0.025524898987658435,
          -0.004978501765832109,
          -0.015517832665834985
        ],
        "bias": 0.764348944427485
      },
      {
        "weights": [
          -0.018073449561194527,
          -0.005065239019598707,
          0.022966356243986713,
          0.0275299559036181,
          0.0008641920071137919,
          0.02386602892180434,
          0.00735468818132675,
          0.007741965640697755,
          0.013223725537882085,
          -0.004151926969635726,
          0.023531368480228652,
          0.02349924879844756,
          0.018830276492726214,
          -0.027389767189270005,
          -0.02104328494171683,
          0.027263901461390704,
          -0.005674345497072599,
          0.02118272232369768,
          -0.010186376575008187,
          -0.011150544388082217,
          0.01203787192027074,
          0.009302687126288414,
          0.02098036450335733,
          0.007112854638733901,
          -0.010588719361466062,
          -0.009511219274842806,
          0.0003649621230681424,
          -0.006123878141559964,
          0.004843535793911918,
          0.002932288978879531,
          -0.016467400337231285,
          -0.022017851173347515,
          0.022477631641241842,
          -0.01176438592183901,
          -0.02229467239626149,
          -0.01656707320928303,
          0.0076216715972355145,
          -0.004986212498781128,
          0.010518171523355942,
          0.017720541274068344,
          -0.02203410006127185,
          -0.0006081096119263489,
          -0.028672685193135188,
          -0.022234762234344996,
          0.002307169557297678,
          0.0031979706186601106,
          0.0029978306810494112,
          0.012857094477738931,
          -0.02266364991455102,
          -0.002079926563313319,
          0.028505973286044164,
          0.011000269174763676,
          0.00025065671726037103,
          -0.001947486260372614,
          0.007182186319442854,
          0.02098497284219098,
          -0.003440709760432859,
          -0.005581596051021785,
          0.0005148135254523928,
          0.013966667082172021,
          0.028508883574210143,
          -0.0018150299801121539,
          0.0005978904097928665,
          0.0061756434098774945,
          0.01913377923273426,
          0.011869374900179058,
          -0.01495715597608316,
          -0.009433341733946488,
          -0.02366997767053606,
          0.005366882647723392,
          0.010370297461882672,
          -0.006857859685738408,
          0.026243550659061657,
          -0.006917922037455056,
          0.024334911371119955,
          -0.0037549823683758927,
          -0.011324368608202698,
          0.00017140405456761779,
          0.015351615967291544,
          0.013893071891852363,
          0.02251447433638027,
          0.011651000357511161,
          0.005653016000757918,
          -0.0015894990669718598,
          0.026399380818378705,
          -0.02947439979057386,
          -0.008750555261187804,
          -0.009080396879645961,
          0.011483167785161716,
          0.020573025234006052,
          0.02390011400299858,
          -0.017059072438971094,
          0.006532206660335889,
          0.002006226512874694,
          0.0017008890938600973,
          -0.006117414408435308,
          -0.02686771582573014,
          -0.024002715683030272,
          -0.01011937305430952,
          -0.022754558534898536,
          -0.01216166616225563,
          0.01261956577311859,
          -0.018123385971783722,
          -0.00055153138425202,
          0.007370450327713968,
          -0.0075001133373566314,
          -0.0027019784640315535,
          0.011477664282998283,
          -0.007642976235386241,
          0.010092419303117266,
          0.02684103392200242,
          -0.003042877930048392,
          0.02163327421299125,
          -0.017976333963925426,
          -0.010758598806550519,
          -0.011837833854652816,
          -0.010231541464475743,
          0.01729268906549944,
          0.008347571069498412,
          -0.012523472149065677,
          -0.0041268042018012645,
          -0.0182958744535892,
          -0.019662388487372492,
          0.0026096440067365015,
          -0.010989841854569436,
          -0.006872389121092365,
          0.025678137981092655,
          -0.009726277422834134,
          0.027083138578472,
          0.016361474503649637,
          0.005476048455844422,
          0.0007036193690005028,
          -0.01896703718106168,
          -0.020635644407060026,
          0.009766365393101759,
          0.024341475488768353,
          -0.025911183342449406,
          0.0020167797954588895,
          -0.006145922960529494,
          0.011077981605532965,
          0.012507669930693813,
          -0.025608810649296612,
          -0.01164199274299665,
          -0.01567958103236919,
          -0.008364264999364438,
          0.02095156584831083,
          -0.02137153661323629,
          0.0035894815970974395,
          0.02506982117200636,
          -0.017007229312880144,
          -0.02659769819814862,
          -0.012287483102987478,
          -0.013631093469476874,
          0.012318717546202243,
          -0.0030564054520268967,
          0.0012262237449345917,
          0.00967218977349684,
          -0.02970066554670594,
          -0.028508887137168176,
          0.013617344655327782,
          0.02793923962019059,
          -0.000841209533147938,
          -0.006074515253508477,
          0.012927993807773076,
          -0.00828075327404337,
          -0.019959261366632085,
          0.010894355186972828,
          -0.006662462751891224,
          0.02750913477609262,
          0.02571147202608621,
          0.017038608210903472,
          0.005603176625630556,
          0.0050446505299641675,
          -0.014568219424553493,
          0.018685413260930282,
          -0.026562446608537175,
          0.011543780940043526,
          -0.0231158765810658,
          0.028775413039494872,
          5.654396365843001e-05,
          -0.024919554031993307,
          -0.022977906627384647,
          -0.025280350928383613,
          0.006094596531751761,
          -0.005204787269273745,
          0.029772931864993024,
          0.027317012698766276,
          0.02219426412096468,
          0.02208007439540903,
          0.022355166377324258,
          0.007496642428691899
        ],
        "bias": 0.6638450116468244
      },
      {
        "weights": [
          0.00980306789558999,
          0.008473394121975723,
          0.004809367149389877,
          0.005001946999919002,
          -0.00530102945489597,
          -0.025267660826085628,
          0.023394183444732715,
          -0.007042212926555196,
          -0.01663084278606032,
          0.018208069448237156,
          -0.009551719628113558,
          0.029488575228898327,
          0.013560445565817737,
          0.021955531784395084,
          0.016557501357873067,
          0.025644406476534938,
          -0.010864572906129431,
          0.02492446208209957,
          -0.027253464565587353,
          0.0211019344296371,
          0.000970251490842778,
          -0.01926141485545946,
          -0.005668344519849329,
          0.02354005756027202,
          0.01969012880716478,
          0.010969162400458934,
          0.01368736667658009,
          0.0243021958186435,
          0.005535220838934013,
          -0.026356857565209557,
          -0.023172054464081316,
          -0.025251930432242616,
          -0.023894755983058465,
          -0.013258120842911496,
          -0.01912522882216067,
          -0.02032681435008305,
          0.011028653755012677,
          -0.026061878544592097,
          0.014123563897629157,
          0.017816887501758583,
          0.0018420172479317598,
          -0.007800600160919401,
          0.0033083165894650865,
          -0.01989122139701041,
          -0.009145496952706698,
          0.028317780041589025,
          0.012662792273349287,
          -0.027704233776415205,
          0.014376578352164986,
          0.017446534912547315,
          -0.029527874167236668,
          0.014486024729813071,
          -0.02954182143359955,
          0.01493927139584579,
          -0.02536451370983779,
          0.02936781532459108,
          0.011689776263673755,
          -0.004848094424280854,
          0.0213082828667989,
          0.0011294305958819799,
          0.018854682050067413,
          0.026128552582818973,
          0.01441142712556917,
          0.015851463451537415,
          0.0172880023587604,
          0.014523743498496437,
          -0.0071368192550635215,
          0.020735292210883036,
          -0.016928055450280137,
          -0.012062955041552657,
          0.008996485719874076,
          -0.011960140642078551,
          0.02686691334335327,
          -0.011424600969834105,
          -0.0009449720566227157,
          -0.014159245022236672,
          0.01906173980500777,
          -0.00278553681660099,
          -0.02011096728150761,
          0.021620672280584174,
          -0.0032610097299335464,
          -0.0038899266286555045,
          0.01110728726555616,
          0.006890568686668749,
          0.005158815503319279,
          0.0010215727621731494,
          -0.0030536342127696903,
          -0.02865838506949339,
          -0.016139941372324045,
          -0.009060524511419938,
          0.020025920134167215,
          0.029238729786832902,
          0.016683211069433053,
          -0.017111260716720186,
          -0.020871043321562102,
          0.02649385727296722,
          -0.01723508558401067,
          -0.024449831720579726,
          0.023522095709444406,
          -0.003061611720004666,
          0.0014258151164232707,
          0.025140110555657992,
          0.02545836165893186,
          -0.0007278548272985526,
          0.009864036926574844,
          0.0014926431057354292,
          0.02226502139765752,
          -0.02450913555232365,
          -0.023224062631130787,
          0.02361445784710782,
          0.012132307863641535,
          0.02738748235549377,
          -0.01185741479067181,
          -0.01388882269670124,
          0.015385989851222068,
          -0.02182138708735555,
          -0.025789147688372288,
          -0.025050010184960187,
          -0.012479561682261872,
          -0.024131163832242272,
          0.0010286150196091477,
          -0.026394951633980607,
          0.007080751862009495,
          0.023281104047681453,
          -0.0006936082583157595,
          0.02139323115241125,
          0.027702470077975112,
          -0.019961612325048964,
          0.013385132135764644,
          0.0035813762965544865,
          0.01562773167726008,
          -0.0019016321311338472,
          -0.019960576828988608,
          -0.000556552887725395,
          -0.02972124982085944,
          0.0264337427254263,
          -0.01654049869639415,
          -0.01876399815746301,
          -0.00439251170741221,
          -0.02441234406145163,
          -0.02993067127157817,
          -0.017713116077348188,
          0.029652555288194174,
          0.01548414384056851,
          -0.027760772137407425,
          0.018067155763957295,
          -0.012933915184373385,
          0.013521988372802336,
          -0.02124840840264721,
          -0.005020112206521109,
          -0.015406903639024363,
          0.012764988382496609,
          -0.012914146539004981,
          -0.01535543457021544,
          -0.006199130463185484,
          0.02705110879296197,
          -0.012488987003449827,
          -0.02906856895533929,
          -0.0064015933787960715,
          0.00014510606454949324,
          -0.011431689869860803,
          0.012032353193815216,
          0.0004484684162415972,
          0.005030805759412012,
          0.026038139780818093,
          -0.0022552410607538237,
          -0.0027638024497677223,
          0.02193643587941957,
          0.01594749256218972,
          -0.014817939683690499,
          0.02625804410695843,
          0.018072572407549947,
          -0.00056606838006594,
          0.01932049270583125,
          -0.0003506819456332369,
          -0.014486361641264085,
          0.01459686520922774,
          -0.0046703399218455885,
          -0.029355820019239875,
          0.015100657612347135,
          0.017698093242342,
          -0.028145175845192837,
          -0.024516794622856625,
          0.0122896629765318,
