[[{"weights": [0.008060119627382935, 0.012266455252017625, -0.014487627232934194, 0.02327168701845321, 0.001040393429729388, 0.004446236964624567, 0.016950525552798315, -0.029664921719260686, -0.027622500935918972, 0.02883504401725718, -0.01562064744889177, -0.008688014582482178, 0.01727229059966133, -0.016533242784662852, 0.0026119619009256287, -0.02495206172155282, -0.01244726560815192, -0.029390490248659713, -0.025531231014174687, -0.00851209017478716, -0.0019254098217810975, 0.01404409483208427, -0.015622477883404685, 0.018154138473671755, 0.023055454009737165, 0.009413104497272569, 0.01615706726534004, -0.018970144164937863, 0.01779861512547814, 0.022888403606139175, -0.015845173027204843, -0.005854603479946464, -0.01873942228528376, -0.02428336778027675, 0.024077128375207632, 0.02892293185914857, -0.007745337286409373, -0.003961772555603718, 0.0007603152706812041, -0.01193906501017666, 0.002724456844365057, -0.022479263114752998, -0.012988658662174236, -0.029981419085737447, 0.02704125773335095, 0.0044260437093478, 0.028830443445595086, -0.01371297615800664, 0.024433887851141638, 0.004181116460150867, 0.02482970300867194, 0.02906065690690649, 0.019250795621738127, -0.012710833874586252, -0.023148827367890732, 0.016662894532137172, 0.018409113550337898, -0.018343610038244362, 0.016919929037344184, 0.029656437521337682, 0.015781412405256476, -0.010724846514326872, -0.025747708904024197, -0.004492944102038564, -0.02336442775325395, -0.02546681193718868, -0.016852920891465284, 0.010727683449991962, 0.018213273956422936, 0.004714469176106857, -0.014419723757911573, -0.010814743152801471, 0.020392223516464955, 0.01587340809127876, -0.008562340609956837, 0.008874163040628602, -0.010819742870888958, 0.003303999450261115, -0.012820535050494797, 0.006678288239363048, 0.029535398242158034, -0.014387277921380797, -0.024399438469692097, -0.029147706560181657, 0.02115101163675897, -0.024888881448612423, 0.017994029573821103, 0.019353026804931096, 0.022399299157795982, 0.01886269659658793, 0.017154466987236466, 0.000796450297599987, 0.022324999238174652, 0.020322875824466756, -0.019481601630273217, 0.02702005817522196, 0.0027110774798168175, -0.029051453302151652, 0.007711221983340802, 0.023375825422916684, -0.0006112480357511572], "bias": 1.169607674665226}, {"weights": [-0.003368209833751145, 0.018182236459789065, -0.02860214600356971, -0.01973257816153208, 0.006662476889598486, 0.023095042099979354, 0.005294829039655925, 0.014066385395063934, -0.0013216405217026314, -0.0174045094020365, -0.025282276773354935, -0.0008463570142927222, -0.019141527714469017, -0.0027612072165736218, -0.012983475649602675, -0.00019399831532846204, -0.019460779047983982, -0.004794589672551551, -0.009537048933804623, -0.01809720308659827, 0.008398004096262096, 0.020320339508651274, 0.018091425869537596, -0.02925524424228192, -0.018156174053165792, -0.002650530978088598, -0.0200640595469084, -0.0019260403216906884, -0.022223303751917847, -0.004993378750452564, -0.012557681692118215, 0.024855254802955175, 0.023742932183565164, 0.005008354564350878, -0.0066340883026257055, 0.014692113214994466, -0.021955145910982708, 8.673560116546908e-05, -0.02911849216268121, -0.017167315142328173, -0.02505446999791855, -0.014223920507846526, 0.00690814997239491, -0.003924780050471144, 0.012245403854379368, -0.022627091692866252, 0.0027235709060946037, 0.02719139093155528, 0.01938250758757716, -0.004163256410032481, 0.003593311307119443, 0.008717999047973407, -0.005429144513756742, -0.026004807889535523, 8.117418191761275e-05, 0.017863437223070655, 0.006981813979485656, 0.011850639785276174, -0.015276871258876354, -0.0248764005389644, 0.008400459060512941, -0.021669533953184758, -0.02945566866739281, -0.017239713352624128, 0.003563620876973511, 0.025124949250888047, 0.021769671933880283, -0.004655705409363907, -0.026221744051459626, 0.013948163833049698, 0.023337222838284648, -0.02276019510797747, -0.010451276526340487, 0.022336157531896085, 0.027296227307320696, 0.02233229811435202, 0.02988228192088247, 0.00405755902386945, 0.02902870949833449, -0.008892104668048077, 0.027412597323438585, 0.01763317213517683, 0.015558593745253944, 0.00878549872154305, -0.004761199097782543, -0.008358168736484099, 0.02405752512841538, -0.0017539592782412558, -0.006902196453785297, -0.00240595241195345, 0.0031198236036518723, -0.006186013678631204, -0.029251008245115444, 0.01953494660607811, -0.006836058755826106, 0.01114470842070462, 0.007717848075505927, 0.008223167551582769, -0.02860975616298003, 0.02746859936679539, -0.020659450813358807], "bias": 1.4358120349031602}, {"weights": [0.012473946802604607, 0.029133898358264222, -0.01729140345483038, 0.0026628540341957843, 0.0077492904161101175, -0.027104668498954952, -0.018163614874418012, -0.028691430718874082, -0.01977490356028619, -0.023940301641380075, 0.02035344520460121, 0.0013899054981993883, -0.003120937129951623, -0.023641286858249122, 0.026956524249792363, -0.012812821488402203, 0.004014550698884178, 0.015417182321733863, -0.029925471590951318, 0.0030575707971581337, 0.015840540817842155, 0.027386652995604006, 0.006234887280291944, -0.024567298073280397, 0.020161668859604992, 0.009997532022184903, 0.01536327146664812, 0.0005430892154978766, -0.018157187162404144, -0.02440370922572617, 0.010043936519851214, -0.007315415636653236, -0.00048300153853715264, -0.01078489611672261, 0.003723366607213785, 0.019004991298147998, -0.025659756388229735, -0.024436497457085163, 0.009103411359862222, -0.026051798102265277, -0.026600181089308655, 0.013326075935242508, -0.02693061408814338, -0.010057026552232812, 0.022888247730812813, 0.020142468059153547, -0.02667807096699988, 0.0233237619329017, 0.005308331862957066, -0.009668235188611315, -0.011440321554087102, 0.014076363538341907, -0.019395953364897953, -0.02367560193900914, -0.025174554597505203, 0.011882164366345607, 0.005754331827841436, 0.003738400457006623, -0.012433999765547099, -0.002715429041171738, 0.006169308619431824, -0.016820192059355518, 0.006751121153868951, -0.018261136464783362, 0.026507348762475028, -0.003703581556978544, -0.013059175689344098, -0.0033643832651520655, 0.0015071341167037441, -0.006147816624800524, -0.023677587328173058, -0.019528088044350057, 0.00890380838861446, -0.004506851975611997, 0.0038030625781162036, 0.008574185683903696, 0.006591153239878383, 0.005190301521051793, -0.015450223125431935, 0.009421685680085022, -0.02445552813926944, -0.010896752399620797, 0.017714609245050625, -0.027954561390756708, -0.020367546506985187, 0.024712809132945414, -0.01469979975960329, 0.01742794712162718, -0.017380174103369783, 0.012266266911042566, -0.028855231936352435, 0.011064213826032267, 0.010101745787587171, -0.015554269382316225, -0.01320269021144451, -0.015591243481070886, -0.028829098864502765, -0.02633220949664952, -0.015444868768987874, 0.024316473021971034, -0.022142341605637855], "bias": 1.0810259875821893}, {"weights": [-0.018388774654709464, 0.00854314476719488, 0.012036012584629704, 0.02908519356212308, -0.013263548590949338, -0.00982876547795148, 0.0056151984803008495, -0.02087914344515539, -0.0027849764209184995, -0.003304029488410562, 0.02017916856705078, 0.02325625291844558, -0.006818892210596211, 0.021614703692669282, 0.02659783246700912, 0.024581462278378305, 0.029095191026896464, -0.029078590297710767, 0.009072733782248571, -0.009254089725472064, 0.015997328933575174, 0.025377157371213065, -0.028230294111595052, 0.013748206644629654, -0.026102387737866075, -0.012286008502664758, -0.01474380043392672, 0.013474831535568381, 0.020306769985457898, 0.006153184301654999, -0.0018832602248012413, -0.02024737955300609, -0.009978342478591813, -0.02927140613182383, 0.027337364908896752, -0.016485490432252732, -0.009873171453458476, 0.01507531795756284, -0.012580020434639315, -0.016579289402331852, -0.029117290449797963, -0.0013362148544785943, -0.007134356964697067, 0.001605183980395275, 0.005314629231951348, 0.025375199384216847, 0.02537459918010425, 0.008020893222517554, 0.021988690176056792, 0.021544872635769992, -0.0021330139703757273, -0.010407827129778734, -0.02491254409541596, -0.02716659215859838, -0.018798252397621236, 0.026290839511619146, 0.029853697744779605, -0.026693721901262044, 0.006987591962657018, 0.021551056218273412, 0.010795922108107384, -0.011002544417760007, -0.008614411546900555, 0.023151793949364494, 0.02542809514459724, 0.0027441172580619094, 0.008486921949104345, 0.00985859968427244, -0.003322067505183369, 0.026892300182061894, -0.008092127915455303, -0.017169129592103115, -0.022789969573213404, 0.01908352145802871, -0.027849995306858236, -0.0263709052158481, 0.004583329013993803, -0.02598560850591573, -0.017014270816900236, 0.0001908896449669857, -0.024971200350369746, -5.9858119724639364e-05, -0.023333821733069908, 0.020421096593600384, -0.0074078000342085795, 0.009940798102237934, -0.026894769162816395, 0.0021552956436884374, 0.0024481723160858088, -0.021287517038371645, -0.01780024894934904, 0.021459837093613328, -0.00530024998504091, -0.0011492193068829946, 0.020357281651733852, 0.02264260721779244, -0.0033027419699185427, 0.01596126029082994, 0.002442053296823489, -0.008959409971998768, 0.015629712919500903], "bias": 0.6601697030007491}, {"weights": [0.017047301388640995, 0.025156929716006478, -0.004110479956524509, -0.009650936486623497, -0.023468018779659428, 0.005286059531581906, -0.02230689340560579, 0.02555451354800343, -0.02928647627648455, 0.022460880164524598, 0.016508635338957717, -0.011404931371923447, 0.0008512199689436582, -0.009592389914998039, 0.0289082499318375, 0.026891182158786497, 0.024591968602658762, -0.026790946501701853, 0.029402858659305427, 0.027180973864937362, -0.00959169155859867, -0.01711424387531805, 0.005686276411092227, -0.02253371817142633, 0.02564861225174299, 0.015138831454389885, -0.01036885983936621, -0.02041106316632689, -0.022332880330678345, -0.028565189312227384, -0.02582865463690701, 0.02118451007034352, -0.0132015861930221, 0.022054531097525643, -0.029941054984148174, -0.017835001514631132, -0.008903400143427078, -0.027547396304553703, 0.023362003503770476, -0.025455427033953558, 0.025459875364558245, 0.011978810134289572, 0.001164552166565868, 0.017641654850643652, 0.00754154008106768, 0.029619967657087035, 0.011327847911276508, -0.004762105982243036, 0.016991875188917406, -0.017733827981507237, -0.003989995465623498, 0.002570466306969367, -0.011392883573739857, -0.00035785776768541486, 0.006090652770312455, 0.00951023528507651, 0.0142080393989749, 0.013102342171266074, 0.024573318799682713, -0.01642319137616085, -0.006702470640676698, -0.020339019350608847, 0.015078775786787707, 0.015170176466620118, 0.02173177894009786, -0.001217781864508924, -0.029806301973383284, -0.013199113678361261, -0.01642113239204495, 0.027188607693898838, 0.01986220296762107, 0.000681266679424853, -0.027731577821627242, 0.008328983023893892, 0.01980458581118557, -0.005858441308772593, -0.02564139572730568, 0.01025888966818126, 0.012719445380986849, 0.02300804242961555, 0.010014994942380728, -0.006049821534215662, -0.0016270503300934679, -0.018211846297591802, -0.023416010646778864, -0.011852131724026667, -0.016674726260949346, -0.02281536041713182, -0.029038048811052732, 0.011416429222593852, 0.0076357293854482505, -0.027291799318689, 0.009848919568268506, 0.010986294443438752, 0.02567483532023876, -0.007024839238845469, 0.010121122759981456, -0.015197888912367112, -0.00906948669899793, -0.012572955963197689, -0.022369768432146515], "bias": 1.4569415807471016}], [{"weights": [-0.01559893047407399, 0.0048395126887204945, 0.005865305252455898, 0.012780423364784382, -0.021972774975530088], "bias": 0.8040222592990538}, {"weights": [0.023042595937864563, -0.021586396932427435, 0.021231069537128958, -0.02517999872558769, -0.0011675012482738646], "bias": 0.6396509335116359}, {"weights": [0.019347387454919797, 0.020223361711418433, -0.0010335134133729156, 0.005930506077247051, -0.02276053832099014], "bias": 1.0283472880620672}, {"weights": [0.022716686275882983, -0.02859030455131909, 0.016330837426172744, -0.002693328943686086, -0.012462888486076556], "bias": 0.5167079644215619}, {"weights": [-0.00953194672806737, 0.002041951102561723, 0.025616358599345045, -0.024256755518464044, 0.016564900284109146], "bias": 0.9862548099830587}], [{"weights": [0.01357029260332069, 0.009869581520317972, -0.015636594105795328, -0.01402972289011524, 0.022699545071740088], "bias": 0.5695390721759449}, {"weights": [-0.01688520085662802, -0.027291670367546546, -0.02914726867383945, 0.027079962968381006, -0.004364366897198307], "bias": 1.098635812989039}, {"weights": [0.0015319926399135209, -0.023556342931685965, 0.025599030315294043, 0.01906987209010976, -0.006110160254137055], "bias": 0.8494524498534977}, {"weights": [0.002487348316833962, -0.002040721589290629, 0.0014660438838919113, 0.009117419827195973, 0.02756347470562861], "bias": 0.8203937052711453}, {"weights": [0.018691396876438705, -0.011239765466974007, 0.012755848102550142, 0.005041637261417702, 0.023001013178418912], "bias": 0.6722423218102735}], [{"weights": [-0.010474423811271703, -0.003524690990002681, -0.016169689517836247, 0.004808258436880569, 0.009255589022572716], "bias": 1.2516587718763885}, {"weights": [0.015596909431327174, -0.0037077494093968044, -0.0266184960150635, -0.00398229241106644, 0.020271479946082055], "bias": 1.4204491281281717}, {"weights": [0.018051688509491584, 0.01844492687609886, -0.010946953596097046, -0.0061132438133444135, 0.022143537135961476], "bias": 0.7190231524793846}, {"weights": [-0.008151551278208085, -0.019902381471890048, 0.026054101454864496, -0.021818414298819425, 0.004252016021964171], "bias": 0.518731585748785}, {"weights": [0.028733348661490354, -0.01925712020582343, 0.019586730622580754, -0.010355205078746724, -0.01072604092227011], "bias": 0.646077221458537}, {"weights": [0.014082636196028682, 0.007483432905914314, -0.014336519376336437, -0.006345636117306302, -0.014625359013865764], "bias": 1.300926119093307}, {"weights": [0.007878375815816796, -0.007488400256027896, -0.024286223213116943, -0.002003960309700844, 0.026163096133695996], "bias": 1.114554151877785}, {"weights": [0.022080910614168323, -0.019306060019186534, -0.0036267887466467294, -0.007260115664452869, -0.011445212193179906], "bias": 1.3370021784467108}, {"weights": [0.024798770485538475, -0.005768260189959587, -0.016890788254494624, -0.024095183361063137, 0.002205902324903565], "bias": 1.105666984555533}, {"weights": [-0.028264271600260352, 0.028479445329178447, -0.01548403563170921, 0.016721266726470986, -0.01999901237035006], "bias": 1.4482952451606692}, {"weights": [-0.012232928682431386, -0.02327654777074497, 0.026957416914250028, 0.02708528458795146, -0.022954340424194995], "bias": 0.8074411866548258}, {"weights": [-0.011356016149368403, 0.02294088223583885, 0.0010234039511046733, -0.028241542182417815, -0.0032184712988138284], "bias": 0.5789824367130351}, {"weights": [-0.006067362433834104, 0.012448747746895084, -0.01953823920812313, -0.02903484283322901, -0.009717757044931545], "bias": 1.2016316553819326}, {"weights": [-0.028825674814304557, -0.029232100649745494, -0.00032934726106513545, -0.006545105787120909, -0.0008096600339328047], "bias": 1.4816392220304506}, {"weights": [0.010508020617063872, 0.009578562959388713, 0.029252707596379296, -0.027572968289732196, -0.005263038318031422], "bias": 1.4540079176640681}, {"weights": [0.01974844010042695, 0.02353046364743739, 0.023492440762799376, 0.0240516580521241, 0.009091318632834605], "bias": 0.740193672852849}, {"weights": [0.015457922866092946, 0.023139684165191826, 0.01204284519787236, 0.0018685541312553275, 0.02757060308701803], "bias": 0.5380750192777322}, {"weights": [0.012930183358172115, 0.0019177773461766176, 0.020666397574247597, -0.006946321387258033, -0.024621316092996042], "bias": 0.990923662093271}, {"weights": [-0.011707045875961799, 0.016182561286550566, -0.009184407173952237, 0.02514546993742798, 0.02216973657172644], "bias": 0.6125586898525508}, {"weights": [-0.023042420444513198, -0.0010261545293014825, 0.025753157186769668, -0.0003153916322727289, -0.02046172150940741], "bias": 0.7970456636360267}, {"weights": [-0.02703664666004928, -0.01137804977938688, 0.011575294774027849, 0.00799827372108445, 0.008522904159764984], "bias": 1.1609169469271117}, {"weights": [0.007802813569442492, -0.0003713709566938693, 0.025164748433512393, 0.025244129267910136, -0.028542359769031984], "bias": 1.0268454210687508}, {"weights": [-0.024832710425612504, 0.026874745429702585, 0.02105543044173959, -0.024136777790540298, -0.02108729316478624], "bias": 1.3987003571376326}, {"weights": [0.015270317126166076, 0.008520315836094548, -0.02631690216579003, -0.00984826315342318, 0.017376213133930632], "bias": 0.9443419785470334}, {"weights": [0.02595346244117374, -0.009228689786607937, -0.0023883076904955003, -0.028731418805089892, -0.0020884714401220826], "bias": 0.8572064181179553}, {"weights": [-0.026030258463538708, -0.029539538773831964, 0.0013902870263416967, -0.003752977213490487, 0.012136786771436925], "bias": 0.9080264860269398}, {"weights": [-0.019508325159615737, 0.012469764522720791, -0.0040368978283137034, 0.026231932501858762, 0.010795072791053711], "bias": 1.3864888576368886}, {"weights": [-0.0004503450646685496, -0.019581380912891896, -0.01743751124949667, -0.013766100652952376, 0.011986034271584296], "bias": 0.7142684870022818}, {"weights": [0.004240999945282042, -0.015483476927559059, -0.010091301192749175, -0.01086709000730142, -0.012947217121597514], "bias": 0.5612021066127593}, {"weights": [0.0122736328971427, 0.002671516893120368, -0.028253870918986068, -0.028976970480385545, -0.021590227470024294], "bias": 0.953918564883653}, {"weights": [-0.022184068534426137, -0.028742233366727026, 0.021502282033711836, -0.018787600309784044, 0.011918981750758763], "bias": 1.1049578973486789}, {"weights": [-0.02450053068658717, 0.008546936017777403, 0.013732506238530298, -0.006660592545098692, -0.006477322751168822], "bias": 0.8494659715042733}, {"weights": [0.014140454940145632, -0.006566395288073255, 0.00942466287930744, -0.007915376274444469, -0.006497723195710254], "bias": 1.0253306138891434}, {"weights": [-0.021066192567025917, -0.017951722756847664, 0.015714948843523854, -0.02627312259480613, 0.0001382045696820787], "bias": 0.9432020451773062}, {"weights": [-0.020109529661195967, -0.017508954980810718, -0.008164296780675727, 0.017335276323222, 0.0004685228018301221], "bias": 1.4789262389954434}, {"weights": [0.02961655248333965, 0.0038199683789795214, 0.020160744296556156, -0.02784674767449626, 0.01074606117485511], "bias": 1.0712583037772552}, {"weights": [-0.012934586793788713, 0.026466209066275434, -0.02386623157310838, 0.022097621012057284, -0.019590888600872776], "bias": 0.9779030575228989}, {"weights": [0.01897379968110184, -0.0169813676471667, -0.00944142346699934, 0.0296787924322906, -0.008801196912227933], "bias": 1.2115673572780743}, {"weights": [0.013062198455088499, 0.017860454397655053, 0.011876495645513928, -0.009683637228968197, -0.01612043462591798], "bias": 1.4941619883993482}, {"weights": [0.007075215882650247, 0.01884960874975144, -0.002229887111945675, -0.009110481917796277, 0.009688607545507169], "bias": 1.0051098467275836}, {"weights": [0.014991927283701037, 0.0008720194987254237, -0.0003680629423464879, -0.018258142192428446, -0.010027811537430098], "bias": 0.5675194156601457}, {"weights": [-0.029742242387351837, -0.01831286757968383, 0.015879180714753888, -0.012007453549538541, 0.005416740357460946], "bias": 1.4273228341944284}, {"weights": [-0.013858161827272154, 0.026704132476859287, -0.024448640747206537, 0.00376276809558055, 0.023221096286584933], "bias": 0.5342930964883061}, {"weights": [0.01827278825286701, 0.021167289215155517, 0.0129275275490085, -0.014290766552378816, 0.029717537150234286], "bias": 0.50462557054189}, {"weights": [-0.006697337471702279, -0.007292386507810153, 0.023780132778407757, 0.00031381922440421386, -0.02781135914996066], "bias": 0.7011494501676356}, {"weights": [0.010488364849732777, 0.026513032961766055, 0.029492115524542804, -0.000702287578997738, 0.014384700770301136], "bias": 1.126851785398478}, {"weights": [-0.0029837734995628584, -0.008064361907086145, 0.011083583815336043, 0.01677467375459331, -0.011412112392412698], "bias": 0.565628457046237}, {"weights": [0.0020684965229614827, 0.02041521736402993, 0.0028212895519356407, 0.027487467683234693, 0.02817432215198317], "bias": 1.2397299791784273}, {"weights": [-0.026585554342525346, -0.018380543322162705, 0.020631231615161942, -0.014766756501455723, -0.014988554707150914], "bias": 1.0120461754407688}, {"weights": [-0.01493328727340342, 0.018706754468832756, -0.009771734428303775, 0.027020297319034103, -0.029144438480860794], "bias": 0.8352579640806345}, {"weights": [-0.002700828891202333, -0.01591770588258514, -0.009969299852152416, 0.014666926386252256, -0.019994536047008404], "bias": 0.9729561164210886}, {"weights": [0.02201982154793162, -0.017338452513406426, -0.011726089023369857, -0.001205338993653056, -0.02824864799412148], "bias": 1.3952137851279907}, {"weights": [0.001837480696997587, -0.020205565213454672, -0.021088273317822537, 0.023753857736378385, -0.02905266626678223], "bias": 0.8461343363338281}, {"weights": [0.017093769581022183, -0.026109948190337094, -0.003688593783869022, 0.007150226977723176, -0.0027611052314673555], "bias": 1.3005297432722158}, {"weights": [0.012368914245236673, 0.016891400643124443, 0.015439973850675921, 0.0009109876352586567, -0.005066684324215014], "bias": 0.505174400112062}, {"weights": [-0.018005802759542396, -0.016252003321046486, -0.009636608568991217, -0.006042992516706109, -0.011235000549934964], "bias": 1.3911815658324955}, {"weights": [-0.0018061483571747451, -0.02308602776683296, 0.017667359600011506, -0.011312325144209143, -0.02018579807879527], "bias": 1.1200667141181215}, {"weights": [0.028681987274569914, -0.008662870016329611, 0.00411806409878622, 0.02354062836829377, -0.012170184802137617], "bias": 0.7492197479301901}, {"weights": [-0.0002884144159623486, -0.0031479827442024884, -0.01961474128074408, -0.014092535004866843, -0.01593732148057528], "bias": 0.5984003014839736}, {"weights": [-0.016432338852886738, -0.009331987075364336, 0.008608812411495623, -0.020854327058030992, 0.016103964358882783], "bias": 0.8630056748297552}, {"weights": [-0.014717682246966984, 0.012831418675024069, 0.0066732458236193545, 0.023126939757463917, -0.009961294385209957], "bias": 0.5763544297749684}, {"weights": [0.024395129411871212, -0.021358890229559765, 0.02525085012144112, 0.007178626188402058, 0.014864133862803733], "bias": 1.0828696331945442}, {"weights": [-0.00445765684487506, 0.013429208361750669, 0.02848745273692068, -0.023942675259604973, -0.0017901789780827501], "bias": 0.7215917670590125}, {"weights": [0.01863945132968676, -0.015682842582523525, 0.029570530155833365, 0.02025557702984626, -0.014854155229889837], "bias": 0.9112539697612464}, {"weights": [-0.010641039135492861, -0.0239023528567561, 0.017984196529751736, 0.020183784930050172, 0.016012422869761712], "bias": 0.7039897315550501}, {"weights": [0.012651023280901903, -0.014105158946621524, 0.005878062201322337, 0.01880320673114297, 0.007924762797848053], "bias": 0.6995889905352548}, {"weights": [-0.013161676959612623, -0.01828437716455151, 0.0035844546318084883, -0.024645636310052958, -0.015331236540090937], "bias": 0.797702130992955}, {"weights": [0.004878868206941188, -0.021272892204740122, 0.009125123626537238, -0.019802396698095137, 0.02418280057526844], "bias": 0.5125731795376437}, {"weights": [-0.009308211662373583, -0.02821989673070925, 0.014078942946791198, 0.009051167594635909, 0.0011853627476656817], "bias": 1.0056012663806402}, {"weights": [0.003385986168763573, 0.0005242117318350614, -0.001047552774642916, -0.025401663560147274, 0.02466417339587003], "bias": 0.7728925351934426}, {"weights": [0.003925191064029679, -0.014433295814165638, -0.010027841218222953, 0.002120576600565971, -0.020583154621866502], "bias": 0.8611746778186266}, {"weights": [-0.024819740788511256, 0.02534743170459139, -0.021990249937963807, -0.02192504301059394, 0.017187554902128956], "bias": 1.1239275599911605}, {"weights": [-0.023911654975175545, -0.01927676765532788, -0.012904232096557743, 0.028986566388548844, 0.007315070193068991], "bias": 1.241868250231112}, {"weights": [-0.0023337759149423126, 0.013410875870368134, 0.028019702192216944, -0.022000403507576073, 0.006159654817188616], "bias": 1.3790622421650371}, {"weights": [0.01043744586355929, -0.025848468853437702, 0.0012827874324464542, -0.022816008993569174, -0.009964078992266038], "bias": 1.2929173003081673}, {"weights": [0.00590629664711978, 0.024060186206645157, 0.010366570489744723, 0.0025185486211453736, 0.00373120768280355], "bias": 0.9035523418967961}, {"weights": [-0.008291348244356816, -0.0028997445015203523, 0.016471645745096304, 0.013204169972584341, 0.0007425668171770657], "bias": 1.2855800587542392}, {"weights": [0.020806520627748536, -0.022598124451524055, -0.020477573455737377, 0.003134256975037525, -0.012952703692946193], "bias": 0.9403075877717142}, {"weights": [0.004016099534396189, -0.024968600553288207, 0.016905504815299677, 0.01870055249077905, -0.021472510280004173], "bias": 1.3278968332331083}, {"weights": [0.023894729611276602, -0.0005261952589300407, 0.018153411388514548, 0.005521071209111564, -0.017942996096971413], "bias": 0.6057980887516765}, {"weights": [-0.021552619816269932, -0.0038733325512517007, -0.029363116120941793, -0.02436498644300071, -0.01025558970966654], "bias": 0.5882262017757239}, {"weights": [-0.018005662840146076, -0.023858964439123408, -0.017495721523202043, 0.020129077230679283, 0.015159805174255706], "bias": 1.4237801962315182}, {"weights": [-0.027658692392963688, -0.019999885235429688, -0.02650162989804365, 0.023469015848267334, 0.003786965994644821], "bias": 1.1287920246869296}, {"weights": [0.029447449227608502, 0.01004991494612003, -0.02968521482933388, 0.029216853828525895, 0.005997228592454225], "bias": 0.8440884846116722}, {"weights": [0.026124265122986934, 0.016927590012179354, 0.012928902058422911, 0.0040455554843013, 0.009874242571538502], "bias": 0.9492845186711034}, {"weights": [0.00990002142900516, 0.021261676681268278, 0.024898497353022304, 0.015855269974171846, 0.009440846526449255], "bias": 1.3786566829762665}, {"weights": [0.004994446781809256, -0.024317742596911895, 0.02806812376648736, 0.016935466564831803, -0.009205150833216394], "bias": 0.7817462388874352}, {"weights": [-0.029622658298873266, -0.02102580667445674, -0.005517569741569035, -0.001004615881921151, -0.0045526638827941245], "bias": 1.0135152305282147}, {"weights": [0.006472770654072313, 0.022919827149722086, -0.011167578237423977, 0.010503966535549393, 0.011251689694963374], "bias": 1.3046833658413126}, {"weights": [0.020714872938362126, 0.02519347102855892, 0.019886459003037794, 0.020238086179425165, -0.003881980677629515], "bias": 0.840387463158827}, {"weights": [-0.001262435480073848, 0.004002973136391613, 0.007764725191351393, 0.010706133839850418, -0.01703576711080603], "bias": 1.3322937587998989}, {"weights": [-0.023290204642429566, 0.013314782623642309, 0.02780114530974806, -0.016428879800212903, -0.011496398632864165], "bias": 0.5258565197047016}, {"weights": [-0.003417615728745188, 0.003500642872771992, 0.012828971201033448, 0.02292414836528514, -0.005916551391761244], "bias": 1.205964205210261}, {"weights": [-0.0240879544309847, -0.015151528777110493, 0.00496937249282467, 0.01414085228716496, -0.01891798545440073], "bias": 0.9571118046968758}, {"weights": [-0.007793936069410017, 0.017293140383942224, 0.0188821962838676, 0.020473630878772735, 0.0195826695541233], "bias": 1.2396402276254794}, {"weights": [-0.011381225357059366, -0.005865675432911083, 0.004651386755826235, -0.005832744911649621, 0.02271027332036899], "bias": 1.3753647673379494}, {"weights": [-0.0047737546080962034, 0.007310103730356593, 0.0002500740546284609, 0.006509267483564965, 0.00411439278035574], "bias": 1.078724627690386}, {"weights": [-0.001259719208243873, 0.019967333511155767, 0.0182323969176887, 0.006954882672729673, 0.021418283856877156], "bias": 1.4931651895773357}, {"weights": [-0.025237228659315186, -0.0014028353693446918, -0.01063464836432966, -0.025998881699160627, 0.0116291222649249], "bias": 1.337337094142655}, {"weights": [0.004755334716306812, -0.0008200967456477685, 0.02860000266235406, 0.029784592189748972, 0.02049991716133074], "bias": 0.932796177405062}, {"weights": [0.022878834867248253, -0.018084316648533112, -0.027096990870416858, 0.0089860859160548, -0.02474377343109444], "bias": 1.2812175243141397}]]