{
  "layers": [
    {
      "type": "RNNLayer",
      "input_size": 175,
      "hidden_size": 64,
      "output_size": 64,
      "weights": {
        "W_xh": [
          [
            0.08136556110567786,
            0.0029943776745162973,
            0.010554109893279262,
            0.11645596068644269,
            0.031937834520790735,
            -0.05266332243515858,
            0.047174155315906297,
            0.007336478645563365,
            0.01882901721676394,
            0.005123900458388522,
            0.010093688735972911,
            -0.06403336493371735,
            0.05129265873254736,
            -0.00037640581336570987,
            -0.07319036471585791,
            0.046815349336960306,
            -0.10470852374597282,
            -4.2251343807270074e-05,
            -0.052910583168282,
            -0.07192135245964418,
            0.07040994207249027,
            0.03424772439521784,
            0.010744325340119432,
            -0.06096383994275166,
            -0.011923735246471404,
            -0.04927483028892738,
            0.05395131886630436,
            0.006723280711084353,
            -0.05364046616791625,
            0.05361302676683286,
            0.02716989166940424,
            0.05103327449925105,
            -0.02337764332130285,
            0.0035583206089167124,
            0.0166215950279893,
            -0.07239547532384379,
            -0.06335800630787182,
            0.006976764482286551,
            0.023331913947263586,
            0.04042052956167778,
            0.04564194783471989,
            0.00601610316640889,
            0.0687786114473032,
            -0.016840665431018573,
            -0.006659468622303056,
            0.0505569020368783,
            -0.0018554602248968682,
            0.055379968115826156,
            -0.03165935138047662,
            -0.0751684392103654,
            -0.024808466851940443,
            0.07468421462432571,
            0.006956993439351841,
            -0.007236742279621691,
            -0.056600233414920195,
            -0.010454223749715455,
            0.06450061475788489,
            -0.02248721316825797,
            0.03415188545694012,
            -0.041151891139633814,
            -0.025634951755024768,
            -0.03577932441426721,
            -0.04717705913341414,
            0.11362651148385532,
            -0.060130035553916286,
            0.07232323790040589,
            0.05989449277525892,
            0.06171355581224093,
            -0.0695462205786593,
            -0.04944046416972329,
            0.0509459597027863,
            -0.022795002930578796,
            0.018766771094467158,
            -0.06435635310910354,
            -0.07091180309299243,
            0.05214867164774019,
            -0.0298593595168,
            -0.03186742725488817,
            0.030718430182918963,
            0.04989858141326915,
            0.03122577269116132,
            -0.07238188556688822,
            -0.062409634504595496,
            -0.07296588795427016,
            0.05165373213468631,
            0.06814637708940095,
            -0.02982855231553659,
            -0.033083355119167754,
            -0.07208123151737239,
            0.05995490487528586,
            0.02234223568505654,
            0.07505881278428607,
            -0.04620532237463354,
            0.010511212551342006,
            0.12096917936590523,
            0.07242824620812051,
            -0.03414400010513745,
            -0.04520328124970162,
            0.012976075870652477,
            -0.036828253859800285,
            0.06739709918057517,
            0.05771694095196635,
            -0.034885592658258226,
            -0.045786719207194834,
            0.02985069537732378,
            -0.0007771779166944187,
            -0.02672909655447269,
            -0.004058551567004114,
            -0.05237562341915436,
            -0.027450771185726024,
            -0.08293501620063501,
            -0.03375004254373191,
            -0.05825693967224356,
            -0.0378410501999515,
            0.011329798033330701,
            0.04039887207844087,
            0.033301188257183395,
            0.0672473645756848,
            0.06996202198853395,
            0.029256800194299243,
            -0.053901762609193646,
            -0.018572032999404853,
            0.07304373376449237,
            -0.0425559959910413,
            -0.04546825979611916,
            -0.04454598546821546,
            -0.03748533074576431,
            0.012831786754240071,
            -0.038455760228758136,
            -0.07209747568794392,
            0.012197083228479441,
            -0.01913548684050087,
            -0.02323753503472232,
            -0.00125127065676095,
            0.031264406440796144,
            0.014761487154552208,
            -0.013958487826146511,
            -0.025135434158322645,
            -0.030852242341105444,
            0.07025928811498312,
            -0.001699632902731521,
            0.0019936865196265308,
            -0.022854784081707387,
            0.04871579877809379,
            0.028884730435399422,
            -0.030452463349219035,
            0.023719870935771825,
            0.025893724627853762,
            0.07449422618578887,
            0.0015262828807625362,
            -0.053400045311781275,
            -0.06245017145690561,
            0.014668657419481215,
            0.043334291404061975,
            -0.025565366010499274,
            -0.04243748771998563,
            -0.06326421250841999,
            0.06758377642817405,
            0.06416593960789789,
            0.025794008857158476,
            -0.06067615385213927,
            0.03931160855264347,
            -0.016988037157601416,
            -0.004200485051728611,
            0.07442951650977055,
            0.057840264529066,
            -0.07022513370014222,
            0.04813542072815574,
            -0.022352480480530894,
            0.01627662954219887,
            -0.05313003881923781,
            0.043311367489288405,
            -0.16507240304663875,
            0.021788107891503136,
            -0.19250916386005396
          ],
          [
            0.18677319880626397,
            -0.008902461583832195,
            -0.10769895371337015,
            0.15596418187286512,
            0.19056084953382244,
            0.003913656433149205,
            -0.11967465629331858,
            0.016760724245111443,
            0.20831807624130355,
            0.02641245669905734,
            -0.07026724295264379,
            -0.0006330615409076926,
            0.01909838401602559,
            -0.13152612083390863,
            0.1795165668968043,
            -0.08566929967420185,
            0.015387066555571476,
            0.03234891249976107,
            -0.15682527470590862,
            -0.05580552903618341,
            0.0502595856647525,
            -0.16550532561342168,
            0.00526568615755986,
            -0.054707776785648046,
            0.060571354291739085,
            -0.06727307783475073,
            0.06781401441138912,
            0.010511398298541674,
            -0.047802531870742744,
            0.010524531652020384,
            0.014622195653357536,
            -0.029324899809929795,
            -0.009432420085172087,
            0.018177710114461287,
            0.19003110719015592,
            -0.03123989048816079,
            -0.013257308821829877,
            0.05500877644110828,
            0.02863521558615271,
            -0.003133004557939204,
            -0.022235833084892534,
            0.02496036631040571,
            0.06183990572766966,
            0.0721393486876807,
            -0.033273155570129456,
            -0.03727939413272999,
            -0.006959860150970942,
            -0.11782410141039949,
            0.007637259100198482,
            -0.06718700535776605,
            0.011218452025362563,
            0.02611473794678887,
            0.06857080453197574,
            0.02367022350388069,
            0.0314125597428348,
            -0.06980892445184773,
            -0.021113775108849764,
            -0.05411804144637719,
            -0.06905762754407531,
            -0.06288576034907156,
            -0.021677764612946168,
            -0.03822218106828423,
            0.116560114035427,
            0.19294291651571016,
            0.03951598150001097,
            -0.04381804511725095,
            -0.0074131721505082265,
            -0.02487709663281415,
            0.030508043360063013,
            0.07211889309273793,
            0.04868292141058139,
            0.06890810238909477,
            -0.04151840428056517,
            0.03743085393307445,
            -0.0043618373382938586,
            -0.00433908111282616,
            0.06359928754383783,
            -0.031688181876672744,
            -0.04056894046466385,
            0.0750952599603809,
            0.004911664719805406,
            0.02329769194578435,
            -0.0021087700600445347,
            0.038563484032713674,
            -0.06656351951812706,
            0.025465770508989058,
            0.0011187877584885875,
            0.019323837037023534,
            -0.06732899478897034,
            -0.06149369145487157,
            -0.03266364240582867,
            -0.028187825315812126,
            0.055581679059779385,
            0.03947078932666215,
            -0.047429795491135636,
            -0.06427079614202194,
            -0.012028099481277907,
            -0.05227157245555837,
            0.011909971611337507,
            0.015285005862256437,
            -0.002187641004892868,
            -0.019556533639171696,
            -0.06429199329354876,
            0.036810968131751415,
            0.04136675635232151,
            -0.016836857645325533,
            0.02130906390430161,
            -0.00560588748840291,
            0.007065119035018913,
            -0.07499801225950437,
            -0.03349771069888502,
            0.06929386385611351,
            0.038320059899300096,
            -0.06918901816108536,
            -0.03727676397004947,
            0.051630780546360486,
            0.0011409990513747553,
            -0.017365128295411016,
            -0.03849333286101064,
            -0.02463297144896725,
            0.01399058595359072,
            0.04112694903841828,
            0.06384241541563766,
            0.003992388368127375,
            0.053517865635735754,
            0.021945563654314743,
            -0.006461286811515837,
            0.018598558528950787,
            0.03347939152390869,
            0.055106838226735774,
            -0.007024994030769158,
            0.001430187154908974,
            0.016520351112203957,
            -0.01565880926722156,
            0.04748240548575847,
            0.06110058498554581,
            -0.0033190824106129058,
            -0.06308200061949333,
            0.04606892596919947,
            -0.020777913698179225,
            -0.056092460090401655,
            0.06772145844219375,
            -0.026418631688198753,
            -0.06431600461142208,
            0.026939245161058264,
            -0.05858194917158362,
            -0.03557949953017222,
            -0.013934641497491393,
            -0.05393140325321462,
            0.020122201617129715,
            -0.007055856485819703,
            -0.011456361102659143,
            -0.04848585958493999,
            -0.07134323533113356,
            -0.0135157173809509,
            -0.03032467081961003,
            0.006490283832113419,
            0.0640542627399986,
            -0.034366190466592686,
            -0.005169784731885785,
            0.05506412340953344,
            0.047986953624549855,
            0.03551143615167761,
            -0.05141597820548205,
            0.006288617259155013,
            0.042440743121043456,
            0.03884628974667925,
            -0.02814456988382289,
            -0.03212952011703812,
            0.03660934110002127,
            0.03628989643200409,
            0.027520452782709343,
            -0.15249619204418305,
            0.06001554836918839,
            -0.046401818989114586
          ],
          [
            -0.059080035930613894,
            0.1088362641987181,
            -0.01947355661469304,
            -0.06958260159232448,
            0.044734620041155845,
            -0.020122981421320366,
            0.039121592681740015,
            0.06348745247432021,
            -0.11503183274856105,
            -0.025976104545123467,
            0.03883502141770637,
            -0.15907524799871667,
            0.05096562031663687,
            0.06328530520524989,
            0.10833111623260665,
            -0.11680555011957178,
            0.0772543601969219,
            0.031823724779083316,
            0.08070584340159952,
            -0.052525194623673645,
            0.020273632635791416,
            0.013219029468474681,
            -0.0004909149111622796,
            -0.035283743837741785,
            -0.052291942382051926,
            -0.04827875135572503,
            -0.061030329015825696,
            -0.06810976124092313,
            -0.027603878367233298,
            -0.08816636631865667,
            0.122861098992706,
            -0.05208096886705813,
            0.048732218148605136,
            -0.050828149145371426,
            -0.06817246157232666,
            0.06555197093445493,
            0.030316315985879458,
            -0.01924688133596964,
            0.07499830530175208,
            -0.13688968925498735,
            0.04650796910386855,
            0.026525526178905575,
            0.06966095680542118,
            0.025350300693346955,
            -0.005510153602175426,
            0.003011741188303274,
            -0.012811251152950204,
            0.005848927697660842,
            -0.038443418090253104,
            -0.06976016649226915,
            0.07006431982911916,
            -0.0006122047704811562,
            -0.07105771425561232,
            0.05974191711898756,
            0.0038116830515674133,
            0.0631356701413734,
            -0.0018574033745039492,
            0.061112279928741756,
            0.02420311128248516,
            -0.05016488837248566,
            0.002896569843272148,
            -0.055720140842309036,
            0.05775619030233455,
            0.32662648087739565,
            0.042657782212994225,
            -0.003258158152447399,
            0.005715960334827325,
            -0.07360070781493819,
            -0.06400495117375009,
            -0.022685197758673524,
            -0.07072785065814677,
            0.05263066484792399,
            0.011193916619350208,
            0.021172667947771465,
            0.0036747900695959373,
            0.03662243483474603,
            0.06034397210174865,
            -0.07137733729203745,
            0.06190626948407617,
            -0.04239818220338834,
            -0.05617548142137433,
            0.03149072278976589,
            -0.00593951959611036,
            0.04123722240644645,
            -0.043743119142531886,
            0.03803176613741385,
            -0.015315732180216333,
            0.07245880158282593,
            0.0739054008476603,
            0.024435656257919547,
            -0.0408452748232873,
            0.04799864367079555,
            -0.0012563148027364412,
            0.019823922929148835,
            -0.06701528531129676,
            -0.007457170775664795,
            -0.02633273822268023,
            -0.03296112928857195,
            -0.039968597400729555,
            -0.07517941888341398,
            0.028004130113471914,
            -0.06603398113830826,
            -0.012152236181567619,
            0.016801751368092532,
            -0.01243379306809686,
            0.004558952920422632,
            -0.015745211016897513,
            -0.018349495510910842,
            0.010342232191243056,
            -0.04656561268803632,
            -0.0847613224257598,
            -0.05356997489427945,
            0.06529501435161718,
            -0.038226865880803394,
            -0.012660826663771649,
            0.044292251169222016,
            0.055155158964045284,
            -0.001878546410541207,
            -0.08829589349137697,
            -0.02705638041426954,
            -0.06775855097515956,
            -0.03931657014167478,
            -0.04038295201482913,
            -0.05308039482034948,
            -0.04606334725255079,
            0.004891331474632374,
            -0.0481946653269366,
            -0.050596685605344534,
            0.06686248846380564,
            0.008776734306098696,
            0.03305602231929772,
            -0.07089122074813867,
            0.06341658635103543,
            -0.06391638080442265,
            -0.007824230883894612,
            0.020957184682908275,
            -0.03408087250835437,
            -0.05472133560981253,
            0.03412013532916555,
            0.037647061668252255,
            -0.05034521473416102,
            0.07162983537558003,
            0.032735177565198045,
            0.03197562157144655,
            -0.040820230167009634,
            0.05531602173492618,
            0.038409554933683185,
            0.031063847171750134,
            -0.0016650563515273609,
            -0.027506773558175192,
            -0.032838037953130755,
            3.4231489103198065e-05,
            0.05219526087066888,
            0.043573134395853225,
            -0.07441407712198332,
            -0.054834301661159365,
            0.07521323732597689,
            -0.05007673572110523,
            0.018133352675016937,
            -0.05284887078325673,
            0.03812999991406264,
            0.008754142635214512,
            0.031607408461515926,
            0.018706487270378852,
            0.04967189606873283,
            -0.015487326422540075,
            0.0015193868941429656,
            -0.0342777808393806,
            0.016429241131543107,
            0.06862240708000007,
            0.04381996528061331,
            -0.06717090979007902,
            0.00011899808232786791,
            0.0022607514836275877,
            0.053518451647837126
          ],
          [
            -0.03779227591286697,
            0.08770921049323548,
            -0.008349812810868489,
            -0.0868743055376617,
            -0.12774567526287628,
            0.08517255674933115,
            0.08362068944891775,
            0.035280357958118534,
            -0.08003779914537491,
            -0.024387195932527,
            0.05121858393600552,
            0.03169186514353183,
            0.12367191478474793,
            -0.0792374192738537,
            -0.05682514184286834,
            -0.003902684847251871,
            0.07218195266494015,
            0.02021885776245615,
            -0.12244366684970932,
            -0.0184121572956429,
            -0.029880479106711863,
            0.053449068562802314,
            -0.04523427913980243,
            0.046125586364082566,
            -0.0692697528141686,
            0.06502666286357633,
            -0.08410955969907868,
            -0.07845147841782857,
            0.012192801218974111,
            0.054416179400412115,
            -0.11422183969727874,
            -0.017099022644355484,
            0.047659360659219815,
            0.010367718698125195,
            -0.1043633855711393,
            -0.011964962922678499,
            -0.04287114950738752,
            0.05173567516129799,
            -0.04467944367043285,
            0.024626848683211307,
            0.010020582626487817,
            0.048523391383359864,
            0.07038723962019634,
            0.025020430267833224,
            0.10804219481609735,
            0.06675774829416153,
            -0.04581709678043537,
            0.12530751136315862,
            0.05249862060046616,
            -0.005683298275602183,
            -0.017088866133348077,
            -0.03134724194288981,
            0.014575824865542972,
            0.00768472304172052,
            0.002893792243962204,
            -0.031875192684852886,
            -0.013012193723016319,
            -0.02522181876659705,
            -0.02590956052527845,
            0.026385209454208594,
            0.00765031131292572,
            0.06977791064438939,
            -0.03348812230101606,
            0.18668478289339605,
            0.029316610959209385,
            -0.017817664592545857,
            -0.0278254396776407,
            -0.07542190354633663,
            -0.0356719591956544,
            0.07034500950994284,
            0.07500322641604094,
            -0.060811073353479565,
            0.06686039299058961,
            0.06742058486478418,
            -0.0260494393920968,
            -0.055224495834158796,
            -0.07328410132206999,
            -0.04651961133502483,
            0.03205437993126285,
            0.026347472367161243,
            -0.03170399844761683,
            0.06315315100091996,
            -0.06092116012989226,
            0.04118433009137332,
            0.0019762942875412304,
            -0.011202933859589273,
            0.06688922392019937,
            -0.019105002449563313,
            -0.048099804429377654,
            0.04044949608931803,
            0.009747130778857652,
            -0.00806201172758382,
            0.04972324610767749,
            0.026748307712316288,
            0.0037629800212921572,
            0.053604121570190386,
            -0.03701776345424585,
            0.007423665592696818,
            0.0008815813967128622,
            -0.07089594594352167,
            0.03068440015491386,
            -0.015723223538257593,
            -0.07490946240330973,
            -0.05506895524495551,
            -0.03140217029148963,
            -0.006283304546294735,
            -0.021842299820820234,
            0.009891330584984504,
            -0.04968599353927472,
            0.07058165820618713,
            0.040692669858640264,
            -0.0544438250603674,
            0.033017148829673826,
            -0.016255405205179208,
            0.004658155864344482,
            -0.05642803425093046,
            -0.05820589638197321,
            -0.06873891220142148,
            0.04270271373960513,
            -0.022093758335862863,
            -0.03626643009256898,
            -0.06942714626027266,
            0.028058985649315513,
            -0.007212681720884934,
            0.04119781300069403,
            0.03951368787442448,
            0.02572682196525103,
            0.04710532563883954,
            -0.03449868802811602,
            0.03965096603883214,
            0.06214339068983711,
            -0.015336481882793768,
            -0.04024721992540339,
            0.048569913522196625,
            0.05948145591107855,
            -0.011750531851869236,
            -0.02422961072417497,
            0.06836258283743978,
            0.034883531122868586,
            -0.042247084402815986,
            -0.06911224154280426,
            -0.02795328310052024,
            -0.007797351310825998,
            0.0752746117163907,
            0.05633857855140657,
            -0.006813020692615565,
            -0.05769690821088965,
            -0.006895260966867198,
            0.060341736593457526,
            0.06628774316308904,
            0.057346293647016336,
            -0.0086793414305264,
            0.06903401489288867,
            -0.02309037780719929,
            -0.043309306259276925,
            0.0011407257630186574,
            -0.003689956314591264,
            0.011077684416924596,
            -0.0004955870674874796,
            -0.07389845440064054,
            0.07373324513263556,
            -0.03702308952069592,
            0.04330332866480113,
            -0.020489149625895133,
            0.05300482831804089,
            -0.014907097477989656,
            -0.0713590356353551,
            -0.06908089955041087,
            -0.04454572266603197,
            -0.05898466159510131,
            -0.03951708100833809,
            0.004242638442471469,
            0.11382353536182804,
            -0.04973386797511627,
            0.06122981153842445
          ],
          [
            0.0028232286655626394,
            -0.011662737372205575,
            0.18909582050093365,
            -0.11839912473778337,
            -0.17167783436061992,
            0.026058580048443192,
            -0.10036142378891143,
            -0.10470582505246616,
            -0.19138281242192218,
            0.043355976380709205,
            0.022905231228453726,
            -0.11619767293248916,
            0.06722207545006936,
            0.032618914673733124,
            -0.13262060968624945,
            0.033236121371586894,
            0.004886261779519862,
            -0.09762217402843398,
            0.03182580187034717,
            -0.004176235852450146,
            -0.05124487294588396,
            -0.005211736721694504,
            -0.05258610482739476,
            0.011869299587308008,
            -0.060170884867013885,
            0.10724677109975328,
            0.07300321525731818,
            -0.04865237883992749,
            -0.028117901923996772,
            0.00826811010486228,
            -0.11720085606832667,
            -0.007400124567532079,
            -0.03077401654567088,
            0.025226950234796583,
            -0.07052131164320859,
            0.06583090273539825,
            0.04205572080769483,
            -0.032937815509130636,
            0.05814506711541894,
            0.11720679835569237,
            -0.053367759788221336,
            0.10305464673939871,
            -0.004121101476853226,
            -0.07066749927709111,
            0.07353343076558054,
            0.10353092722780108,
            0.020704141959520445,
            0.08418918845296319,
            0.03592087853070938,
            0.045018447086949714,
            -0.03699807568985948,
            0.0708424605876352,
            -0.015146399890061814,
            0.010904918138184297,
            -0.05199673933018267,
            -0.013030300247660914,
            0.04169660685285055,
            0.04679004745420351,
            -0.057875604691850796,
            0.06795190755367579,
            0.07537536213666725,
            -0.025248713898030947,
            -0.08114848313258871,
            0.18126444217182558,
            0.03441809676410801,
            0.024836469143767692,
            -0.020871669885500058,
            0.00930202849414645,
            -0.05337147578131445,
            -0.019577625124005883,
            0.06221131080521557,
            -0.023299916561431523,
            0.06348921533544356,
            0.037751923155744035,
            -0.04880721073437953,
            -0.01139143735590839,
            0.05000336785288788,
            0.03206754597627817,
            -0.07199196843127342,
            0.01917801069700327,
            0.06354549799701452,
            0.02985368991768897,
            0.001518452878876267,
            -0.03237206241096708,
            -0.025126527868571315,
            -0.02652289243403727,
            -0.01066592070072489,
            0.04975404989725475,
            0.006230949454095122,
            0.0740823151114474,
            0.025184896293857825,
            -0.07451584941044986,
            -0.02228611718629092,
            -0.016777161407735643,
            0.12576809168468114,
            0.05051272650433987,
            -0.060172616559581574,
            0.05983721895640133,
            -0.009326545639219903,
            -0.04424456813738847,
            -0.012706131795090087,
            -0.005062291211319167,
            0.006839096015832283,
            0.06682327448582416,
            0.06124699127994444,
            0.013217328770087883,
            0.01135424284268513,
            0.033510905238675316,
            -0.0006770488619731729,
            -0.03866335760528865,
            0.04128691818932811,
            0.06452729167871017,
            -0.07449290289285752,
            0.01667920574150554,
            0.03716677834906766,
            -0.03657125344870817,
            0.03690849668686774,
            -0.01426897173961468,
            -0.007661840899955113,
            0.03742814798162142,
            0.034062042993835556,
            0.0269444513386235,
            -0.07490930318772825,
            0.0102013453392929,
            -0.039733042926475795,
            0.0029561643717150587,
            0.011121431405234264,
            0.05666650160446278,
            0.0510531680475793,
            0.014074419296642132,
            0.0750025351059496,
            0.0012069814855154015,
            -0.02803929190748331,
            0.0028571469540143446,
            0.003667490633043516,
            0.0647328622934857,
            -0.07140121478126404,
            0.04065445440331479,
            -0.014512201533726878,
            0.056329389245884195,
            0.04866499586401868,
            -0.011404522962862124,
            -0.025463513556569208,
            -0.06083192870495857,
            -0.07506143386613685,
            -0.018575644759337727,
            -0.0677264433460188,
            0.034656155550006104,
            -0.03237359181104258,
            -0.03647486529718436,
            -0.06552995178992885,
            -0.049493686339178763,
            0.06710403249851864,
            0.05632488597018011,
            -0.03148093518152724,
            0.013581265615710394,
            0.06816929919172023,
            -0.007849053643974077,
            -0.00957809635467552,
            0.033783817012491044,
            -0.035724232318973106,
            -0.018672736830414143,
            0.05806998939631523,
            0.0494411587222217,
            0.00316721893349646,
            -0.0072476867557906555,
            0.007293436217583188,
            -0.0219997440596416,
            -0.02305542253264125,
            0.019624130673566928,
            0.018035944976261556,
            -0.004953791426617324,
            0.0523455567783594,
            -0.057344826323471,
            -0.13076552299467065
          ],
          [
            0.04558815922756631,
            -0.028910701772218696,
            -0.020624047070544566,
            0.028068008885607926,
            0.06306152469862282,
            0.02554372250674752,
            -0.05132745976308739,
            -0.005788198454736163,
            0.002330768163924717,
            0.05936418219952451,
            -0.05401060086715356,
            0.0280838413271848,
            0.0666177033092248,
            0.026368950224246335,
            0.0308235701792761,
            -0.02535376201269069,
            -0.012626731799013618,
            -0.016913029198197843,
            0.15811306228738994,
            0.10933834336864034,
            -0.015533412410336078,
            0.12358449576551571,
            0.019100509242450284,
            0.06530368219213332,
            -0.05718629109499872,
            -0.08580781591678714,
            -0.04125223150542883,
            0.0010143251163180537,
            -0.03280288849414075,
            0.0844169362226861,
            0.10650704393277663,
            0.03776474209533729,
            0.051524242031280254,
            -0.039450800896474014,
            -0.02420902439899375,
            0.05941212711803924,
            -0.0033089485276370373,
            -0.11166996028245683,
            0.03575159666962444,
            -0.11015647430247807,
            -0.006742963564092097,
            0.015644435862300774,
            -0.07090978901852779,
            0.06154041543358728,
            0.024265338294226474,
            0.09342019205664794,
            -0.05923466748807863,
            -0.021621812067384557,
            0.013846447542685034,
            -0.004365542773063433,
            0.05434558674156899,
            0.0427020882104374,
            -0.025770228475546574,
            -0.003200528594445917,
            -0.03316796037684043,
            0.027288476454513752,
            0.03033302191205693,
            0.06982013286090406,
            0.04653819122033895,
            -0.05622170604038462,
            -0.03667169347044889,
            0.024214709699768716,
            -0.1083953339707897,
            -0.2594550322787873,
            0.014408838068688715,
            0.04423593875930609,
            -0.06778012822209097,
            0.049204105378383045,
            -0.012116090227517546,
            -0.06697939127583011,
            0.044692860604158696,
            0.05143700403153399,
            -0.02340568833520011,
            0.033807972740689876,
            -0.05139092351546523,
            0.0179161877767173,
            0.01629376636377096,
            0.022600001669858732,
            0.015369396109518485,
            0.06831700437514636,
            -0.009344732385558871,
            0.07330786799994886,
            -0.009692994021642032,
            -0.03204606058030581,
            0.04852229222677924,
            -0.025106605027812715,
            0.006968782841570015,
            -0.012352677552705055,
            0.018326889066711344,
            -0.04871513363681811,
            -0.014041780141322936,
            -0.07463929387103989,
            0.04790747437957317,
            0.07289702399013719,
            -0.09255905645786947,
            -0.050144744590468485,
            -0.06453323717747426,
            -0.043113667838460656,
            -0.014297067096434676,
            -0.06472328494424552,
            0.003758993799272678,
            -0.01980680702638038,
            -0.0726841113285233,
            0.0740359603253163,
            0.035787903735358784,
            0.026969843562467025,
            -0.020668367738158354,
            0.07066373870768963,
            0.038753125369113475,
            0.014749379028676152,
            0.047816093790871345,
            0.0452867377145401,
            0.005715496810315246,
            0.025394611097056582,
            -0.012080115196872868,
            0.0709514828381776,
            0.04601358798859975,
            0.060314713508431525,
            -0.06023644854757646,
            0.04095403666854862,
            0.06267875043297287,
            0.03717665005965026,
            0.05621261014288166,
            0.02486204782380637,
            0.04241678310437648,
            0.058316775292347675,
            0.037043786665834286,
            0.05482738762030907,
            0.07458776258162324,
            0.05554817389675802,
            -0.009594209715721946,
            -0.02194639551168443,
            -0.0688937748786091,
            0.03178383673860985,
            0.00722648927503082,
            -0.06921123048283963,
            0.01730818451982251,
            0.03239702392172458,
            -0.0186935602835163,
            0.01617258529563094,
            -0.06639759970048326,
            -0.04321655573387553,
            -0.02457111717893541,
            0.07423639381577589,
            -0.03328180257209316,
            0.011348543603361586,
            -0.022072317562799926,
            0.002309821502207085,
            0.035101405703789154,
            -0.05857425711069538,
            -0.07340705744493368,
            -0.06272117995440146,
            -0.07255723745412954,
            0.061582804474625816,
            -0.0663592631184127,
            -0.03225985360486152,
            -0.03683248547801269,
            -0.0713234167932099,
            -0.0037555363791197394,
            0.0054155318977774786,
            0.005306143950769851,
            -0.060477474585161256,
            0.05205517520604981,
            0.049791052715120535,
            -0.02793338630687508,
            -0.042460435306414746,
            -0.022068618587364676,
            0.03309371163518296,
            -0.04618089004345699,
            -0.06579952555206282,
            0.05015397627004069,
            -0.05586050923727147,
            0.034679794721451385,
            0.06743710069757987,
            -4.656638180821124e-05
          ],
          [
            0.08419804256676143,
            -0.06310407828470335,
            0.009333496907055655,
            -0.0870436999078889,
            0.07554075121354935,
            0.03454262153853627,
            -0.11111992933802878,
            -0.010897850746685098,
            0.17351906995030272,
            -0.03354545491292591,
            -0.050223362725478074,
            -0.17264211336854415,
            0.06146878480426789,
            -0.08088955712418837,
            0.07040390262203136,
            0.1344451929190604,
            -0.05298851364361565,
            -0.22225421824351782,
            -0.04522708315430453,
            -0.003980238982777284,
            -0.014376681544178867,
            -0.08754012825604832,
            -0.046355073650366785,
            0.05165719434556064,
            0.0036721707775507068,
            -0.011923556999364043,
            0.05173515796537603,
            -0.016650961410475423,
            -0.03922794405472801,
            -0.032745659629500795,
            -0.0023706458337552395,
            -0.051773501633776864,
            0.01905461067619379,
            0.058218067671732474,
            0.019909376912603666,
            -0.04734166955939906,
            0.015227978174041173,
            -0.08886685098716551,
            -0.03010733829480166,
            0.005522236485319502,
            0.07045960915712386,
            0.07211221026641698,
            0.05340173511798012,
            -0.0315407021660782,
            -0.0679717356650216,
            -0.022397996516477486,
            0.032220290120821476,
            0.05607855245595924,
            -0.06980429756383695,
            0.07127292799047043,
            -0.054155000101154455,
            -0.05316796421780552,
            -0.009058704661654815,
            0.061532002957589135,
            5.110799623542217e-05,
            0.03332678151373736,
            0.04473121407580884,
            -0.07323949433666428,
            -0.07302712148968828,
            0.04317294602377146,
            0.010566016210080215,
            0.022348505378827266,
            -0.016487638527775295,
            0.2538948555966553,
            0.04228103814853594,
            0.06326458285613305,
            0.022923636525183574,
            -0.058145489872989245,
            -0.08191359784303312,
            -0.016706965440687643,
            -0.0416032862479131,
            -0.06397862369819725,
            -0.06356608614250184,
            0.010498944755398018,
            0.0043376963854308975,
            -0.043169564455105086,
            0.049143672636945177,
            -0.035729437495587726,
            -0.023229001773110013,
            -0.060031144895149796,
            0.006977258417116591,
            -0.04587302849106323,
            0.06088420485903877,
            0.013543165877447472,
            0.05654633157791232,
            -6.379064521851163e-05,
            -0.02401553780179303,
            0.05947974226827228,
            0.0746987303462427,
            0.01852645609826324,
            0.0548258973017947,
            0.03181767011923775,
            -0.054788260896106396,
            -0.011331674408748035,
            0.0011250956152916143,
            0.046571376739464945,
            -0.05516495781952582,
            -0.06029502709951347,
            -0.05589641168755381,
            0.033399148796732794,
            -0.015447873011375755,
            -0.020872008133221376,
            0.009283444286779102,
            0.0341688333108737,
            0.07113429890291019,
            -0.07545711528564351,
            -0.06743568540905787,
            0.008293657221285774,
            -0.01060954547604287,
            0.01241690366284963,
            -0.03307331070596839,
            0.01694653000384884,
            0.019979783078771823,
            -0.05588064533868927,
            0.036116074423510086,
            0.06944707453187533,
            0.010405807472927589,
            0.04941617744311631,
            0.04656263751812148,
            -0.011137984566093037,
            0.057350327596332476,
            -0.01212704501737677,
            -0.052071733106885884,
            -0.035112868114360644,
            -0.02107416658901705,
            0.009608860553427176,
            0.006328810326120038,
            -0.049672929743240245,
            -0.0020511966754955674,
            0.06604156997967807,
            0.04947929297035465,
            -0.006259473171295549,
            0.0628615225147079,
            0.021709117835974664,
            0.028925775439360243,
            -0.005886864541887707,
            0.0628410065661535,
            -0.061545939905916114,
            -0.07552743295081062,
            -0.040101534917583004,
            -0.036877385902247393,
            0.06889983489093061,
            0.035096341676533194,
            0.0581211287197894,
            -0.022014155546495544,
            -0.057704990722836816,
            0.03175878985569365,
            -0.01910503012366449,
            -0.06091125145537139,
            -0.05293752991615634,
            0.07251728719299076,
            -0.059805908763776124,
            0.05300737826986367,
            0.017411395106766092,
            0.014179659320674887,
            -0.04457103848905412,
            0.06359901863974925,
            -0.02713950387473666,
            -0.032677541723789484,
            0.05432870343112685,
            0.01152862386009973,
            0.03893485971923617,
            -0.03094136461941862,
            0.03571370962362434,
            -0.06958236167366792,
            0.03016826136821263,
            -0.042953526204786534,
            -0.039793262090912676,
            -0.06639853083050526,
            -0.018449743317680664,
            0.05171803952121305,
            0.06383712082169775,
            0.09915580358128255,
            0.03561011251314593,
            0.038206929601212504
          ],
          [
            0.045276830786995806,
            -0.07754069882949091,
            0.07467187461400826,
            0.032981905775099934,
            0.021082967948516752,
            0.0405909984005734,
            0.041901498328914884,
            -0.03973536777190358,
            -0.0029628273443538604,
            0.07303587767550367,
            0.013477321511919008,
            -0.09564519825168688,
            -0.0015806109407620627,
            0.09576626904674594,
            0.09651861590441929,
            0.01072906921255886,
            -0.0856298364739093,
            0.004588153186277491,
            0.05713292247111317,
            0.030750649138907037,
            -0.05117520902739731,
            -0.013401700319940753,
            0.06657639345668352,
            -0.03732286557166229,
            -0.03389914476853348,
            0.025315835672490697,
            0.029656150957546177,
            0.0032120353232993545,
            -0.05189011364513448,
            0.02051296129434132,
            0.02863750137210309,
            0.010273082834152434,
            -0.03290573900977405,
            0.03606348569412132,
            0.06833837570378047,
            -0.05600812039100572,
            0.06092993479532395,
            -0.0274516697938662,
            -0.012337666754182184,
            0.0010399441479691362,
            -0.0130413573707865,
            0.031472701103908346,
            0.04344391487376614,
            -0.01801830554456242,
            -0.028654809851140876,
            -0.03751025783654071,
            -0.02514898523401881,
            -0.02344316510986814,
            0.05201257506387273,
            0.0005913001326473544,
            -0.07272628350348305,
            -0.0016221710853750737,
            0.04033690367890236,
            0.015254606597519163,
            0.0524748274398731,
            0.07530858364251937,
            0.012959541924097956,
            0.003742570086560898,
            -0.020996640283849566,
            -0.05344295311269164,
            -0.07206169035786077,
            -0.011531698223590181,
            0.059878610081574996,
            -0.10709192899919433,
            -0.03978453891986029,
            -0.00805630836995573,
            0.049182044280884185,
            0.03397526128035047,
            0.08100252884851268,
            -0.06687234678794471,
            -0.044336417024866605,
            0.006376435242577194,
            0.04898660031014945,
            -0.026673578675087378,
            -0.006287734843774706,
            -0.06719677229897161,
            -0.013413898577304552,
            -0.022266967545221818,
            0.01841672147700918,
            0.00597254286282653,
            0.0444258218690136,
            0.005003129486899863,
            0.07419254864285547,
            0.02770812071127772,
            -0.06786212040544153,
            -0.06312521296272189,
            0.028101592388021734,
            0.07521769258768733,
            0.008027490406066068,
            -0.006377062108678486,
            0.057833382189674556,
            0.049338590463126386,
            0.021809072193415435,
            0.06658784702498056,
            -0.04612524750831132,
            0.04645813647142065,
            0.0600475014814036,
            0.051464770667358536,
            -0.07368493079957027,
            -0.06532075710402398,
            0.010440950162020887,
            -0.03369014318719562,
            0.055349786463785924,
            0.05021327432427623,
            0.03527804019197202,
            -0.028504976126994985,
            0.010824001221543547,
            -0.003586119252092809,
            -0.01427794779088868,
            0.000518616461949617,
            0.0017826711295597793,
            0.06223022822161571,
            0.06475242920497663,
            0.06736855851312305,
            0.012945308835939556,
            -0.04019103228897799,
            0.04649705803822697,
            0.024595163240936066,
            0.06361052761059861,
            -0.03254920690555329,
            0.0038822198993902907,
            -0.0631180755733196,
            -0.04282428856235335,
            -0.029101708133375863,
            -0.019299619434432258,
            -0.02296377000746673,
            -0.02455382822292046,
            0.0010009498406937656,
            -0.027957591299897604,
            -0.07536634753815319,
            -0.04206652874106098,
            -0.04645144414379966,
            0.047953387366226466,
            -0.06530944107587623,
            -0.039915584420795736,
            0.03174403478617331,
            -0.03461182444573162,
            0.04547861862473969,
            -0.008567734342818129,
            -0.04446858939913049,
            0.05188940779907521,
            -0.061274561073030955,
            0.03902166088454248,
            0.04754022088861257,
            0.03242649417287652,
            -0.019131989998274562,
            0.05075986401947512,
            0.012047129678503729,
            0.07457009302565575,
            -0.024138395788778397,
            0.07255979492091978,
            0.018963633526700927,
            0.016239029842175498,
            0.0693928899039808,
            0.00015413817860590595,
            -0.012653275906223116,
            -0.06668661629050036,
            -0.04611076893859759,
            0.012639417602422182,
            0.006855477869980822,
            -0.010614018191223415,
            0.07242923173373096,
            -0.038687698989960606,
            0.01963223921253507,
            -0.06270813993200162,
            0.058331311605140365,
            -0.02313617141438573,
            0.07279921948613056,
            0.07262478128132897,
            -0.019564929399324416,
            -0.0732645670223514,
            0.022898388199027855,
            0.02123916088507244,
            -0.032546613408932105,
            -0.03491010171120663
          ],
          [
            0.020385455775615458,
            0.11129836066232673,
            -0.027590922744739427,
            -0.18915938832236207,
            -0.005650062068788722,
            -0.05974723878321986,
            -0.0754151410358215,
            0.03533402983813984,
            -0.09595637100600388,
            -0.02371795722881593,
            0.07073727109617876,
            0.0015392768898478673,
            0.04470320516360568,
            -0.07451894488451385,
            -0.12191199510085741,
            -0.0031213650187205,
            -0.09926453208333512,
            0.03263045869363516,
            -0.12768377446577547,
            0.06697502581211498,
            0.17075004237581773,
            -0.10341646437551533,
            0.0544507459016705,
            0.00974101493768982,
            -0.051930446584893125,
            0.0011741635348154656,
            0.05032315087321882,
            0.13428938714531935,
            -0.008739508891380476,
            0.053971881120010154,
            -0.15874025770991715,
            0.052903996078993175,
            -0.19944789818020772,
            -0.040458216005001796,
            -0.011195564747169604,
            -0.04571143629863392,
            -0.023893103720580768,
            0.023294173835534764,
            0.046635291124714,
            0.18293875041331603,
            0.11611214488415958,
            0.06325965533776069,
            -0.06317966647939856,
            -0.027256120953962182,
            -0.033027198110131474,
            0.05556875164080002,
            -0.06881424638184815,
            -0.01780950723498163,
            0.07150168330477981,
            -0.06930946329644094,
            -0.033752332432814475,
            0.06071917318554597,
            0.06208513361025546,
            -0.07532756599883808,
            0.03144831540633293,
            -0.06160938961501692,
            -0.06759831373223277,
            0.052782949510778235,
            -0.04368695963735488,
            0.011128830877812412,
            -0.04549413052899958,
            -0.00015656445380360373,
            0.08292899267157842,
            0.30870768895251105,
            0.04495189231379619,
            -0.021686734624341966,
            0.02492233161229905,
            0.05508273268137083,
            -0.08193966179460647,
            -0.06289799596257967,
            -0.0072770326547152014,
            0.004288075505945788,
            0.06376089338152861,
            0.0652133342564881,
            -0.07091985250211279,
            0.06498794747204494,
            0.003542789333838489,
            -0.009012872698437105,
            0.028998325778438486,
            -0.003485445753934391,
            0.017167325386195226,
            -0.07465907162527156,
            -0.0037698272552667417,
            -0.0043899315456553956,
            -0.07531235511857927,
            0.04183139916031317,
            -0.03051490327433542,
            -0.058323559820257706,
            -0.05628322715635764,
            0.031679038096141754,
            0.03603288099334727,
            0.07002805654673987,
            -0.03514660686485382,
            -0.0017504216521992688,
            0.11306531879860254,
            0.06286606649604203,
            0.04343800540161406,
            -0.05805616316015219,
            0.050041339654921906,
            -0.004914448599666318,
            -0.058217106064213646,
            0.042817877659056244,
            0.013244170715298098,
            0.06542562080856658,
            -0.02783831997525949,
            0.07025990539038875,
            0.03433180958032547,
            -0.09353671731484291,
            -0.0004011657906629329,
            0.03257693008792566,
            0.010527843259320649,
            -0.047620606051159406,
            0.0265987295378326,
            0.001965407875911665,
            0.016139138079291473,
            0.014011461611052142,
            -0.012393668290319002,
            0.002286871560006079,
            -0.03341296515767574,
            0.005189811949424833,
            0.0695538336328919,
            -0.055925219441301785,
            0.01905745708927438,
            -0.008517271157099951,
            -0.03939321517519283,
            -0.027652165771499863,
            -0.032988720866736446,
            0.023660555897349708,
            0.06227608656806148,
            -0.059391462087732966,
            -0.004482524228020104,
            -0.04761315897209646,
            0.06538406131198558,
            0.03547087389849547,
            -0.01697848272022963,
            -0.033815615134647745,
            0.05310361543794655,
            -0.06516501429219582,
            0.06390891613926906,
            -0.009646061031346215,
            0.07057430646606948,
            0.0042359197340797045,
            -0.039385208195053006,
            -0.005569357439761682,
            -0.014026334940338323,
            -0.0738023299094012,
            0.05750104915519948,
            -0.024857246833797295,
            -0.043627271805272816,
            -0.058281102704986196,
            -0.07109550625016227,
            0.05193854678899608,
            -0.06442603673789868,
            0.04769303142306937,
            -0.03209296967668011,
            0.015957056775842235,
            -0.03805021464702827,
            0.06672405625044413,
            0.07110779096760962,
            0.052775525757963224,
            -0.06766331130235782,
            -0.044909920975542736,
            0.0023517455737560866,
            -0.04912303326962651,
            0.054635449571596925,
            -0.026458197607240552,
            -0.006411108197843143,
            0.00017572844750900207,
            0.04596696837168372,
            0.029671885541454196,
            -0.04255769076552241,
            -0.07142429879943597,
            -0.017813887274620844,
            0.062322778352985456,
            0.09770807129876603
          ],
          [
            0.037902436875115,
            0.0014955064030905336,
            0.08828899703692396,
            0.02824071432571264,
            -0.08884157674745101,
            -0.05747303774870257,
            -0.008362615147160827,
            0.040666789257043985,
            0.10069477743075367,
            0.006375484924852695,
            -0.04878385649626851,
            -0.12277943794397513,
            0.06054825508912917,
            0.013050017913253237,
            -0.1554835593781948,
            0.04942916108917281,
            -0.008896261473251397,
            0.034188521799440784,
            -0.061333097882723474,
            0.020166554868569442,
            -0.00544272347752848,
            -0.02663982930007198,
            -0.06969467237649904,
            -0.009812800724072576,
            -0.04933084577459637,
            -0.06894597670184928,
            0.00215143586777683,
            0.07164259841076637,
            -9.784145129324721e-05,
            0.06884251160509992,
            -0.09458611013040502,
            0.06389829002914778,
            0.05891954704419485,
            0.006606118273511416,
            -0.0022411888294675375,
            -0.05013631359378316,
            -0.012740915383693749,
            -0.02309320139783717,
            -0.010709333388131912,
            -0.023669773023803294,
            0.01499974022189754,
            -0.008511693194900988,
            0.061146469065666356,
            -0.053817835856312404,
            0.043301876991507435,
            0.0016122771393778806,
            0.01364553447895557,
            0.0446972128208309,
            -0.07214043998622154,
            -0.03018311420205253,
            -0.06104993193920404,
            -0.016005518799141735,
            0.008563287281125292,
            -0.04637953160486708,
            0.019032752979622466,
            0.05933665198885664,
            -0.05828808761537058,
            -0.07473934365426232,
            -0.02531585479331914,
            -0.044732129524782976,
            -0.001077126422423677,
            0.06970265565071322,
            -0.01465705779322089,
            0.012621089130844271,
            0.03973551716501339,
            -0.03988626037662968,
            0.0745050827158374,
            -0.015670941039438474,
            0.02701855315132252,
            -0.0011325498126189965,
            -0.07393704066851534,
            0.06288799669352858,
            0.06514097982562271,
            -0.017037993941231587,
            0.029181282008404724,
            0.0030749437900323834,
            -0.044698530800653676,
            -0.008090039512730185,
            0.0006078562906429302,
            -0.005755553189299267,
            -0.03312108378120556,
            0.07528000016967905,
            0.0165003624677018,
            0.0619208932847357,
            -0.007471428357449267,
            -0.030418210947549665,
            0.024615657988928258,
            -0.010033087125093543,
            -0.06536261246410786,
            0.016030915673145935,
            0.0682672189652971,
            0.06241755736410455,
            -0.011141264163698872,
            0.003511235255958395,
            0.09019498783357671,
            0.018569335542559184,
            -0.014301845130540433,
            -0.051788168123279466,
            0.019866452483748125,
            -0.02738241352777445,
            -0.021280172299628794,
            0.04596154780338234,
            0.013362822297982427,
            0.028558213708288108,
            -0.014408152257883097,
            -0.00023388118007366954,
            -0.02539592757249963,
            0.013567806087539372,
            0.05313187588433428,
            0.046778687370870084,
            0.06651677770842114,
            -0.0031570180578022605,
            0.005227115790494785,
            0.07178764897520977,
            0.005312773018095476,
            -0.0367853690724845,
            -0.07255136999314642,
            0.02284783551023571,
            -0.0017188049875437152,
            0.0005110211430946754,
            -0.02179029910242917,
            0.056550063815362275,
            -0.07211304742990471,
            0.007668780068156009,
            -0.021587170889609666,
            0.07324286882514246,
            -0.0361282622856515,
            0.047257752036265366,
            0.026099096855883186,
            0.04405672410758092,
            0.06354032885442891,
            -0.025926417570235033,
            -0.0005027129843909739,
            -0.0559504901917647,
            -0.05957755853745042,
            -0.03559580771845184,
            -0.04441152737165803,
            -0.07215047570502871,
            -0.05880971084413379,
            0.02166792542167789,
            0.03403333256744602,
            0.060253232671130794,
            0.0017655938528149534,
            -0.007208013491022486,
            0.05758790990527472,
            0.0328809800500955,
            0.06884113063956267,
            0.07147675184057238,
            0.041652271694829365,
            0.06983313124695294,
            0.05935191913743455,
            0.024006816080176824,
            0.04995426048244771,
            0.038042601984700844,
            -0.06772361249838056,
            -0.028777297907372067,
            -0.01045552566912053,
            -0.018780901009677747,
            -0.04096030550634777,
            -0.05695806425679467,
            -0.02280431595621015,
            0.02740659530886061,
            -0.05075239998337036,
            0.0013787465567934726,
            0.025963589743216622,
            -0.06373864177217778,
            0.058817625780986996,
            -0.014958772169753234,
            -0.039823291053316896,
            -0.04495739597566973,
            0.011489121071887501,
            -0.0709500493531148,
            -0.004291706940118996,
            0.046750832788053795,
            -0.037666676806941406
          ],
          [
            0.15092656450473632,
            0.0037258379778418354,
            -0.052636123211845735,
            -0.07403410209730005,
            0.13260024928360498,
            -0.14562332975379177,
            0.002426978680953192,
            0.07407280746476776,
            0.03157066907189725,
            -0.01381979954556093,
            -0.0730788081902255,
            0.04160993812613167,
            0.0013415945988270196,
            0.03189056465304227,
            0.16737467036084563,
            -0.15252831826560428,
            0.11336520436675832,
            -0.03877795471074268,
            -0.027427231409336294,
            -0.0003534728697162034,
            0.07721922299200834,
            0.010593378568424511,
            -0.051353931252937864,
            -0.04208900503863462,
            0.06183127049992855,
            -0.011703601932654422,
            0.013993295221509017,
            0.06234941173891042,
            0.01823604733797388,
            0.02997726856152097,
            0.08930889039894364,
            -0.015228195606133529,
            -0.03980012184115697,
            0.0705327728236128,
            0.018699630189206496,
            0.04003969697456808,
            0.07184211946333662,
            -0.04723492827160228,
            -0.01622640300109367,
            -0.04485512982076206,
            -0.03373623882765265,
            -0.004115803221620902,
            0.030583141985669443,
            -0.05471326636102716,
            -0.057696014845803625,
            0.03177175197369527,
            0.06820313163006823,
            -0.044672801287197084,
            0.0729252450922342,
            -0.06598236589848865,
            -0.009298771661768332,
            -0.058200206552833776,
            0.05014143466598246,
            0.04946530722991867,
            0.05929512923888043,
            -0.010043826071488085,
            -0.04327632749239104,
            -0.02209074837573008,
            0.05822849496629269,
            0.059510693852732346,
            -0.009499793380487329,
            0.06254267530600656,
            -0.0066967384414235425,
            -0.005147846493463131,
            0.04317770499805519,
            -0.00535712698732968,
            -0.025590103978496516,
            0.00918858198268771,
            -0.07447063052975265,
            0.07463301760099424,
            -0.017279487778493738,
            0.058520815170422555,
            0.03589689184784235,
            0.008368764511776303,
            -0.053207726011890805,
            0.051652043707601944,
            0.03796195367523898,
            -0.03359600598234021,
            0.05995052568814886,
            0.05185141977544362,
            -0.036973705168483,
            0.02389503235851148,
            0.0082728581277145,
            -0.012407503022970598,
            0.007362753182917237,
            0.050991887281204615,
            -0.06738462380580743,
            0.0551168409704101,
            0.02881305023952213,
            -0.0237257997440671,
            0.016833124876206654,
            0.05526732770048341,
            0.06679951393679011,
            0.07218756959938648,
            0.007789074933035861,
            -0.0406727157839639,
            -0.018620173868855103,
            0.015753299316899713,
            0.020074953637927783,
            0.044227586301601424,
            -0.030805810534934516,
            0.07234899278932137,
            0.009116956035410906,
            -0.003833994242769631,
            0.06234544018472969,
            -0.03533299135180397,
            -0.03314963123277855,
            0.013440591897769388,
            -0.07331058848958184,
            0.05500120795583631,
            -0.0429521285212806,
            -0.02830798431277265,
            0.04134925537317555,
            0.0052438570869409035,
            -0.017165979712276964,
            -0.0070928883329165054,
            -0.03416276826004368,
            0.03644914432592797,
            0.02758269293651712,
            -0.03708943709192057,
            0.033994792560128675,
            0.048293444816074504,
            0.02802239836291577,
            -0.007352757846507477,
            0.032178243166170725,
            0.0025242976151642754,
            0.05736734889795532,
            0.03687740865995799,
            -0.06378927975327243,
            -0.04963880747900272,
            -0.001894249689304836,
            0.06086794753290649,
            0.03940082397408305,
            -0.010815876934793217,
            0.033372663947780296,
            0.049085283835040835,
            0.05199753560433183,
            -0.03675002290359605,
            -0.03230813896180409,
            0.002866382272201068,
            0.047976631378380916,
            0.053117449110073864,
            -0.06944652719073928,
            -0.06653878500439056,
            0.015295672013644707,
            0.004212120720548995,
            0.02592605037368599,
            0.05057888026047312,
            0.020330619818258247,
            -0.0723345757956593,
            0.04555082120860918,
            0.04617575529283466,
            0.0547387783331381,
            0.04550059814659066,
            -0.05469834261717174,
            -0.016851975223457112,
            0.05473087980025175,
            0.03881753568982696,
            -0.054732569827460394,
            -0.046314973155391945,
            0.030993609410355033,
            -0.032309113533073384,
            0.024093399301798227,
            0.05247678437735488,
            0.032786047783422284,
            -0.025367296882649562,
            -0.03136119580221523,
            0.04702730351993796,
            0.014204361960394554,
            -0.029146263204401508,
            0.0398772786635086,
            -0.043114251448631354,
            0.038149662846847815,
            -0.07281932447814095,
            0.19723901121477982
          ],
          [
            0.07382206642617611,
            -0.021587338579419545,
            -0.035346709087489506,
            0.10024827168435406,
            -0.06440622040159821,
            -0.0606997146628143,
            -0.013116666562611545,
            -0.10390243331877333,
            -0.04146144502713562,
            -0.061145158950766804,
            0.006822497170026254,
            -0.10811060611449436,
            0.13446233705266442,
            0.07417812873277098,
            0.05292882602834536,
            -0.02122634547337701,
            -0.0470900235461572,
            0.12419662227015085,
            0.11711709785383881,
            0.05960599073954373,
            -0.05565521886122503,
            0.025242154362094142,
            0.04910448348098334,
            0.040282204547599954,
            0.02813731804015307,
            -0.030497303899631095,
            -0.07159878325349593,
            -0.031058397624961136,
            -0.04895240890702483,
            0.12221515580962683,
            -0.06087315192814824,
            -0.03401271740033802,
            -0.020215592789187782,
            0.04625515372060943,
            0.0011013666749106928,
            -0.028424889401937943,
            0.05314274532541592,
            -0.06173556764591748,
            0.012832399235943598,
            0.054067660175649436,
            -0.02654968221196564,
            0.09796296868289751,
            -0.0340350819773453,
            -0.03284617658930375,
            0.07000946566985669,
            0.057958597335389245,
            -0.04255387884044487,
            -0.022135080582387823,
            0.009248061938247135,
            0.024481441568584936,
            0.02636368969134048,
            -0.0463281099212917,
            -0.013799418243775258,
            0.03140887247407438,
            -0.049435619667088794,
            -0.048178448413389446,
            -0.038676381160125,
            0.0539592459968644,
            0.0438945524579471,
            -0.03173314823511439,
            0.05141185174563963,
            0.008359324045848257,
            -0.031501420205132254,
            -0.1122633135543723,
            -0.020192356054870957,
            0.028216731079810126,
            -0.06321876884376804,
            -0.00467366656532664,
            0.09630410604874617,
            -0.03828946056816743,
            -0.06598196583726557,
            0.0011698491148532525,
            0.06238959635258322,
            0.04411970880169362,
            -0.012052828686250752,
            0.04726316832763197,
            0.06957839642595791,
            0.026933719212424434,
            -0.038246553690925875,
            -0.0076626129690953865,
            -0.04626455136556113,
            -0.04589527614809289,
            0.06934527391096772,
            -0.04738997505339691,
            0.07226167596171436,
            0.06329760837898606,
            0.020974257899007698,
            0.06969345290995559,
            0.0724089964888981,
            0.062126785746719385,
            -0.04297102863105169,
            1.642125656724225e-05,
            0.009069178901537939,
            -0.01854390123851426,
            -0.0012155443581031561,
            -0.04529934025911761,
            0.000940920936900902,
            0.024034493397217208,
            -0.003452191199321347,
            0.0743506869514531,
            -0.05562710535093318,
            -0.0007773849596889176,
            -0.028774373077372913,
            -0.0036880206118406617,
            -0.0562415637436695,
            0.0657756772185757,
            -0.07503954663481306,
            0.003966448904577188,
            -0.037709124317408776,
            0.026153910654088605,
            -0.02996329312604587,
            0.010663519367118082,
            -0.020114600006806975,
            0.05138752781305937,
            -0.051463240244882566,
            -0.0037478017739236563,
            0.012650762607407898,
            0.07211621109458753,
            -0.013085045856981907,
            0.06429587605672611,
            -0.027808522762125525,
            -0.005067857929371561,
            0.03116378194874811,
            0.051708283072135056,
            0.019258509877837532,
            -0.06692941775375773,
            0.004018536469321335,
            -0.06335929199730309,
            0.030664074147701545,
            -0.0218132090043801,
            0.016227754038960332,
            0.06633701176412736,
            0.01806404544452893,
            -0.07055602144189067,
            -0.07311675957076452,
            -0.009488061224022085,
            0.03586684741334854,
            -0.018997584251014075,
            0.021642835449830297,
            0.021744809833296352,
            -0.058195430353080224,
            -0.049583979459734855,
            -0.06064724599590876,
            0.06603254420417616,
            0.029513302797728957,
            -0.05403746491101949,
            0.013225260337999853,
            -0.043657067678306384,
            0.05949510924224839,
            -0.06918029663709911,
            -0.026901046671794236,
            -0.07094856847981074,
            0.0731888418545344,
            -0.05090127609927021,
            0.017110062567079865,
            0.009866989157872263,
            -0.07245152750751813,
            -0.010561553716266756,
            0.019659820165026154,
            0.05881590010698441,
            -0.060867454713054533,
            0.05041035373908624,
            -0.021668832496314808,
            0.04639194957792646,
            0.061399689713037206,
            0.019548428965841788,
            0.07473905770755714,
            0.04067529051311569,
            -0.016911265621445397,
            -0.048658570815203264,
            0.07326776761055505,
            0.006710716129541147,
            0.10060133323634594,
            0.0009465254651847277,
            -0.08635502077618801
          ],
          [
            0.039034410849641064,
            0.01328260493911119,
            0.04635042487378161,
            0.13267631317373585,
            0.06517608633649649,
            0.005175895465295338,
            0.01533772572989858,
            0.07924557850312444,
            0.04292352920005425,
            0.07471683475138428,
            0.07546623155633682,
            -0.022634953574691048,
            0.01810220391064359,
            -0.10025946759350604,
            -0.009235963794870008,
            -0.1080082413034073,
            0.05290227470325088,
            -0.08312863853189836,
            -0.004666733188924077,
            0.07846114090847536,
            -0.1635228088093772,
            0.15635723198529217,
            -0.06776469320143655,
            0.006162169975141005,
            -0.035855385707923626,
            -0.0322257353247015,
            0.028551375675905395,
            -0.05452583703474891,
            0.019167874755490612,
            -0.029164979972009234,
            -0.07295417923605871,
            0.006310295967021876,
            0.08308528466122808,
            0.013753493778905737,
            -0.1051594893204285,
            0.0030305652774625103,
            -0.06534656549543473,
            0.027585887720304212,
            -0.060279820145965717,
            -0.09045779844123124,
            -0.04895391507010871,
            0.05346843122825681,
            0.055331554954301906,
            0.07541731115626683,
            0.03403170663857667,
            0.0009607533957809026,
            0.0382011017298025,
            -0.04006455235335659,
            -0.03669471438643912,
            0.0009560678708609993,
            -0.02433962710228632,
            0.03630055436105235,
            0.011074037516160512,
            0.06737664048124355,
            0.003124933599428642,
            -0.02582572696142358,
            -0.044821722492825095,
            0.03159950939512769,
            0.023149053452741847,
            0.05366200258918126,
            0.02807111757280699,
            0.020267203404726986,
            -0.040095568721899656,
            0.12358061177156474,
            0.07276782199969224,
            -0.011372218896641917,
            0.05496602292592852,
            -0.04267676583568357,
            0.08204137404077713,
            -0.004092734897996497,
            0.012113721608572436,
            0.009319423519489889,
            0.028664267462298207,
            -0.024528375785819234,
            -0.005216709010918613,
            -0.020432283957364544,
            0.011639616872112929,
            0.06116011185970359,
            0.0005804124426336404,
            -0.06372786709861847,
            -0.03417572667980948,
            0.011754285439050313,
            0.0734328954038886,
            0.06224326922071895,
            -0.06852244312972916,
            -0.04909714933326419,
            0.0682069261340039,
            -0.014527429037320468,
            -0.05864677950807075,
            -0.0019278007704579964,
            -0.011971782998631636,
            -0.042744011198267005,
            0.012883677957071668,
            -0.06272433354353148,
            0.00153956816002251,
            -0.03062938995545645,
            -0.007908213101875367,
            0.0197357630944274,
            0.04996329832418893,
            -0.016185854185842577,
            0.05792988044909163,
            0.017184775078622885,
            0.00880473920062691,
            0.050277995037538506,
            0.023369204286404974,
            0.059864171229867716,
            -0.018502100979037664,
            0.0709890551469986,
            0.010295060571311715,
            -0.05869021414942491,
            -0.013554433218923183,
            -0.06759388850373028,
            0.06056884209703346,
            -0.056863792323783476,
            0.042846786324364686,
            -0.04247997557081507,
            -0.027963991478421095,
            -0.013940780101647433,
            -0.05578897852401752,
            -0.0412341768456539,
            -0.06979500960138284,
            -0.018353082905277457,
            0.036321249164255165,
            0.02829948431590737,
            0.05492096430578776,
            -0.04385870934150637,
            0.071047792000877,
            0.047800321213718605,
            -0.011633787627966477,
            0.057149113936319065,
            0.03042516329808055,
            -0.01922674075808918,
            -0.07412009292852682,
            -0.06593104408780896,
            0.00800867277887829,
            -0.03813324279660301,
            0.027992042085682567,
            0.01924656766777355,
            0.005824112085206237,
            -0.05381145745967984,
            0.06044776044172444,
            -0.03561692507002819,
            -0.04820017890030027,
            -0.026726485655092676,
            0.0019524366911885943,
            -0.004949110873144258,
            0.031271910671306996,
            -0.04912647434999336,
            -0.05747037404141367,
            -0.0065708617861422874,
            0.006070846833864663,
            -0.03899609864488213,
            0.07385053595807621,
            0.01044395691804377,
            -0.01574148923655172,
            -0.06172390593334251,
            -0.07166494743551645,
            0.05400333206823561,
            0.016714079997112663,
            0.06997569001812608,
            -0.01633876658734687,
            -0.02774718738887067,
            0.026178739521702812,
            0.00026621362932112425,
            -0.024090054263787276,
            -0.015601715009316494,
            -0.0026876752053140995,
            0.038852563873146576,
            -0.04318006385322574,
            -0.019238530591722106,
            0.07291207488560707,
            -0.04878402114436223,
            0.10433835884910361,
            0.0031183243082389678,
            -0.010719682014373405
          ],
          [
            0.00033761574915257937,
            0.006026184012993788,
            0.006589396622856469,
            -0.15633974019752941,
            -0.04352490254133354,
            0.009367078964756765,
            -0.05064880743203173,
            -0.09890387685760696,
            0.07875997605747342,
            -0.04504411447353981,
            -0.02017897357666088,
            0.1427517705011436,
            0.04054033657582222,
            0.016219734785610194,
            0.08428812660511648,
            0.05505485320084356,
            0.030116784096213545,
            -0.027170367439400583,
            -0.10503629790271599,
            -0.20766927606358818,
            0.11548014968758247,
            0.009865866388195962,
            0.053912295491021875,
            -0.04135632069134871,
            0.04476729226377181,
            0.06359659366295875,
            0.09911632893682606,
            0.02512252335530138,
            -0.040417799516683235,
            -0.07727123200175273,
            0.047134888470286435,
            -0.08335736026332784,
            -0.03851910643379516,
            0.008512738856887428,
            0.14654258542669818,
            0.05805923248777774,
            -0.02860156693962363,
            -0.014668763112008498,
            0.09527564998670882,
            -0.018378747259106886,
            -0.009231534384600818,
            0.10475922797753612,
            -0.005929256460104837,
            -0.01978407338257577,
            0.0888100728741212,
            -0.13344947772609445,
            0.006569544562019858,
            -0.01051457362928744,
            -0.05271157284961542,
            0.02349411739600836,
            -0.05405642421510304,
            0.004197617612032287,
            0.020714658733963137,
            -0.009314202132685453,
            0.02682005347108786,
            -0.026207046380300074,
            0.03984038070536999,
            0.01221210532605796,
            -0.030324545307190476,
            0.011172330738218064,
            -0.019264719023144333,
            0.0597770849273742,
            0.037145680034364734,
            0.14703802621473447,
            -0.03757982162585151,
            -0.013519696436714787,
            0.03199191183541471,
            -0.018674137260333505,
            -0.016958988365992266,
            -0.05785941384554693,
            -0.01813629678012521,
            -0.07041233637758293,
            0.05816129904745178,
            0.07330007822404012,
            0.05565825880037274,
            0.0672977196569567,
            0.011527398835880553,
            -0.049685513232812194,
            0.058443001133758984,
            0.05666774143222529,
            0.013513251641856586,
            -0.018652189461465928,
            -0.031700870849657566,
            0.001964465346352473,
            0.07280415341896938,
            -0.06766678225945744,
            0.03159993434672752,
            -0.012151727688961222,
            -0.01939386595589341,
            0.05371515295908304,
            -0.01014526911724703,
            -0.0512877059038876,
            -0.06618722796897084,
            -0.06579220546833646,
            0.09129045308554908,
            0.05674003650916394,
            -0.04399215386631273,
            -0.0317828836360654,
            -0.0001078202978910774,
            -0.07200249274918706,
            0.011292964124374569,
            0.042214414798930136,
            -0.013996924843616032,
            0.05373378011243639,
            0.00934873270236232,
            0.04618208548405772,
            -0.005946734052268754,
            -0.049145474992785015,
            -0.023242454095871577,
            0.033203540308895066,
            0.00958504943369971,
            0.0613055846351865,
            -0.055461915672404875,
            0.07188515595179003,
            0.003379009633852764,
            0.05848295593491111,
            0.05784695056827567,
            0.012922664770720113,
            0.05851990386631117,
            0.05613926419097505,
            -0.004116727353392177,
            -0.0066578686758988065,
            0.05338686065821931,
            -0.06407107747656936,
            -0.04288737172770716,
            0.0407477562852467,
            -0.07002544197290189,
            0.02617117647310284,
            -0.03484349100543723,
            0.0007013081368427709,
            -0.0634269365371534,
            -0.04470069215676735,
            0.018945270082284277,
            0.05217362406093655,
            0.020117861664551248,
            0.04667751621065838,
            0.06302035796850226,
            -0.06661794713817898,
            0.042234495611920705,
            -0.01163447454671171,
            0.06967548626586965,
            -0.07434273181018641,
            0.01042923042013684,
            0.055480531617747506,
            0.0331997216699685,
            0.041693846017107516,
            0.02624562040961452,
            -0.03934151095797041,
            -0.04858494322819003,
            0.06970470232638122,
            -0.046490751054625766,
            -0.06261298551233599,
            -0.0079419854122285,
            -0.057722405366082745,
            -0.05088439270849021,
            -0.00884393712755345,
            0.05132519011292215,
            0.038403195816347005,
            -0.03360658231171778,
            -0.00947132699487642,
            -0.014261069883262943,
            0.018800579384483,
            0.01890834801425291,
            0.0650800832562191,
            0.0508729567281455,
            0.004138138612088657,
            -0.007435598414076039,
            0.02279709711898964,
            0.06565568901166162,
            -0.07189259678445178,
            0.04270255093564394,
            0.02263280234948338,
            -0.004420411471101237,
            -0.06778966442965638,
            0.09110952014739339
          ],
          [
            -0.08053860536656264,
            -0.04169843699348164,
            0.09990452412363347,
            -0.1624898579409101,
            -0.23203758320364287,
            0.1966842136452364,
            0.048740846906622545,
            -0.03165031624630918,
            -0.0015561225052949114,
            0.0747245672725166,
            -0.006678197796610483,
            -0.05338528192112282,
            0.013822164225159628,
            0.058310254633978625,
            -0.03975172845558791,
            0.07129805376117894,
            0.013840424523285006,
            -0.03889531446507261,
            0.18526087055388168,
            -0.01424832197489358,
            -0.11915934697512406,
            0.020619999590393012,
            0.007194541899027476,
            0.03611687685099546,
            0.006228974070328519,
            0.07202514847114172,
            -0.01190232564281556,
            -0.08447201059209741,
            -0.05761448985546942,
            -0.03059726036362519,
            -0.10803599397008237,
            0.09232866350313372,
            0.11328289701055527,
            0.06327840921318652,
            -0.08657792602726597,
            0.02562899929881228,
            0.058670714766674445,
            -0.1060246311189853,
            -0.014271458866981317,
            -0.012651458304667337,
            -0.04128181961585453,
            0.017998833353886974,
            -0.009732345357890665,
            -0.0271185115045574,
            0.0783938956734648,
            -0.011297582473438424,
            -0.06266195434792934,
            0.09062579051539223,
            -0.056561173936350115,
            0.017030826234341462,
            0.003811615015180847,
            0.029942557088294616,
            -0.05277047958852362,
            0.042572404539716294,
            0.0312178698013231,
            0.032429499225086894,
            -0.01758676867049483,
            -0.03151057605382079,
            -0.01736829608336586,
            0.06000923672646029,
            0.039684525971636714,
            -0.05179639468295929,
            -0.024882555661819687,
            0.06232182730394127,
            0.040959516463725726,
            0.020884696388619006,
            0.06001145421390332,
            -0.026650392427111147,
            -0.06348017499068125,
            0.024379563939994145,
            -0.05221487247822189,
            0.05881501547790381,
            0.044420598839026645,
            0.017107984533808338,
            0.03502523214370963,
            0.018599233710116375,
            -0.020349362108377546,
            -0.0681480305886821,
            -0.07319489811982573,
            0.06221659050888188,
            -0.03781039768442714,
            -0.021803316537752054,
            -0.04961013031934213,
            0.00021153191273426408,
            0.04966721112703769,
            -0.03292739643557972,
            0.02124383156189741,
            0.057400816973649946,
            -0.008913555758416403,
            0.002796673421968418,
            -0.02770970827623133,
            -0.04125814392839056,
            0.05694292371649186,
            -0.018815624348546583,
            0.05248309374883236,
            0.05193192477192525,
            -0.007491446843943081,
            0.03004731494870304,
            0.03638450137030575,
            -0.004358517125824565,
            -0.04669726399638763,
            0.02956610132982236,
            -0.02770435083779086,
            -0.04227473346057151,
            0.031919404538307994,
            -0.03227424133627247,
            0.0576596554959254,
            -0.0022105879847719072,
            0.01439865392164022,
            -0.02421800669129135,
            -0.015336021941120052,
            0.017208404509437725,
            -0.04240255752817972,
            0.06020834635405707,
            -0.014681533404739579,
            0.004597887841766929,
            0.025406901356848824,
            0.00917254932160845,
            -0.05083026745226818,
            -0.03735011966510576,
            0.02300314416514833,
            6.015230306082031e-05,
            -0.014072180843568677,
            0.05138018495864581,
            -0.0027870228124243085,
            -0.018612235654419468,
            -0.07070728027349794,
            0.028299180233638935,
            -0.015055221993723777,
            -0.061378969642421885,
            0.05684313603969181,
            0.026126902919977435,
            -0.06567752591257456,
            0.07006798469857269,
            0.001046082273940846,
            0.008583283275824583,
            -0.05802333302022871,
            -0.025568370229009207,
            0.005318832283882136,
            0.003156824606770567,
            -0.015373977693642335,
            0.03243243030879203,
            -0.044727525343023135,
            0.07383774004360912,
            0.06456503585225375,
            -0.006549165551921379,
            0.0032557744802773347,
            0.074764133425151,
            -0.04802517525016185,
            0.0583501602056921,
            -0.06301457512048524,
            0.008780477464795669,
            0.002985516973682545,
            0.04872937675368691,
            -0.06383689272468633,
            0.06441383855987652,
            0.03563879118528354,
            0.05177828513525494,
            0.06846523947009721,
            0.06460221132905293,
            -0.05465887203016354,
            0.038561234922725576,
            0.03928227796962214,
            0.015383045191265168,
            0.06255551859939383,
            0.046660411728079845,
            -0.007523543631525922,
            -0.0638557187926022,
            -0.002694989276422935,
            0.05773495081180437,
            -0.06208487172278178,
            -0.05062383946242628,
            -0.09449154679333924,
            0.02863165154866354,
            -0.08983145714448891
          ],
          [
            -0.04173854139518715,
            -0.02241286187395168,
            0.03753533094708247,
            -0.08603447222406067,
            -0.02721035463942498,
            -0.016296312447647295,
            -0.07941276498083835,
            0.033164642857079596,
            -0.005035413460017852,
            -0.06287572955368534,
            -0.06371541816879588,
            0.048861325310524985,
            -0.017330846900483348,
            0.05535439167339474,
            -0.02951534366294559,
            -0.018675309669655908,
            -0.03385106922923647,
            -0.09573674247330737,
            0.050646021753932464,
            -0.06908181166587618,
            -0.016776832010661023,
            -0.05077512155102853,
            0.02558092977111706,
            0.04101690081096042,
            0.04215445891474855,
            0.04489637602893874,
            0.06612293985937553,
            0.07560000289042314,
            0.027111895247426823,
            -0.05833883448818767,
            -0.03914290622400599,
            -0.03149249494611956,
            -0.017139790784830806,
            0.06996337960475434,
            -0.05619827971830339,
            -0.0698237551672446,
            0.04038979229336839,
            0.03184187842507329,
            0.03164502873433917,
            -0.08685149765190041,
            0.010533975771058184,
            0.04846502152792464,
            0.0522774977855454,
            -0.061159726364177866,
            0.07519426848831261,
            -0.09713877356927937,
            -0.028672835493885517,
            -0.03538919022143651,
            0.003616361347865707,
            0.014788313090859442,
            0.05395208879993631,
            -0.023900475956545285,
            0.0419702036236024,
            0.02756847980707197,
            -0.01871437824542998,
            -0.0287052831045526,
            0.014220304958388094,
            0.011280407990945568,
            -0.02685546224519248,
            0.07523589995853326,
            -0.018931062158326684,
            -0.05381386567778387,
            -0.04457171471400172,
            0.01778053397737993,
            0.026559953973698952,
            -0.02644459968222438,
            0.0064816370267983675,
            -0.009146691562972625,
            -0.06434304660688522,
            0.021071144400457056,
            -0.0009397131378013762,
            0.0719891570553265,
            0.0714750056108472,
            -0.05479695908100667,
            -0.07382458943384866,
            0.06039620322836246,
            0.015557787866771228,
            0.06208529638709105,
            0.007868952773791724,
            0.015695609218620205,
            -0.02757049308400937,
            0.03153708916760384,
            -0.04657867878130341,
            0.0442350687806503,
            0.031707392093717535,
            0.06088062654785299,
            0.04754632621502472,
            -0.06092211122117974,
            -0.0008463554410679253,
            -0.03465459694159529,
            0.061955519014911045,
            0.03799419702737329,
            -0.06864936349643676,
            0.04166053490834498,
            -0.07407864739612247,
            -0.00831155597304227,
            0.05907952432042331,
            0.040920943877440705,
            -0.0061470211614169145,
            0.06934917261900468,
            -0.030558713468355723,
            0.011811203699035086,
            -0.0170515984703027,
            0.026540435604176987,
            0.04979635943705664,
            0.03302862377628203,
            0.06970871234534294,
            0.08543755807358673,
            -0.04245726366138474,
            0.028126883611639453,
            -0.06682430278609662,
            -0.01676153847888369,
            0.012198557730385612,
            0.07329026888255925,
            -0.004859428065140892,
            -0.044222592723105573,
            0.06802368152253908,
            0.022811645107907008,
            -0.0437190149408587,
            0.016102728187654125,
            0.05857782825743675,
            -0.02175898779570256,
            -0.0022043088508394704,
            0.06571671525323765,
            0.02046227690052113,
            0.0654677489474871,
            -0.0571899272083726,
            0.01732641325095538,
            -0.019137478889421182,
            -0.033648443398814475,
            -0.07228353436746211,
            -0.015794901047626618,
            0.02870538389133341,
            -0.038411034942773134,
            0.07013326870956672,
            0.06340398017150488,
            -0.04197364475741883,
            -0.07439413646884253,
            -0.02555419099762289,
            -0.06001024617670633,
            -0.0738692761043273,
            -0.04770862902923406,
            -0.00560314916978559,
            -0.04713924247696179,
            0.029564988271048864,
            -0.05959640235126164,
            0.01753634977498572,
            -0.016881167776917887,
            -0.04392634518704204,
            0.0527927313794284,
            0.02379469511997208,
            0.03715122276393555,
            -0.06881171846115368,
            -0.0065143528726855915,
            -0.06347392705918278,
            0.026543369219816954,
            -0.04818049701525883,
            0.04351800577621466,
            0.05955642242404459,
            -0.043770997017008505,
            0.05424652920378349,
            0.06844728125783732,
            0.06819691654263883,
            -0.05049760207795478,
            0.06382944940968686,
            -0.06927314025500904,
            0.05568142704751351,
            -0.03238076094147724,
            -0.008938553921329612,
            -0.03367283917284385,
            0.04033141170098506,
            -0.06741258670968292,
            0.09901997218772299,
            0.006885681627934209,
            0.038564533176644024
          ],
          [
            -0.019421195461821056,
            0.007239940355962111,
            -0.10237186876814332,
            0.09449770973242712,
            -0.09514337275040405,
            -0.08186055302816159,
            0.05779962597129268,
            0.014462361016464888,
            -0.03653435847029124,
            0.039544894627799976,
            -0.03998373155545482,
            -0.09091488077821588,
            0.07079413113006311,
            -0.08103303301881658,
            0.02812622818015062,
            0.0013850155885723734,
            0.05284885330327459,
            0.01184962761988224,
            0.03785601297588965,
            0.12043252579294778,
            -0.036383216298446014,
            0.09875372626220343,
            -0.060651743683190706,
            0.051948412429290644,
            -0.017978229839641723,
            -0.03150385251319423,
            0.060212605417134066,
            -0.08912571437908916,
            -0.0371180565831019,
            0.1019477351107729,
            0.0376667823392506,
            0.11031972240762927,
            0.02066114867933101,
            0.04871025575498385,
            0.017268320503532754,
            0.017014836291614446,
            -0.0443109395385595,
            -0.05978249914913221,
            -0.0039985354069569,
            -0.0073185404247150644,
            -0.031775978864572195,
            -0.015686374430114225,
            0.042480563800727386,
            0.06613253335095702,
            0.04251022444271643,
            0.12737661387525695,
            -0.023773040554872997,
            0.05827352570607383,
            0.021049214536647834,
            -0.025350554358766673,
            -0.003001227768151926,
            0.03374714080389421,
            -0.02865586783947803,
            0.01466401216447262,
            -0.02595552771554281,
            0.05541973054225778,
            -0.05091814924567957,
            -0.05084657290305781,
            0.06847383756648563,
            0.05799361882869612,
            -0.055725384331058475,
            0.06859943639070416,
            -0.015335788281488863,
            -0.09548912279585973,
            -0.07081319003493323,
            0.020252768987019915,
            -0.01989226089289363,
            -0.0035758452042929934,
            0.03224320775552322,
            0.0582757548441155,
            -0.03613342729570321,
            0.05802370846825779,
            0.0186729649976424,
            0.00828001247062854,
            0.07421385744040708,
            0.030284548737310332,
            0.04040625340143829,
            -0.025178767479328658,
            0.03530827058684541,
            -0.055250941129496,
            -0.07158444672413539,
            -0.0055852211247783,
            0.06198465252606457,
            0.021524417228078713,
            -0.05883359514564225,
            0.04208914400694738,
            0.04136836611988598,
            -0.02250034942287673,
            0.027274706306650798,
            -0.006885898275299132,
            -0.042277269396926,
            0.04335160630016009,
            -0.072967855229696,
            0.04316893367670176,
            -0.05558892926387756,
            0.03127187967185016,
            0.0022376068193623866,
            -0.04833383886634957,
            0.0295250651388434,
            -0.01699371945281808,
            0.028600469882607935,
            -0.07214230612641963,
            0.021724968159567426,
            -0.04796378636537783,
            -0.06428608572272783,
            -0.027515130324185767,
            -0.022413855746168984,
            0.04261228490421379,
            0.050573401721610664,
            -0.03746297488078065,
            -0.01564684177102571,
            -0.022115183815023337,
            -0.04623001936499136,
            0.07536656890104469,
            0.039711159607312474,
            0.021544963977764106,
            -0.05563464521422054,
            -0.04701643563253439,
            -0.07595306453004469,
            -0.030453660749297798,
            0.04963457849739446,
            -0.021371288357852222,
            0.05941908687002169,
            -0.025646899465154603,
            0.06367638087080295,
            0.062046571477990684,
            -0.06271103579248213,
            -0.06884690079091069,
            -0.06641514459569729,
            -0.00043425289168746994,
            0.07277715828928759,
            -0.012034325067160956,
            -0.04615844943054509,
            0.046814355241354966,
            0.00023832580260055303,
            -0.04902605472317931,
