{
  "layers": [
    {
      "type": "RNNLayer",
      "input_size": 1,
      "hidden_size": 64,
      "output_size": 64,
      "weights": {
        "W_xh": [
          [
            0.007992193874177751
          ],
          [
            -0.007157878164960443
          ],
          [
            0.0036807518999770385
          ],
          [
            -0.01139968505001625
          ],
          [
            0.005018497224811226
          ],
          [
            0.008545965188476303
          ],
          [
            -0.01197048961581068
          ],
          [
            -0.0024324978413809645
          ],
          [
            0.009093955793492512
          ],
          [
            -1.5079457736434425e-05
          ],
          [
            -0.005098409044767608
          ],
          [
            0.00042715973857048454
          ],
          [
            -0.009181695760158492
          ],
          [
            -0.0021479856485652794
          ],
          [
            0.0005475158192268879
          ],
          [
            -0.008023319746290707
          ],
          [
            0.0025744226867318106
          ],
          [
            0.007926738896482639
          ],
          [
            0.006087511550612686
          ],
          [
            0.00198140652860151
          ],
          [
            -0.006585822139413253
          ],
          [
            -0.005091308882308653
          ],
          [
            0.003277368117179583
          ],
          [
            -0.00121407499018163
          ],
          [
            -0.006741252191994175
          ],
          [
            -0.004367700509351718
          ],
          [
            0.0050218307563139036
          ],
          [
            -0.007060407372410108
          ],
          [
            0.007134653038247704
          ],
          [
            0.0006971926246745073
          ],
          [
            -0.011586653339395438
          ],
          [
            0.006447645347162235
          ],
          [
            -0.0003894483862233914
          ],
          [
            0.008917511860030033
          ],
          [
            0.0018916255939471693
          ],
          [
            0.006828075301479779
          ],
          [
            0.0023289850310460763
          ],
          [
            -0.006430107487301479
          ],
          [
            0.009900391291202112
          ],
          [
            -0.008541594530715714
          ],
          [
            -0.003055532061166247
          ],
          [
            0.009987597796998796
          ],
          [
            0.0011648161836646585
          ],
          [
            0.0005026639746793051
          ],
          [
            0.00769881637518855
          ],
          [
            -0.001389436392914585
          ],
          [
            -0.007607383742024059
          ],
          [
            0.006994646828127568
          ],
          [
            0.004790932264117426
          ],
          [
            0.003475247241781753
          ],
          [
            -0.004968371643870432
          ],
          [
            0.010047700312001686
          ],
          [
            0.009175483276409364
          ],
          [
            0.0009903192964999434
          ],
          [
            -0.00020545512314964925
          ],
          [
            0.0016564537955706569
          ],
          [
            0.007352821322821036
          ],
          [
            0.005381527617006323
          ],
          [
            0.01032896640947531
          ],
          [
            -0.00188480420742558
          ],
          [
            -0.004639863493151895
          ],
          [
            -0.01007355163033192
          ],
          [
            -0.009448002259619842
          ],
          [
            -0.005491301597828398
          ]
        ],
        "W_hh": [
          [
            0.00617017469920259,
            -0.00655147718036638,
            0.0076547045717753216,
            0.006338979270397524,
            -0.008782929877439264,
            -0.00560317779891779,
            0.003322195239719283,
            -0.006488681630429069,
            0.008007132236066824,
            -0.00965021473529547,
            0.0038309908005670404,
            0.007099206226023943,
            0.007509454668506068,
            0.005990691256329176,
            0.007832993749628548,
            0.005338581924627766,
            -0.008537815058056696,
            0.008211171132582237,
            0.008310677089822985,
            -0.009041050522164645,
            0.002634908550915216,
            0.0022857312045688875,
            -0.0023449590971824663,
            -0.0012839409610059685,
            0.005848233845739605,
            0.007021540962564473,
            0.00035256264061836516,
            0.0038579995497104794,
            0.00023972410060277941,
            -0.0015542264769613484,
            -0.00901908560690557,
            -0.0010854661322192843,
            0.009816146590315173,
            -0.005944412565943811,
            0.008940033189373302,
            -0.004487939396858011,
            0.0008034642979678626,
            -0.006925914458759649,
            0.004183701328643578,
            0.002722011075515367,
            -0.0027065524573457803,
            -0.004081678595517219,
            0.0028092212503986382,
            -0.0022266011086636067,
            0.0035357135052624827,
            -0.0007239008310755666,
            -0.006987104738570763,
            -0.00041356874266090533,
            -0.007816286504742533,
            0.007568160619798852,
            0.0068193861157722704,
            0.0066967994141672324,
            0.006266060035104347,
            0.004141529042349273,
            0.004090377345155479,
            -0.0004928520682454979,
            -0.002792534860230753,
            -0.006258807019202336,
            0.003962779800288579,
            -0.006196840764590143,
            -0.002956002298490664,
            -0.0038410363142000795,
            0.0023144904288074125,
            -0.0010973643386537502
          ],
          [
            0.005356934594326127,
            -0.0002584221498564252,
            0.0008866072484014036,
            -0.008334492059237917,
            -0.0059961187886511,
            0.004041834216886612,
            0.0025199322022212136,
            -0.009420426731283212,
            -0.005409042967694443,
            0.0034336071390248237,
            0.008391268941306923,
            -0.009798717866211492,
            -0.00025426147921170063,
            0.007095797021144746,
            0.005845582104117723,
            -0.00397007290756459,
            -0.0024240202993670162,
            0.005171784279839453,
            -0.008008190137773964,
            0.0060863300114743415,
            -0.004869075041245733,
            -0.0025580815180730352,
            0.005764239360881044,
            -0.00033746967624373816,
            0.009028946688582602,
            0.0028525930153810394,
            0.0018799298792169985,
            0.003248652857730712,
            -0.00862894608319081,
            0.0035990917682559107,
            -0.008113287647472031,
            -0.008082601176093468,
            -0.008897805437089287,
            -0.001462891125483922,
            -0.00382164257092665,
            -0.002081030905590996,
            -0.006555914907389301,
            0.001677191643169301,
            -0.006920642405556194,
            8.061142591364963e-08,
            0.0016378422330596597,
            -0.007293834139839256,
            -0.002693844434464643,
            0.006523791094965381,
            0.006864431877532915,
            0.009816457603199687,
            0.0006273636751819244,
            -0.0021000685983215625,
            -0.007484850036478107,
            0.0055181731408715734,
            -0.002896550706625855,
            0.009809804995330098,
            0.003507047989873502,
            0.008581618170463271,
            0.006788777210148969,
            0.0033762417680548496,
            0.0008519867166533572,
            -0.001816722009649235,
            -0.006302194168545072,
            -0.004904351844810989,
            -0.00544996135248501,
            -0.004396333127205981,
            -0.007068124744191453,
            0.008685204718213504
          ],
          [
            -0.007122735254073412,
            -0.0034383128657825336,
            -0.004403761344887948,
            0.00892710631717832,
            0.00020604392846914908,
            -0.0034808469054424473,
            0.003953117071571469,
            -0.0018568851715116891,
            -0.0041450562245074676,
            0.0034238642853746185,
            0.0049455804313591895,
            0.002406704288859069,
            0.005630200151025041,
            -0.003059685232629239,
            7.213667689741372e-05,
            -0.008964293831359235,
            -0.003845018630353647,
            0.008797197454042028,
            -0.0014821344570354702,
            0.004937208843712676,
            -0.006134548416542286,
            0.001208263682179569,
            -0.00591370116792439,
            -0.009165403878114759,
            0.002471034247122941,
            0.005153971033177515,
            -0.0016437174209601444,
            0.00162413593469243,
            -0.005352396567370439,
            0.0018919899741580398,
            -0.001640363021659907,
            -0.009215943128682284,
            0.005837283338581747,
            0.0037100147236489673,
            0.0007296664157094521,
            -0.009560835505215476,
            -0.00892127479516819,
            0.008986407619845373,
            0.0051449697431358585,
            -0.004514255320316602,
            -0.00245486488928172,
            -0.0011892325928575494,
            0.0018835314537752445,
            -0.0022988583584330376,
            -0.00876115049109387,
            -0.0036557407555436864,
            0.006730281793022016,
            0.0006675881227938298,
            0.002938279544712059,
            0.005193687333144655,
            0.0037684113252814044,
            -0.001519648379338051,
            0.00905598012390664,
            0.002764919676938306,
            -0.0041327942201966235,
            0.009943493200095885,
            0.008086150471943483,
            0.00011656284206960712,
            -0.00031745021496299065,
            -0.002639557862208416,
            0.009398660275454154,
            -0.005213948366770636,
            0.006050854310424884,
            0.00774941608206539
          ],
          [
            0.006323291066139141,
            0.002344766686722192,
            0.006326035174804518,
            -0.006683025742274168,
            -0.0049243234518833,
            0.0033903674526147244,
            0.002767027758832456,
            -0.00954464040325262,
            -0.006066509320998933,
            -0.008387475579037646,
            -0.0062870081348156935,
            0.0032576674705224406,
            0.0026484928060122983,
            0.005911733098560243,
            0.009483712282460807,
            -0.0036498114380653485,
            -0.0008091018610768978,
            0.005134790921923863,
            -0.0008387600945831573,
            0.009151755350857898,
            0.0015539239076250108,
            -0.007508448327434251,
            0.0008175846331733811,
            -0.005590781784871028,
            -0.003848480479592264,
            0.0017503545086944516,
            0.0032052374108688425,
            0.006811985637000409,
            -0.009737272397843671,
            0.004220290591144949,
            -0.0029478640737156834,
            -0.00470463735134114,
            0.009893148095897164,
            0.0038665015458068633,
            0.0033934074361933694,
            0.007209886750095916,
            0.00805995910299006,
            0.005582219149815075,
            -0.0003704911624906841,
            0.0011456803515084075,
            0.0067803181769676485,
            -0.004981761114232287,
            -0.0070459565553986905,
            0.004906325441801943,
            -0.0017999144727865416,
            -0.008496284981979753,
            -0.0052608740880741335,
            0.0015443290801657437,
            -0.0044023021238809865,
            -0.005915579000571611,
            -0.0006725618920841495,
            0.0037109972054680473,
            0.006301649079437782,
            0.009868942216764631,
            -0.00198256918968684,
            0.007329822603073456,
            -0.006753653134405747,
            -0.007079754290227266,
            -0.006137551647332181,
            -0.006719268365298864,
            0.00472849143690709,
            -0.007480832206860482,
            -0.009740689619371683,
            -0.003012762331599683
          ],
          [
            0.00019573921977680066,
            0.003439475375921416,
            -0.006420900144268156,
            0.000619139106526781,
            0.0064946148622547625,
            -0.0013789906978598349,
            -0.0028158352589642928,
            0.0061986469935036105,
            -0.0013098093846849869,
            0.0039935785279755845,
            -0.008070604923285393,
            0.004262694509296843,
            0.0010512716402498435,
            0.00393767499891394,
            -0.007930131791438276,
            0.000419406645771444,
            -0.0020893106399835705,
            -0.004621110293664229,
            -0.004600195965216408,
            0.008168235209897148,
            -0.00030361658757026473,
            0.004430117439121054,
            -0.007220392470044648,
            -0.009678154863493665,
            0.008630171083294473,
            -0.003947352025367348,
            0.006241367522520803,
            0.001091154035337517,
            0.006931204621610396,
            0.0038199134911807027,
            0.008187805811102922,
            0.0014624402116472052,
            -0.0012573984209529364,
            0.0070231438165576626,
            0.0033800657265971716,
            -0.00777595541398111,
            -0.004373934371762347,
            -0.006895336863674824,
            -0.0030924834949064136,
            -0.00043014743746038896,
            0.0037064903278177562,
            0.0041579986261206965,
            -0.008878141676841818,
            -0.006679654809835573,
            -0.0073467352445389005,
            -0.00037035683957250805,
            0.0017424027732951149,
            -0.004482667232452215,
            -0.002058321128758576,
            0.005296554214991186,
            0.006574713781033931,
            0.0004432256246251741,
            -0.007315794055289836,
            0.0017237310106870446,
            0.0015010847563659366,
            0.008587488587907779,
            0.0030003417792138095,
            -0.004292554667669124,
            -0.001480650356014182,
            0.003010867431986712,
            -0.007987334047897858,
            0.009103500447148258,
            -0.006281155839485725,
            -0.0009850925539087833
          ],
          [
            -0.00863166479709087,
            -0.003506960614535424,
            0.001281572718240877,
            -0.002869017262155518,
            0.005590035482407941,
            -0.008431702231845825,
            0.0006553477208705626,
            -0.009082522841919313,
            -0.00538239043605418,
            -0.004607606327744962,
            -0.0010265792057560454,
            0.005828449202663416,
            -0.0076361739804984225,
            0.0006131998042889717,
            -0.002042829227577147,
            0.00845253146919424,
            0.004987648167248743,
            0.0034386053494892643,
            -0.002331414187131815,
            0.002865340831122778,
            -0.008555129254765193,
            -0.007527600726636091,
            0.0042530752968643285,
            0.005548964506337647,
            -0.0020516446324823725,
            0.0024012402368674963,
            -0.0082309303366381,
            0.005050053397420741,
            0.004901599207893606,
            0.0035054492868078287,
            -0.00624709457295941,
            0.00622402182966164,
            -0.006980711657434321,
            -0.0012729930838482355,
            0.005021830425640051,
            0.009561341629771403,
            0.008982349957754033,
            0.006275332057916079,
            -0.003925317411644487,
            0.009478047946129102,
            -0.009000425471106549,
            0.0030322263694911905,
            -0.004262371903363968,
            0.005502202754229543,
            0.00016371496691523852,
            -0.00636657440924571,
            -0.0019210338979908348,
            -0.0032276512220393862,
            0.0018198913390746192,
            0.0037633186395514932,
            -0.0034192931186550076,
            -0.009458642343834301,
            -0.00994255886693435,
            -0.00702331807517305,
            0.00477483669784783,
            0.005398221761088907,
            -0.003041778097706995,
            0.0031992522953506043,
            0.008807186816257313,
            -0.008862118574723937,
            -0.005138021114634653,
            -0.0035200549915247095,
            0.004411409908412907,
            -0.00731962537784113
          ],
          [
            0.005082806779018717,
            0.0011359739825118557,
            -0.006309767944267087,
            -0.005397696311058884,
            -0.006413442338134626,
            0.007893892114964416,
            0.0018352228757153469,
            0.00514469539938579,
            -0.004308436671925174,
            0.004296530618995023,
            -0.008863271198417268,
            -0.005410720948476638,
            -0.004642800836377087,
            0.008044926947029605,
            -0.005878114601013565,
            -0.006017320890438239,
            0.006610579166920657,
            -0.0053296968080235405,
            -0.00729495578383779,
            0.0073086628868517245,
            0.00254562257339461,
            -0.0003980184115616124,
            0.009387556677820992,
            0.005099584733421254,
            0.00360086500999098,
            -0.007631773408079286,
            0.009689710705836177,
            -0.00037570215353464626,
            -0.009341604583882416,
            -0.0046494150272846655,
            0.004689284938060006,
            0.0061407767542477135,
            -0.0023109507650157105,
            -0.003353609579456213,
            0.0008664405611068843,
            0.00668284807632696,
            -0.003924912921493659,
            -0.006174381606437811,
            0.003950142692387567,
            0.0017151046853665609,
            0.0014993404288444587,
            0.006832235748415822,
            -0.006793478883487159,
            0.003838997169027976,
            0.0012607753510488233,
            -0.009953002029614284,
            0.0017069283676658356,
            -0.00029379400081556094,
            -0.006799888539266488,
            0.002125107081355711,
            -0.0036773505487399274,
            -0.0056535535469162046,
            -0.0041841648264820215,
            0.0042079281705927375,
            0.008421683077997769,
            -0.002912301281398031,
            -0.009600313018935965,
            0.0026926799064960045,
            0.00043019033100236126,
            0.006931082202219393,
            0.0058031999027192025,
            0.0013628162985851423,
            -0.004857999710509785,
            -0.0002628203865096173
          ],
          [
            0.004128273814031725,
            -0.0008531941769136613,
            -0.0031675442543635944,
            0.0029099859327069467,
            0.006919703988549929,
            -0.003065813289147004,
            0.002942303886506556,
            0.0046841234092468076,
            -0.006396675492740489,
            0.0015215096728900567,
            0.0010731986695111143,
            0.009719415178347833,
            -0.001499557719185985,
            -0.003699763045147061,
            0.007524786122224472,
            0.0026137972064941913,
            -0.0041593995088359155,
            -0.006380209996267452,
            0.0008497675505982356,
            -0.00785189117063157,
            -0.007498069372758166,
            -0.006756807295260877,
            -0.004194870234981772,
            -0.0026408946105402854,
            0.0014375949405166732,
            -0.009969084570929144,
            0.008998481680982594,
            0.0035325516078810754,
            -0.004295851488707772,
            -0.00940172821407141,
            0.008531669240396214,
            -0.008870166763141658,
            -0.009797557445898738,
            -0.00020041690891387263,
            0.00301108914856111,
            0.007545090320630678,
            -0.0013621284525185701,
            -0.00876646256609055,
            -0.0030211412003214658,
            0.009030417483770556,
            0.0016517310894253472,
            0.005928099460786538,
            -0.0031034363392179417,
            0.005519312277669318,
            -0.004421022845070947,
            0.009769418045512525,
            0.0023356624470659087,
            0.0048902770523720175,
            0.009525828421725158,
            0.008146128155629477,
            0.0020584233626336746,
            0.005020630579580867,
            0.004536132511647667,
            -0.00200479633565351,
            -0.009254570167816402,
            0.008144267319485157,
            -0.006123846713650565,
            -0.0018748011134303172,
            -0.003358570597237292,
            -0.003485366689153743,
            0.004123348287119193,
            -0.007072648160671319,
            0.0007542672366976277,
            0.007943525380664368
          ],
          [
            0.0019793694833502595,
            -0.006373059376880231,
            0.0006751642633109052,
            0.001536312315749834,
            -0.00383488983428626,
            0.009553512003374237,
            0.0004273435524800337,
            0.0023369218018007864,
            0.005418560579913228,
            -0.00394150064940842,
            0.0031833773266579544,
            0.00992691147137455,
            0.009445852725974972,
            0.005385935810689355,
            -0.009392538878694333,
            0.00022725480959693913,
            0.006322765274180795,
            0.006176665181713215,
            0.006464017955559707,
            -0.00494536975926427,
            -0.0025807074752178653,
            -0.0035093949240956887,
            0.005738253076794685,
            0.006415102658322353,
            0.00936674741715081,
            -0.004416091998039911,
            -0.003597386660896611,
            0.0012865040971962649,
            -0.0056296973560875435,
            0.002965747633404895,
            -0.008447475950239815,
            -0.00501687234676831,
            -0.009595323036200894,
            -0.0029477524024918386,
            -0.005987285757827125,
            0.0013146378819579494,
            0.0002689048352295654,
            -0.0019544160136689592,
            0.003800309300568483,
            -0.006968415738475854,
            0.007798893517808068,
            0.0017620150157279912,
            -0.007870914378432544,
            -0.006820935970329796,
            -0.00023985878882194588,
            -0.00595686013702992,
            0.005591347532059076,
            -0.0036511427744632826,
            0.004895547359357067,
            0.0027592350401081343,
            0.005321477647504254,
            0.004011207587052387,
            -0.0013320636355314568,
            0.0005380910731537803,
            0.0005749206132253782,
            0.003211370986764637,
            0.00918075764594005,
            0.00429023736628277,
            -0.0031794140389841707,
            -0.002856789873557011,
            0.006987638638936429,
            -0.006228265920413706,
            0.0063201533451224074,
            0.007856760471537143
          ],
          [
            -0.004135610246425252,
            0.003153984675812082,
            -0.004552821027078997,
            -0.0005725774306514399,
            0.00792415838052022,
            0.009900215381431902,
            -0.0036957911404120352,
            -0.0043051857454959085,
            -0.009914508774646627,
            0.0027052186679013285,
            0.002431434129386246,
            -0.003920216633767381,
            0.0008333544374646257,
            -0.0004130792479293242,
            -0.0028602757810306167,
            0.0025282930758695633,
            -0.0033537818316382996,
            -0.009715760202559726,
            0.0035974966776056746,
            -0.006263869726813581,
            0.008296521809749265,
            0.002432045673544844,
            -0.007611518273948747,
            0.007248433857317315,
            0.003327186400880925,
            0.009829075971132188,
            0.009024821917891241,
            0.0072106909963393405,
            0.0002363848323982398,
            -0.0009621112907760443,
            0.0050065875689931155,
            0.0021702634823305583,
            -0.005534738531736892,
            0.003476514935434776,
            0.007780843491138077,
            -0.0034550102126713425,
            0.006003461337001743,
            -0.001308064417782128,
            -0.007756988863526394,
            0.005668354171879941,
            0.00906280268310822,
            0.009983947089629713,
            0.004774647532658841,
            0.0058270840081842456,
            0.0066781656553404406,
            0.00812760751948513,
            0.0020493339358413024,
            0.001891085360176698,
            0.003550008617414186,
            0.00274138677060502,
            0.009835768404244312,
            -0.008729666893339679,
            -0.008542145440044327,
            0.0030560251350232703,
            0.0031438970601723936,
            0.00018653214074366227,
            0.009855508484499158,
            -0.0006441648703257232,
            0.0003737898990247304,
            0.005371507791898861,
            -0.004349694700515948,
            0.005770484955133647,
            0.0003300406946601834,
            -0.005495987927987377
          ],
          [
            0.006484154735536471,
            -0.009514000765113743,
            0.008118358033238963,
            -0.0010449269645846028,
            -0.009418247364382725,
            0.003126586004146225,
            -0.005093769368835313,
            -0.009352529669764017,
            0.0020225840530443927,
            0.004728890315199009,
            0.007518623684897946,
            0.0008137490683069743,
            0.00842744801633655,
            0.008595206201835497,
            0.008185681710651337,
            -0.006122800808929571,
            0.004712848727695095,
            -0.00960090786489031,
            -0.0012579488267961572,
            0.0020485544466066563,
            -0.009476899296903568,
            -0.0028975178233594154,
            -0.006916316589126011,
            -0.0064482856191460936,
            0.0026646748675875154,
            -0.0041703110298712985,
            0.0027044094070706698,
            0.0010400410787514353,
            0.007029558964697849,
            0.002289437714459436,
            -0.003991945065233143,
            0.007288723640678605,
            -0.006872547284981452,
            -0.008110658183444999,
            0.0034267585949393333,
            0.007508831513321512,
            -0.005530950223125444,
            -0.0024869037889589233,
            0.0021640375398720283,
            0.0019034236739856425,
            0.0005465640047661206,
            -0.008333789378852095,
            0.009292634545847717,
            -0.007364653540844947,
            -0.006454404852302912,
            0.008485211592951375,
            0.00961502937361103,
            -0.0034784112840324176,
            -0.0035204503353152114,
            0.007986167924658038,
            -3.763364849132435e-05,
            0.001206416154482146,
            -0.0011540906534406484,
            0.008463176388551385,
            0.008013155846110039,
            -0.00875739644022627,
            0.004939718152828943,
            0.0004918271826188831,
            0.00847305020129129,
            -0.0072201786905219485,
            0.003794292054706441,
            -0.006104120291398639,
            0.005521558525938353,
            0.007067905199994418
          ],
          [
            -0.008579731948196804,
            -0.00019109646535024177,
            -0.008109366774879086,
            -0.009736669325436225,
            0.009066872843465208,
            -0.0035135396239823675,
            -0.004979368249794162,
            0.00622091421551918,
            -0.0040959690120879345,
            -0.006680186195046991,
            0.007952100674390084,
            0.002036588828715341,
            -0.006959149699702975,
            -0.0035094768772976717,
            -0.0001676743156779548,
            -0.004606464968188616,
            0.008404666375103184,
            0.004600194243871954,
            -0.008468647156559319,
            -0.006516056169534279,
            0.008817606863445192,
            0.005744919125603615,
            0.00629675287853144,
            -0.009930292293182742,
            -0.0007097720568070695,
            -0.002394394600856655,
            -0.0016616506009129387,
            -0.006884192244442111,
            0.006303094459991098,
            -0.0052361745544399485,
            -0.00042637061220257544,
            0.005181188724111344,
            0.0010786105906663316,
            0.008824468975503754,
            -0.005610658054595986,
            -0.004632795516297673,
            -0.0027944402932555683,
            -0.0025576472246572495,
            0.0015190407783691078,
            -0.008091148806221776,
            0.00743093469204332,
            0.0023025264193468845,
            0.0077525678231747785,
            0.0012303127242383124,
            -0.0071317565980536434,
            0.002799858385466174,
            -0.0018504265781548888,
            -0.0007862973080820787,
            -0.0076243140013905536,
            -0.007746713118438214,
            0.008686241232126664,
            0.002105231900851668,
            0.009617221446143446,
            -0.004340614337281451,
            -0.0034937230834995664,
            0.006100627935044888,
            -0.009782613680482766,
            -0.008450002169992176,
            -0.004736665861285634,
            0.007148173939807145,
            0.0024028802972613475,
            0.007567203738112535,
            -0.004554347881505688,
            0.009697886993821934
          ],
          [
            -0.005530483422306144,
            0.008209554564920299,
            -0.008958579741310108,
            -0.003528670392718751,
            0.005902397066167252,
            -0.004790833212991453,
            -0.0032180475552606707,
            -0.007655170215933819,
            0.007908128974749672,
            0.005221832469375984,
            0.008131719401226891,
            0.000659455086503509,
            0.007341872339931056,
            -0.004016340922982575,
            -0.004241082609224564,
            -0.002170284339462359,
            -0.005804458227566179,
            -0.004037403400224449,
            0.0004633254051250704,
            -0.0010880498645615133,
            0.009094203004463943,
            0.004951282522156628,
            -0.004825155700546818,
            -0.003874236044924686,
            0.005859438391241122,
            0.00268307908997513,
            0.004079336847942602,
            -0.002627655545001988,
            0.002601118496748777,
            0.0011783760461316223,
            0.002722657045960881,
            0.00022228250538842867,
            0.002559779419997596,
            -0.009609669865267708,
            0.0049860076600933565,
            -0.007810966226809998,
            0.008154860697589625,
            0.0011932916772929647,
            -0.003039128201309387,
            -0.0030881488712587724,
            0.004278994113614155,
            0.006875679742222225,
            0.009981869673056854,
            0.008511666939965839,
            -0.008952504708854416,
            0.004772737991258317,
            -0.006705955187382588,
            -0.005937710433078937,
            -0.009259552818315819,
            0.006424887102608642,
            -0.00859261434584653,
            0.002120849314244514,
            0.002455649339704677,
            0.005181863755452111,
            -0.004792755139672579,
            0.00634186366787667,
            -0.001137912497015539,
            0.0016775458813297727,
            -0.005507340787892418,
            0.00012645266249773298,
            -0.006444615720116163,
            -0.003354124813409902,
            -0.007938977834595871,
            0.004453989266961833
          ],
          [
            -0.0098602006168879,
            -0.007002404506887458,
            -0.0036227893572281507,
            0.0054177147359886334,
            0.0017572839370595143,
            0.006212196365381046,
            -0.006934093451457793,
            0.0009920386422124893,
            -0.004163418911522569,
            0.0034984603741765666,
            0.0010686798281615878,
            -0.005589257037278347,
            0.00073319150735891,
            -0.00784199343466871,
            -0.004145126686694928,
            -0.008613304366934534,
            0.004862052513543478,
            -0.009425969492319572,
            0.00917115135427567,
            -0.007306238459421867,
            -0.0011231223761396837,
            0.00412432419616969,
            0.000906121965729976,
            -0.006517977791841894,
            0.006269314773732629,
            -0.005327509403277894,
            0.001636737693294536,
            0.0023412286024903713,
            0.0014583357580621418,
            0.00542573011220647,
            0.0018722315495191277,
            0.006885710373380235,
            -0.0017381485032663309,
            0.008523894298787834,
            -0.009518533896206735,
            -0.004919003734423118,
            0.009957782683090369,
            -0.009698034419756914,
            0.002856873359002506,
            -0.009634933194312738,
            0.007971729410914143,
            0.0081341732475511,
            0.002973331822108285,
            0.008192239692258914,
            -0.0025606151227418016,
            0.00442806743859816,
            0.004156662114191918,
            -0.005098644213104652,
            -0.00487225436399664,
            -0.005894840857373107,
            0.003990302805563575,
            0.0014852372545298548,
            0.006733933839752637,
            0.004041965900060423,
            0.0020566773107999294,
            0.005362455054942783,
            -0.0017880931276623032,
            -0.0011233649096916464,
            0.009323273799715271,
            -0.005613019720998708,
            -0.002929802368921923,
            0.0022174701116938127,
            0.009730819060103124,
            0.006697083236774404
          ],
          [
            0.005786019122383758,
            0.005046435632132816,
            0.001141995745798341,
            -0.008279565170552845,
            -0.003585721363975288,
            0.0004984117177754131,
            -0.0012129624419572424,
            0.00966963361369053,
            -0.0097625891066115,
            -0.0006401182777846262,
            0.0014748852232843019,
            -0.00568128934800288,
            -0.008257465648914199,
            -0.0017708818517615946,
            -0.00014335490761055903,
            0.007559558367559711,
            0.003896848177378263,
            -0.00745504499493024,
            -0.006977075392923676,
            -0.006068669320235653,
            0.004270988260882803,
            -0.003056361794149901,
            -0.0023538438981866266,
            0.005491644863355451,
            0.006265876817142489,
            -0.008038026238866146,
            0.006631970609527797,
            -0.0019053689920499885,
            -0.008613420587531527,
            -0.005993428452659879,
            0.008883989518535031,
            -0.009628992001322558,
            -0.00304513252647706,
            -0.003828582310906656,
            0.0011108082396265118,
            -0.008447402618611754,
            -0.009031416106999845,
            0.005149271131015104,
            -0.007153269399885155,
            -0.008647382927523754,
            -0.0033947525110746683,
            0.004925132831099573,
            -0.001891928268186042,
            0.009752921894562195,
            0.002535693833737774,
            0.0034120219322730915,
            -0.003877588221412425,
            0.005540532685248822,
            6.638730348391126e-05,
            0.009527381090784291,
            0.007833920520807724,
            0.006362018566239038,
            0.007896532536098537,
            -0.008006857359560655,
            0.007019296930890305,
            0.005729356951991719,
            0.0072587732351339284,
            -0.000688827322305516,
            0.008369388838560548,
            0.0013717823700475657,
            -0.0072990791578413875,
            0.0016369885028387117,
            0.008803946821641678,
            0.0005916939992904702
          ],
          [
            -0.004868017863534292,
            -0.009338194640931686,
            0.002650103721213194,
            -0.0010389894548163726,
            0.0007621798903259091,
            -0.0009951820361664687,
            0.009187264574596907,
            0.005076851106648614,
            -0.005967766862264315,
            -0.007298342519713305,
            0.007538337276381324,
            -0.008806754709463795,
            0.0034392479691463525,
            -0.004774457017204163,
            -0.0014464242746909494,
            -0.00355254070009599,
            -0.002134937167052749,
            -0.0048244227465199865,
            0.0014517340448935833,
            -0.006180161949012536,
            0.008761843869811655,
            -0.003272402080401421,
            0.008940665614996849,
            -0.0016251235616779732,
            -0.0026246607740182107,
            -0.007503996369359861,
            -0.00266669937917869,
            0.004764794604253801,
            -0.009054989264617485,
            0.009597509122662648,
            0.005003270794859582,
            0.0005131188730475386,
            -0.006720912714839831,
            -0.00988544025610906,
            -0.007384683414224333,
            -0.0010613193710053404,
            2.693442222811585e-05,
            0.009396077441238802,
            -0.0006049621872767502,
            -0.006393592281910718,
            -0.0010647958245171508,
            0.007572764568904491,
            0.005971492875939181,
            -0.006940783102184762,
            0.003603803968612198,
            0.0005729127594163441,
            -0.003835360942049047,
            0.003810844360940841,
            -0.006388821064694619,
            0.00762324731302558,
            -0.0034058015031683494,
            0.0029114247221377347,
            -0.008697971077155963,
            -0.00854344752905907,
            -0.006786594117438672,
            -0.009036790311257356,
            0.009411468997553518,
            0.006296778679935399,
            -0.008899763577553394,
            0.0054491381519913866,
            -0.007982679188811842,
            0.006883983452849763,
            -0.00936505662301866,
            -0.008839620823531711
          ],
          [
            0.0036828962001879844,
            0.004658728907016398,
            -0.005782367445693204,
            0.006599510811638749,
            0.004579543323242728,
            0.004360723124628424,
            -0.007916925822503109,
            0.003201203593398878,
            0.0002308430995039616,
            0.00900059137696805,
            0.0005336582598804395,
            0.009319849966288048,
            -0.0071589319540646314,
            -0.006474502756831612,
            -0.004491201594535792,
            -0.0030769046158135665,
            -0.0010709972314316776,
            -0.008254684794141098,
            0.00828187227484162,
            -0.00905729367075793,
            0.007924009492879545,
            0.008983151566494534,
            0.001336302655052275,
            -0.007876772087753734,
            -0.0032252897912078944,
            -0.0022764247955281967,
            0.009136385069859743,
            -0.00869859372515918,
            -0.009334402861844022,
            0.00018736834425421274,
            -0.008580041639351181,
            0.003687142109413607,
            -0.003519418963342446,
            -0.0067369065623812865,
            0.008277867195060538,
            -0.007524570283221122,
            0.007050421515304534,
            -0.005703599823347466,
            -0.0018544964109665782,
            0.00012595977021415884,
            -0.005925384532764915,
            0.002267616636078084,
            0.0012796706938574599,
            0.003946143154395467,
            0.00011273396946651983,
            -0.007547423921113902,
            0.008692312590192756,
            -0.009607929638926878,
            -0.006689479522229482,
            0.009623866912516724,
            -0.003379348864361585,
            -0.003829811857420286,
            0.006532208872480228,
            0.003914209256358445,
            0.0017101265578112173,
            0.008503172977613892,
            -0.0043480832720981626,
            -0.0015441505380380332,
            -0.0029771090351209334,
            0.0018686470925171,
            0.003925382486448916,
            0.004289188213457454,
            -0.0001035592220639355,
            -0.009428572488639929
          ],
          [
            -0.009927903395556794,
            0.00688665740040312,
            -0.00894237649281554,
            -0.007109569279401547,
            -0.00228919251393016,
            -0.006032067354507316,
            -0.009414130680514653,
            0.0010224969482722924,
            0.0021399572552705096,
            0.007136100839613284,
            0.007516526121430848,
            0.00017850583103650646,
            -0.009369141639652707,
            -0.004555006639057647,
            0.009259413692405377,
            0.0015051084887904359,
            0.009605352519273927,
            0.0013140031376976998,
            0.009574026853758227,
            -0.005604017958289251,
            -0.005944905516377045,
            -0.002645349415712355,
            0.001037764887318694,
            -0.0013560141301220392,
            0.0075772168719297735,
            -0.009430441048500103,
            -0.005827031305312193,
            -0.0027656283844558244,
            0.004997075180707127,
            0.002583605075993767,
            0.0029309554339498225,
            -0.0015566818812045942,
            -0.004831530280312028,
            0.005900113986120332,
            -0.008369595418480076,
            0.0033594666694839004,
            0.009278682380158939,
            0.00120783434037542,
            -0.006658552132605321,
            -0.009054736326635072,
            0.0018655390961910315,
            -0.0004340440896414783,
            -7.598571642570899e-06,
            0.006659937783606049,
            0.006815338365735847,
            -0.003134826745397429,
            0.008733431328943815,
            -0.00036120377923982007,
            -0.003174093202210849,
            0.0057952726967009744,
            -0.000830249292604489,
            -0.0021082409206125683,
            -0.0020760439716685252,
            -0.00902151720328577,
            -0.003893121367651831,
            -0.006024185391329208,
            -0.0035100969145060866,
            0.007126347569672546,
            0.007227272587979556,
            5.959580989549515e-05,
            -0.002222132580595452,
            -0.0047245200170819394,
            -0.003462144824831046,
            0.001914760990092661
          ],
          [
            -0.002279848176362927,
            -0.00658082415881327,
            0.009601755043273404,
            -0.006196384271839195,
            -0.00019892735826975151,
            0.0024611591661460905,
            -0.00144228428720031,
            -0.0008759974213984088,
            -0.005244498764711426,
            -0.0011713652042755754,
            -0.0030150190490284903,
            0.0038535115956556815,
            0.008718309364560198,
            -0.006062288216573996,
            -0.002798395739886992,
            0.005202061346843208,
            0.004128569002302008,
            -0.006689842523860328,
            -0.0073423967049951674,
            0.008516349690318616,
            0.006232433469317575,
            0.0020548573591743055,
            0.001610530625614212,
            -0.001566454827455656,
            -0.0020755765021645855,
            0.0024094119838924915,
            0.009486755627563122,
            -0.001409151972360003,
            -0.0016559631976010751,
            -0.002531007813256183,
            0.001464278908158924,
            0.0025712955362356673,
            -0.007814297460165208,
            0.007597261896150166,
            -0.0010985657059224988,
            -0.007212206090651246,
            0.00012124795547709659,
            -0.00708632846762538,
            0.008418333914399452,
            -0.00867819596256363,
            -0.003380338520212325,
            0.009108597121822071,
            -0.009351160387722367,
            -0.0020846916673835625,
            0.00235136547033456,
            -0.008642963497607776,
            -0.0022364369900018774,
            -8.804977489185496e-06,
            0.009345705427028882,
            0.009744827957961083,
            0.006794469748202767,
            0.009689164625322873,
            -0.007047173152720419,
            -0.008391837662803768,
            -0.006849268311128307,
            -0.0012084639185887688,
            -0.0034244361153608297,
            -0.00427598021291513,
            -0.0037262509383544353,
            -0.0030762249235416587,
            0.005155458900640334,
            0.007567753529141737,
            -0.003635550168717164,
            -0.006942474756626128
          ],
          [
            0.009518344105247703,
            0.0016945675957958425,
            0.005660398668335883,
            0.005473122137451612,
            0.002238506707816734,
            -0.0073920645614676045,
            0.005510777638222772,
            0.0028241929815638997,
            -0.00674001381462107,
            0.007126995342784576,
            -0.0010480490156917301,
            0.00796800722478175,
            0.005291152041632712,
            0.003574285287496368,
            -0.006301942331098905,
            -0.005634585718663327,
            -0.006847898267991395,
            -0.006826227736863103,
            -0.001166510709154058,
            -0.006485239573074497,
            -0.0009736504370738174,
            0.003747776243627018,
            0.007805965404663495,
            0.002996739749467898,
            0.0020603173325870173,
            0.0010804213946738548,
            0.005916311050641691,
            -0.005392816266155962,
            0.004539053646547878,
            0.0014275378652839155,
            0.009375927052392806,
            -0.004592150017505536,
            0.009893930217794325,
            -0.0002171425284455497,
            -0.0021757322302882486,
            0.0003192299020171951,
            -0.006222483310414754,
            0.007981219606958348,
            -0.0037423008321501193,
            -0.00973120436969172,
            -0.009492305065672639,
            -0.009885351612961706,
            -0.006177900268744842,
            -0.007288581811330147,
            -0.007535611741515194,
            -0.004485399096338422,
            -0.0023851113828388506,
            0.007317302694440694,
            -0.004997083191953012,
            -0.00762612873135149,
            0.0065181237950397,
            -0.006997007934635086,
            -0.003957095272496241,
            -0.0007283890307586558,
            0.008377637128441326,
            -0.0024690841147696264,
            0.0004346140744528089,
            -0.009753716102941273,
            -0.009070243651395535,
            -0.008668069791338913,
            -0.003288395999032432,
            -0.0006619840398889138,
            0.004384378594880482,
            -0.007591422517726971
          ],
          [
            -0.007758021907405352,
            -0.007928403479435124,
            0.005108157051840171,
            -0.0025186258077726687,
            0.006863260995008886,
            -0.004176084087624109,
            0.009514391829551586,
            -0.002083543694638441,
            0.0007232441421055287,
            0.005303815321678244,
            -0.009130826145926915,
            -0.0022536829281053793,
            -0.0032827642954366505,
            -0.0013716218724196074,
            -0.006603006743957112,
            0.009536463249582997,
            -0.008073505460248364,
            0.006468948298382759,
            0.000951909913908756,
            -0.004419300027709372,
            0.005531869643027835,
            -0.0004867374618160672,
            -0.0034647733113073254,
            0.008129891690086391,
            0.0011450582087781812,
            0.0015112209881652764,
            -0.006097167262804973,
            -0.006482976614283762,
            -0.009246309129765182,
            0.005539896520566634,
            -0.0035713778499923887,
            0.008712856335972739,
            0.008604685748182805,
            0.00996983188794949,
            0.0016317887615887117,
            0.0034421154713953237,
            -0.0002358192439297767,
            0.0005707000434648131,
            6.007033846852824e-05,
            -0.001681056511341781,
            0.004279770600035447,
            0.001695707459210703,
            -0.006648360786023113,
            -0.0018397891325576793,
            -4.565211787313689e-05,
            0.004487184699405064,
            0.0025611762769317367,
            0.003770813944455032,
            0.005186780918342355,
            -0.0023713965489341134,
            0.0051659808869599436,
            -0.0031782298247109196,
            0.004585273774550927,
            -0.009662247867020425,
            0.002554513162202383,
            -0.008740213954456951,
            -0.0060034885927273745,
            0.0005006498150487923,
            0.00507549337995354,
            -0.0031921305955144265,
            0.00012067740086266326,
            -0.008334834489944395,
            -0.00016826462467618098,
            0.004845136536824396
          ],
          [
            0.005904267165087789,
            0.0015065236253224467,
            0.0083009534552266,
            0.0038240959021067257,
            0.008232528052011188,
            -0.004234558061919339,
            0.006808064807914288,
            -0.007256770605238933,
            -0.005360274812013229,
            -0.007040776362738573,
            0.009573782018081357,
            0.002735680818469178,
            0.006120555535877049,
            0.004278524686160115,
            -0.0070450907425612,
            0.008834373659872665,
            0.008460660314621627,
            0.005518521096554833,
            0.007597941292825206,
            -0.007267414316368737,
            0.0051551288435213,
            0.0031994297770617528,
            -0.005169396825169942,
            0.00868923613862736,
            -0.009388115488574275,
            0.00146739124321364,
            -0.006566502223418724,
            0.0051001143909401095,
            -0.0036864050632360824,
            -0.0008545041974055574,
            -0.007808918917481665,
            0.002146590803438506,
            -0.006912403898636289,
            -0.0027357845901411337,
            -0.005270329546119623,
            -0.009612177927689858,
            -0.007074161394024758,
            0.006755933705973906,
            0.009642235868901743,
            0.0016364337122339648,
            0.005032498209958959,
            -0.0007945840729737218,
            0.009918898107006599,
            -0.0080669288422373,
            -0.006445170218204492,
            -0.0012961944256455536,
            7.042308380804559e-05,
            0.00565794732317459,
            -0.009208992295031833,
            -0.005784068992119323,
            0.001242740855803653,
            -0.0071532103243924046,
            0.0010426761057294605,
            0.006769701313572,
            0.005143489745503703,
            0.0030097531834827624,
            0.006205125963775585,
            0.004645634646659103,
            -0.0006818293493547824,
            0.00759689136484873,
            -0.004250995689289443,
            -0.006332512319755519,
            -0.007479794621893808,
            0.00627316424384857
          ],
          [
            0.009685928337095718,
            -0.005324735856625985,
            0.007120876408603966,
            -0.001715672342119817,
            0.008515001823935069,
            0.0048602074554106095,
            0.009831289854359427,
            0.0015177799670481283,
            -0.007170065273491349,
            -0.0018419818459516637,
            0.0067117516710083905,
            -0.0037277701340953156,
            0.00947521900539906,
            -0.005568657527886891,
            0.006954956722620147,
            -0.0020221469867231254,
            -0.00363534781334539,
            0.008902758233143097,
            0.005763536786164452,
            -0.006237599401203215,
            0.00816015968028998,
            -0.002318008097007183,
            -0.009427326311831977,
            0.008292828798817457,
            0.0016897672482247752,
            -0.004496698744429371,
            -0.006896130854683783,
            -0.0022915602270442152,
            0.001302651092609852,
            -0.007721401096163903,
            0.000758293538548045,
            0.0071294570830699325,
            -7.08477092918554e-05,
            0.008923161087130283,
            0.0056826893100747145,
            -0.003940604386933036,
            -0.0054862513699769095,
            -0.004663790264183937,
            0.009388537233836574,
            -0.0027480868040216247,
            -0.0031776950519551866,
            -0.007528501264212837,
            -0.0015859093607832073,
            0.004502792828804864,
            0.006838876205807305,
            0.002355728713779506,
            -0.0025985711820246263,
            0.0011138773016666382,
            -0.0036119042634239463,
            -0.001981222671840547,
            0.0021178596241620646,
            0.00923188046371506,
            0.0017980743662707013,
            0.0027335189527364708,
            0.008452034599213605,
            0.007993103998359138,
            0.0031348834657680662,
            -0.0008979414243596935,
            -0.004557652361241989,
            -0.008895546453005873,
            0.003300045113136551,
            -0.007289816960676208,
            0.0022727416400400604,
            0.00886469548721437
          ],
          [
            0.00028672328502591716,
            0.007884983566766722,
            -0.004251774818620901,
            0.008325829598042001,
            -0.0053785901698810605,
            -0.00867767174118931,
            0.007910455433899882,
            0.008452092095983653,
            -0.00023976063325849924,
            -0.006886706652773618,
            -0.0039794348696516576,
            0.004841400981809729,
            -0.003971530743098662,
            0.002252766271559212,
            -0.0021211156946616813,
            0.0013807918772552553,
            0.0026678839302284045,
            -0.005184269661428266,
            0.004874693136446936,
            0.004892935205069551,
            0.006826028864864097,
            0.0010718599340828585,
            0.007513875488220024,
            0.00964317873723169,
            0.0013749566532334986,
            -0.007140829806226769,
            0.0019379587113738958,
            0.0007867869793387515,
            0.002907807413079449,
            -0.0057703906366357955,
            0.006346176792569384,
            -0.00188344376738336,
            -0.009668982609883085,
            -0.001466987143849525,
            -0.006951458801990041,
            -0.009899507472760213,
            0.0014496540030677011,
            0.0002271906238860776,
            0.004476987673453595,
            -0.004930692307766743,
            0.007823726138586194,
            0.007157986289041415,
            -0.0028039638732963025,
            0.0030945705494799425,
            0.00545308645636296,
            -0.006281509703026042,
            -0.006679670730263365,
            -0.005583724136490263,
            -0.007177593585367323,
            -0.007265541444208394,
            0.0020660730669349453,
            -0.0070239340825564165,
            -0.00450974304155123,
            -0.0044617761480443075,
            -0.003043923656618129,
            0.0034715462143354117,
            -0.00322907244816316,
            0.009567724437302541,
            -0.007628558859564894,
            -0.008468941306177839,
            0.004634696327085429,
            0.009452711426408808,
            -0.003997154871559868,
            0.007195615750695495
          ],
          [
            -0.005685145554053597,
            -0.007683228686093141,
            0.0076595016355526825,
            -0.008087697912425446,
            0.0004202460068777986,
            0.007663398130036218,
            0.005584232532077227,
            0.008869384915519047,
            0.0048319570073197754,
            0.005847301049025783,
            0.0031663555158084875,
            -0.0009536873229206865,
            0.009391340533730478,
            -0.002115680392070999,
            -0.005195791687719954,
            -0.007315089927095503,
            -0.001974644484446937,
            0.005184513073865475,
            0.004935762409864538,
            0.00797201862711196,
            -0.004526437096363356,
            0.002588410958772491,
            0.0033047968664993406,
            0.00975507019379467,
            0.008407885052235687,
            0.003956170617577088,
            -0.005113235756081678,
            -0.00951479192374574,
            0.0059475822665277,
            0.009214115132951914,
            -0.008899379814487695,
            0.009307101290319484,
            -0.004033425623782035,
            -8.821382060030837e-05,
            -0.0032818219907739645,
            -0.007121591000384426,
            -0.008620890433767554,
            0.0016407066015124369,
            -0.002364697241275328,
            0.0061843437729488734,
            -0.008860038606234693,
            0.00364242954353155,
            0.005328248513690454,
            -0.008821378166426287,
            -0.0034280409216285394,
            0.004559198090541585,
            -0.0005398341598648879,
            -0.00402812467230215,
            0.0065629905678808,
            -0.0013311238366116606,
            -0.0010795563398514408,
            0.007089208371982979,
            0.003615931605024106,
            -0.002879244434739514,
            0.00307593292301042,
            -0.009036451097583362,
            -0.0019377759117622476,
            -0.0051466666357428215,
            -0.006912503375925463,
            0.007601919931510544,
            1.4722403282581914e-05,
            -0.0040762207176646085,
            -0.006072611771761184,
            0.0007527213118475526
          ],
          [
            0.0031626037867513498,
            -0.005104779789175082,
            0.0036159870681467116,
            -0.0036768327005177247,
            -0.008710162917628397,
            -0.008987331263371885,
            -0.00012132845186372001,
            -0.005329589095370453,
            -0.0010245762449173114,
            -0.007977787445413352,
            0.00036962929476526694,
            0.005168535486031252,
            -0.0007095191658647996,
            0.0027057582084163206,
            0.0062543441431383824,
            0.007436523444930022,
            -0.003744425273517222,
            0.0020534536404985975,
            -0.009369134334999578,
            0.004139521962494687,
            -0.001652327997085288,
            -0.0068013216248886095,
            -0.005238420086814031,
            0.008025544854145883,
            -0.0037216636058594365,
            -0.0010888568070414094,
            0.0031464851214887514,
            0.007744665343469635,
            -0.0008739251350540943,
            -0.008069895191451437,
            -0.004764379366364276,
            0.005629764777634161,
            -0.006564442322241186,
            0.0067567631558691586,
            -0.0015035645368809856,
            -0.007981118684648918,
            -0.004409354596816118,
            0.006272560043275588,
            0.008216870750256464,
            -0.006748599362028673,
            0.002264376951004321,
            0.006417772054453989,
            0.009106267467101527,
            -0.006878541004651055,
            0.005566909626167328,
            -0.0025397576638565536,
            -0.0005316026816427271,
            -0.002637467054410351,
            0.004255469017145142,
            -0.005469290019973073,
            -0.0005629048581471731,
            -0.007919653473088836,
            -0.000254874853377651,
            0.008671985894946513,
            0.005715708113794815,
            -0.009783405788512563,
            0.006477772098000062,
            -0.007758463825604277,
            -0.009428225209703333,
            -0.0038382966112569215,
            -0.00880356411560317,
            0.006036373253805841,
            0.00886078980560834,
            -0.0011729819841940874
          ],
          [
            -0.008744609829678668,
            -0.0071680508561070295,
            -0.003262017617738579,
            0.007200503876200301,
            -0.0034946133590061396,
            0.005432976907827851,
            -0.008495076477784289,
            -0.008971031271400962,
            -0.005624940367409028,
            0.0004302865803633353,
            0.007756218686370041,
            -0.003508844236258241,
            0.00010718803761782631,
            -0.005839820441882322,
            0.00904727618587991,
            2.6703411454360684e-06,
            -0.0030016678202747513,
            -0.002614549888392957,
            -0.0026828135435881927,
            -0.005710190739497988,
            -0.0042657338844885135,
            -0.005123579537065174,
            -0.00018982200932342623,
            -0.0008329669754913259,
            -0.008701113589263771,
            -0.00737086694529798,
            0.0008639450893920477,
            0.008579090510066474,
            -0.0050217641649716,
            -0.0007135674689257322,
            -0.008145604626784281,
            -0.0027827527979924936,
            -0.006142625357034709,
            0.002737957129771988,
            -0.0004547465973160371,
            -0.001448511434287153,
            -0.0017551920484337104,
            -0.003978954825751573,
            -5.458378678217129e-05,
            0.004620555571320172,
            0.00583354061994307,
            0.0029599226828648548,
            0.008224849166614017,
            -0.007777195865901758,
            0.009103958062966929,
            -0.00634130345300961,
            0.004705349502144122,
            -0.004922823468340603,
            0.007055687900794074,
            -0.0033525561098233423,
            0.00938890846176098,
            0.004012484265974148,
            0.00926913953401896,
            -0.00194515049858287,
            0.0027048818896935668,
            0.005833501521704727,
            -0.00938991139111352,
            -0.009416830335395065,
            -0.0007444487420929549,
            0.008461469237648572,
            -0.008644444446308599,
            0.005120152998947956,
            0.008717220053779309,
            0.005700367677454006
          ],
          [
            0.008851769856956626,
            0.007699475570272619,
            0.008410173374896796,
            0.0025605115430887473,
            -1.7503681365027056e-06,
            0.0033658499924044184,
            -0.008261477875359977,
            0.006863009823121161,
            -0.0018204246847048468,
            -0.004072953955527871,
            0.0053428052757036465,
            -0.004198787863096334,
            0.0022398950432858953,
            0.007993400778137573,
            0.005283233142686479,
            -0.0016233889616186223,
            -0.00905733220817746,
            -0.004390606551127297,
            0.0008268429159759152,
            0.00359630277666593,
            -0.00825679130453095,
            0.0032341462953026263,
            -0.007802060082336021,
            -0.007241422898200959,
            0.0011161687267196884,
            -0.003069815710829546,
            -0.0007719126686783655,
            -0.006621206119600301,
            -0.007983484096873536,
            0.003825050341359083,
            -0.007764978636128288,
            0.00846180012862486,
            0.003447002210149272,
            0.008627039494833054,
            0.0010939983756156684,
            0.003021049951071353,
            -0.006231365330487927,
            0.007659548830023658,
            -0.00309552672024967,
            -0.0036601210011179353,
            0.004641481112248342,
            0.00888415555485471,
            0.006611517306352953,
            -0.0068757474096192974,
            0.008476140970019908,
            0.005133375904100744,
            -0.00044375423988860625,
            0.0010566916311175165,
            0.0015608747542638385,
            0.004228162395385656,
            -0.005815843900173382,
            -0.005669907600109908,
            0.009994754174248706,
            0.00525335621981036,
            0.00040031076481640494,
            -0.006008756509366205,
            0.00229303476995953,
            0.004584072851581577,
            0.00897926795850849,
            0.007837125573608222,
            0.004711135242995473,
            0.009769760316665963,
            -0.0019145127075970757,
            0.00306037033143692
          ],
          [
            -0.009997313183809229,
            0.006303584394702049,
            -0.007228987853262344,
            0.007173856174351423,
            0.002386399105051168,
            0.0012575294694722433,
            -0.0025236439809356048,
            0.008662903147246976,
            0.007014840682629229,
            -0.004065478306527319,
            -0.002562190300687529,
            0.008757958478628276,
            0.0009469145213248438,
            0.009623280680305298,
            -0.007344498028618203,
            -0.003526220188941334,
            -0.0021676151791934274,
            0.0009604410989459887,
            0.0028417981154039026,
            0.0030000913769340012,
            0.001915695524381965,
            -0.004944527053646545,
            0.006875175643440786,
            0.006577971954287232,
            0.0011694155458479624,
            -0.008758645898347366,
            0.005476781319428229,
            0.005772072427270432,
            -0.00926766559048148,
            -0.0028195262646943443,
            0.00845026419252274,
            -0.005456002584864429,
            -0.0033095314723446006,
            -0.0008444098412150236,
            0.0003413166034137117,
            0.0071975072603992305,
            0.005115299298566161,
            -0.008160151685954466,
            0.006799301594643923,
            -0.006773802541942686,
            0.0073626086735357,
            -0.009071403198279683,
            -0.0062547719489751945,
            -0.006047156349702792,
            0.005393476944886625,
            0.009972302669433143,
            0.009362191749324343,
            -0.008843877153802414,
            -0.008212202520468049,
            0.0003552808021679297,
            0.001129806088497609,
            0.0014461593591838272,
            -0.004625924667702644,
            0.009734546880568181,
            0.003386115125490443,
            -0.00029974624680305454,
            -0.008541799358732817,
            0.0072089812475753055,
            -0.002548574995299396,
            -0.0039057498608349966,
            -0.00536701333865497,
            -0.0051592748974221775,
            -0.006394588943747381,
            0.009274615802660494
          ],
          [
            -0.0025927546187290334,
            -0.0035304117664353993,
            0.008210209236188442,
            -0.0008355463213978707,
            -0.005596718502774464,
            0.009723207304244823,
            -0.007850062571427556,
            -0.008434955491514252,
            6.437840416758496e-05,
            -0.003915638463405754,
            -0.002636908850580226,
            -0.007307640681316513,
            0.00561761739811167,
            -0.009964869116767259,
            8.755870528151988e-06,
            -0.002504022869187414,
            -0.00920407221049107,
            0.007643693643438674,
            0.0055322856230285095,
            0.009793616290860068,
            -0.003074971382324192,
            -0.00863534590949475,
            -0.003047206290083505,
            -0.009057089537892419,
            -0.005269021348619167,
            0.003404523488635147,
            -0.0022359884199441562,
            -0.008325931687131204,
            1.6003623485382635e-05,
            -0.0013051111364514813,
            -0.005170970050801994,
            -0.006969632729612978,
            -0.00853544315137336,
            -0.00042327374568195623,
            0.009298296831636523,
            0.00833320528721538,
            0.005316564005789678,
            -0.005454016244489475,
            -0.006889313842416583,
            0.009152607919224504,
            -0.009927096697339785,
            0.0015473892563969214,
            -0.0017925815279598585,
            -0.008053186653878898,
            -0.0034227132960964815,
            -0.0063664179153670895,
            -0.007848989826447774,
            0.007946722288509655,
            0.00235158582394997,
            0.003601407954903587,
            0.005048823757626757,
            -0.007417275767280404,
            0.00305579711229152,
            -0.0021057082964883386,
            -0.006607429087050035,
            0.00819391706058213,
            -0.0003463952674228928,
            0.009968387921241079,
            -0.004044153077641659,
            -0.008015397815504425,
            0.008924531793526626,
            0.004269925757371005,
            0.007201710325488171,
            -0.004755392529920543
          ],
          [
            -0.00907269359633253,
            0.008225729546584683,
            -0.0009600672704653969,
            -0.005553723846759718,
            -0.008735664466377632,
            -0.0008841059819278437,
            0.005045248486433564,
            -0.005931147517314447,
            -0.0072829070479022975,
            0.006952918794763393,
            0.002865161682054544,
            0.0008411271417426103,
            0.0008009169716912966,
            -0.009081203459084534,
            -0.005937971348021619,
            0.0018556959619775537,
            0.001996240928477434,
            -0.003998425195368305,
            0.005944879406402412,
            0.008776348923216735,
            -0.0027811607174441735,
            0.00856910298792856,
            0.003141197832500731,
            0.008233971640843007,
            0.007684058056733,
            -0.003629031278267716,
            0.008318335064162883,
            0.0016092423578683989,
            -0.002236161560200331,
            -0.001459105829406901,
            -0.0019613944650162616,
            -0.007655635809303862,
            -0.004294010782395231,
            0.009578230773837201,
            -0.0070694706647686624,
            0.007626106645530457,
            0.001261825299439168,
            -0.002105378498130954,
            0.003520295176156314,
            0.007684492812621139,
            0.0034074694461716177,
            0.005760820951142794,
            0.001986013440899983,
            -0.0068086261858162755,
            0.00011058572146040685,
            -0.004904768394925697,
            -0.007717057062484226,
            0.0013157320427242423,
            -0.009523306161759917,
            -0.007907849705940426,
            0.006522540681286647,
            0.0023442004252161417,
            0.0036271973991735605,
            0.005032221072033382,
            -0.00828758776240471,
            0.0051415093352607764,
            -0.0036220359500346863,
            -0.004046033952536233,
            0.007546461889486485,
            -0.0035063373795844745,
            0.002598094361435259,
            -0.00882145906254709,
            0.0008743725448659867,
            0.0011078264684892742
          ],
          [
            -0.0013821298790725324,
            0.006434041046747257,
            0.0033112447219421095,
            0.0024483110532857347,
            0.0026898679815795462,
            0.008880766839405266,
            -0.002644651583129544,
            0.008462026094540236,
            0.006218622690669724,
            0.0034335235847721105,
            0.0037287202007555463,
            0.004059116458888711,
            0.0020606984421069033,
            -0.006730328170370626,
            -0.0005750312799269289,
            -0.004315566949889849,
            0.0035100404556787875,
            0.009395677516162725,
            0.004012975465097169,
            0.00468299249539972,
            0.008052624294001874,
            0.0022987362332354392,
            -0.002891791595806823,
            0.0008944327240581416,
            0.004774224064167278,
            -0.0007481346119946654,
            0.0011765240305412835,
            0.0019159496307749925,
            -0.007863709291125285,
            -0.00017441855857794705,
            -0.0015778151139302936,
            0.00912821059698645,
            -0.005160298407650183,
            -0.00684373444724907,
            0.00494285388732225,
            0.0025295670437923946,
            -0.0032944666174546246,
            0.0020735947900503452,
            -0.00860637649405282,
            -0.009322160556554836,
            0.006938934882347462,
            0.0004556987333290298,
            -0.0018572639528486089,
            -0.005516817349221753,
            0.002877071101394247,
            0.001992260312094123,
            0.008432541955480122,
            0.0005687081970581217,
            0.0033564636759753543,
            -0.0067374557527960285,
            0.0069561675457097075,
            -0.0015830092289322451,
            -0.004174534968608153,
            0.005885741694508129,
            0.006882542861454966,
            0.0035152583753412714,
            -0.0037110148357082286,
            0.007424033346396137,
            -0.001774604967839895,
            0.003359783143323776,
            -0.007019465739972076,
            -0.009343994827543254,
            -0.009213144594077932,
            -0.0022499642001045685
          ],
          [
            0.0034545055256279492,
            0.004316965778901019,
            0.0015430229941192047,
            -0.006142035176659243,
            0.005594841218026888,
            0.004491967518245141,
            0.007145318402927617,
            0.00033850254373550917,
            0.008847208705883007,
            0.0093762202229807,
            -0.0050339488574390545,
            -0.006508226129759756,
            0.0014982830240069778,
            0.0029392515669450343,
            0.0007545434487738356,
            -0.0038744243899192354,
            -0.0030117562864623347,
            0.003323242097331865,
            0.0020600230922124506,
            0.0006963235463537527,
            -0.009852177843997207,
            0.003769723084285525,
            0.006493438008739287,
            0.006188202790775299,
            -0.008247646838351861,
            -0.009353257684834752,
            -0.0011877906869049964,
            0.003890612919982712,
            -0.0021894791340186345,
            0.008957996015564962,
            0.007004032855767834,
            -0.0012386254132496987,
            0.001336369712769338,
            0.00857707545757282,
            -0.00022716966341864556,
            -0.009759666143114258,
            0.008799792440980912,
            0.00204453953123614,
            -0.0017406499172847732,
            0.009644421500548391,
            -0.007355399401371166,
            -0.004993024602629019,
            0.005430406885034968,
            0.001461578234922678,
            0.004113749353437715,
            0.0017323264725943963,
            0.0013496341916892913,
            0.003948019022983407,
            -0.0011294691545732317,
            -0.009296879130500903,
            -0.0021027684812637204,
            -0.0027206137873304415,
            0.009836007897476424,
            0.0035469717008459163,
            0.0047576950792230285,
            0.006031159927015061,
            -0.0032090262422311885,
            -0.004307934256497518,
            -0.00036764635184341905,
            0.0043232141384197086,
            -0.006564310636117209,
            -0.008316509954428994,
            -0.009250819553069342,
            -0.005312926971759296
          ],
          [
            -0.005652306636213175,
            0.00011187354751225137,
            0.008814664674017,
            0.006636244759488284,
            0.005219310466416457,
            0.003075277310698814,
            -0.00856343752917142,
            -0.0005768712531624468,
            0.006637690012026273,
            -0.0030372958696730417,
            -0.009132116406566004,
            -0.008412341561576171,
            0.0035966728972180607,
            -0.008380713213488343,
            0.0018390364777423496,
            0.006974654770316521,
            -0.004218461700669094,
            0.004586228512979877,
            -0.004117016828910112,
            -0.0023101363554545833,
            -0.007776951128181034,
            0.0001607681887651218,
            0.006041613236812581,
            -0.0054530478405715255,
            0.0025601224089564045,
            0.00978767086167285,
            -0.00151553678519426,
            -0.0007371351554570647,
            -0.0005356108985958061,
            -0.004787267839261648,
            -0.0001794531174092406,
            -0.008608594255537403,
            -0.0047950161381278495,
            -0.0032397709382280255,
            -0.003846447246288104,
            0.004639061995187011,
            -0.0034680370079837475,
            0.0022890052481538974,
            0.001933459428414848,
            -0.009041387125876377,
            0.0007197668138854434,
            0.004759041472628513,
            -0.007461653030853125,
            -0.008664927925800873,
            0.003477067565484137,
            0.0002190905995142354,
            -0.0077334733820949835,
            -0.008136119496241842,
            0.003616471392211978,
            -0.00950822392212821,
            0.004594140922875074,
            0.008462655260824539,
            -0.0026120531643775385,
            0.004461108618926793,
            0.003462269995806677,
            0.009015546983403564,
            0.008217384900652602,
            0.0036352198240298434,
            0.009232628568581562,
            -0.004763179954397639,
            -0.007356605895390948,
            -0.0006272413103369137,
            -0.008999737654284527,
            0.004581144112179307
          ],
          [
            -0.0075106415924298875,
            -0.0027722108845288284,
            -0.004409703932779496,
            0.0012876554287755396,
            -0.0005841167244972854,
            -0.0025357734735764097,
            -0.005147811757195547,
            -0.006304430196073717,
            0.006964023336187524,
            -0.003973891052454181,
            0.009794941104941056,
            0.0048534417836031945,
            -0.008620574403864488,
            -0.009395348997799967,
            0.008481156921755491,
            0.007797539500022938,
            -0.009300862830868506,
            -0.006930591596734362,
            0.00044342797034234324,
            -0.008786386428156772,
            0.0030450605469465103,
            0.007940225105358826,
            0.0052008777810483445,
            0.001544552929952048,
            -0.0005133283125006989,
            0.0022932366403655294,
            0.0019273348616842393,
            0.007607591145439093,
            -0.003990509157866782,
            -0.00087541402006104,
            0.006835111631455436,
            -0.009354563899168639,
            -0.005792604142069996,
            -0.0026483133229984936,
            -0.006608829712682694,
            0.0065739033327194725,
            -0.00015142720216156596,
            -0.006653878535000483,
            -0.008143675428382782,
            0.009955761111386725,
            0.0021624216507545634,
            0.007998488251532826,
            0.005364899537638023,
            0.009839141341985476,
            -0.007075445977576507,
            -0.0010556300938950709,
            0.009941189667468965,
            0.001916295019377379,
            0.006284449405861639,
            -0.0001099517380108159,
            -0.004386042258402465,
            0.007693341136517866,
            0.00283953101553449,
            -0.005188049128460494,
            -0.008496872338225171,
            0.008060109935747834,
            -0.004418309689317721,
            -0.0010311198722583112,
            0.008475849957520421,
            0.009632902786657049,
            0.005067329153684077,
            -0.0073093648950701496,
            -0.006046593815189233,
            0.004782332664222977
          ],
          [
            0.0009679198057106339,
            -0.008769486064284899,
            -0.0039981938857926195,
            -0.005407843201709833,
            -0.0032020963189474125,
            -0.0041537317876063195,
            -0.009476298090299644,
            0.004757709381226563,
            -0.004240498675027379,
            -0.0009241185554338545,
            0.009771409762615542,
            0.007596342563429067,
            0.008615235211302015,
            0.009311013745192312,
            -0.0030948254310017103,
            0.0038872650709439174,
            -0.007749389453511252,
            0.0030095204733488878,
            0.006014774999683028,
            0.00540177064284833,
            0.0070041796642776434,
            -0.005551733319037944,
            0.007383920868621048,
            -0.00012248909725467506,
            -0.002522769311505237,
            0.005183807094567142,
            -0.00900922124823494,
            -0.007097448810306784,
            -0.0012433131643941814,
            0.008163038461596866,
            -0.00025295866574197306,
            -0.008226070568308902,
            0.003781442607184701,
            0.008400186375625014,
            -0.005590712277578669,
            -0.0008249079101852649,
            0.0013280788655219364,
            -0.004858707081850478,
            0.004688674892535709,
            -0.0017465713783465986,
            0.007587886917349677,
            -0.006859154638163392,
            -0.004394816996412929,
            -0.006952115070558725,
            -0.0060278921081024905,
            -0.0016035416453699586,
            -0.0037641623336872486,
            0.005062729618616257,
            0.009430037037148944,
            -0.009010794245149006,
            0.007867313877065648,
            0.001721955299143658,
            -0.004603181664262206,
            0.0030528150914016544,
            -0.003575597779401267,
            -0.0004281479328405614,
            0.002396277275532662,
            0.006508558186823537,
            -0.001205443243188578,
            0.0007882979990532204,
            0.003289193133448955,
            -0.00741746769337975,
            0.0029311268688296446,
            -0.00027995025397741836
          ],
          [
            -0.007622116657483811,
            0.005922089669185572,
            0.002782018817027001,
            -0.008671712442726985,
            -0.0015080069713690454,
            0.00461845842485028,
            -0.008650510016722766,
            0.005760032725821698,
            -0.0039003991005378213,
            0.0023103593634219363,
            0.002563204827498169,
            -0.007531569848488495,
            0.007097535062577976,
            -0.008375748539780624,
            -0.007327906438624792,
            0.008655338630907138,
            -0.001134627731909408,
            0.0053898264127145434,
            0.003740730633171793,
            -0.004245091942216811,
            -0.0028107801990205615,
            0.0027365616874970365,
            0.007148502212681722,
            -0.0022006564533036724,
            0.008394529551639867,
            -0.006623854330534258,
            0.006109960994320557,
            0.00676396053937548,
            -0.008865950987414958,
            0.0059233760883964665,
            0.004993132737347856,
            -0.007193301400469063,
            -0.008772283490471931,
            -0.0037242908336999367,
            0.009178857179959176,
            0.00442491149812704,
            0.007813043615774827,
            0.009006671106508737,
            0.0006852252666865317,
            0.00599387414142842,
            -0.001145527187352563,
            0.0032651677791305875,
            -0.004641426820715197,
            -0.002452843807826317,
            -0.009579347696228537,
            -0.005339685174900233,
            -0.00910957260147529,
            0.006890691415270306,
            -0.0023223675939916745,
            -0.009372118321657888,
            -0.009900900254749684,
            -0.0013467284862214329,
            -0.009199442497828328,
            0.0042541120022815135,
            0.0033673940061286923,
            -0.00028126303678023437,
            -0.007899880946550078,
            -0.0059531642959907765,
            0.0035316477023469624,
            0.007814647084967121,
            0.0021069149078503484,
            -0.0005770817939381983,
            0.009221932989635221,
            -0.009019591339888966
          ],
          [
            0.004445548836531294,
            0.009901404407654413,
            0.009424665130927407,
            0.0035977043409050444,
            0.0032908393008361375,
            -0.0001736025189785058,
            0.009493934162050223,
            0.0007952843487598931,
            -0.009849669783630857,
            -2.9046339180534424e-05,
            -0.002360050675921801,
            0.0011091003440686592,
            -0.005343021914353827,
            0.008245931335727855,
            0.0028030198135566226,
            0.0045970193490886295,
            -0.0074924579523081,
            0.00471630923629584,
            -0.009122678192966983,
            -0.00516095396702131,
            -0.00650922980384248,
            0.0020825521563106065,
            -0.009268168080570667,
            -0.005895984987431789,
            -0.0006257420169449939,
            -0.0015149431220501746,
            -0.004574087036947304,
            -0.0046626273141484875,
            0.0007644756708127671,
            -0.006423761849029016,
            0.004736742257649504,
            0.0009874628693668235,
            -0.002388770464521026,
            -0.008904546178128792,
            -0.0025436178552801763,
            -0.005390665979920468,
            0.006074726338528756,
            -0.008789031240519331,
            -0.008081770739953639,
            0.003188783057914311,
            -0.003261379506080274,
            0.00022758837195814327,
            0.003011042723575998,
            -0.009478186597916513,
            -0.008878042909298224,
            -0.0009349053612711406,
            -0.00039005367298103495,
            0.0017578386950067837,
            0.006363028048822282,
            0.0018074645067901712,
            -0.007899682951788008,
            -0.0010947489629395978,
            -0.0016431075624638504,
            0.005816893069649997,
            0.009065606908863677,
            -0.00776040111221832,
            -0.008309261047130775,
            0.00788603858874684,
            0.004464275858309793,
            0.00153940065692906,
            0.004845412261080427,
            0.00760199723437027,
            -0.006227960951918417,
            0.0005817005249569204
          ],
          [
            0.0011592946588612097,
            -0.0033656600471742596,
            -0.002686631020116636,
            0.006202749300528455,
            0.007541219040801794,
            -0.002464884445215243,
            0.002814978433918955,
            -0.004662135804489363,
            0.0042000605417703675,
            -0.0013021487911578924,
            0.0011282523709968614,
            -0.0026719417396944686,
            0.004986666791653801,
            0.007997601444102031,
            -0.004455378678279473,
            -0.00045192750384901234,
            -0.00020768682217178614,
            -0.00971732781295351,
            -0.007308457540181743,
            0.001452154913808686,
            0.0011698474518579696,
            -0.0027024904613276828,
            -0.009627744689587707,
            0.0018624031479940902,
            0.006488596544919854,
            -0.0017919458172113646,
            0.004282270878494508,
            0.0077885056807798,
            0.006136113422390421,
            0.009551848287895232,
            -0.0009794662674051206,
            0.009120929483210362,
            0.00668782707038488,
            0.005232051275935177,
            -0.0013133788577276053,
            0.007338139082838503,
            0.009144241253690235,
            0.007016660496045665,
            0.0013969487708770365,
            0.002321901119275544,
            -0.0004521071846625365,
            -0.004089378092693584,
            -0.009747894699856558,
            0.007081878689895708,
            -0.008796986469404728,
            -0.0037337456795256178,
            0.008190827186451234,
            -0.007327654478504633,
            -0.006860255417919344,
            0.006245823308407591,
            -0.0027504884683810242,
            -0.007299902295142004,
            -0.004194557133390832,
            -0.0008872827957806934,
            0.004695724579417406,
            0.0010199403121223618,
            0.004141247823821006,
            0.003452090736743852,
            0.003605457928914973,
            0.00495692045677399,
            0.001577201481240259,
            -0.0031224306675372254,
            0.0003848380079973977,
            -0.0028093752056633863
          ],
          [
            -0.0097109489433146,
            -0.0005937386815684914,
            0.00011124457896589281,
            0.0020596346656237994,
            0.005298066031313035,
            -0.006464613714257634,
            -0.001843742511265588,
            -0.003961315190312944,
            0.006894164394751553,
            0.008108655683403874,
            -0.00023005965400975747,
            -0.0026444354730051525,
            0.0011253903848637877,
            -0.0008859698216016215,
            -0.00020137449934872292,
            0.003128837797430798,
            0.0002907385452386027,
            0.000558147456839167,
            0.003051434571520858,
            0.004713295335379328,
            0.003949905316780077,
            0.009449136221420183,
            -0.0006231664260173425,
            0.0004071638261376879,
            0.003302567761822288,
            0.008619537884975789,
            0.003499088085935541,
            0.0011627991748057265,
            -0.006907288667063837,
            -0.004113595128454659,
            0.007535453685878112,
            0.0003838278018054723,
            -0.007841849848652861,
            -0.0021246847095729654,
            0.008677530573949746,
            -0.0017662202079806427,
            -0.001593586578328737,
            -0.0038476654921908954,
            0.007687627385038713,
            0.00429616329903737,
            -0.0068941330450810355,
            -0.008831871936768983,
            -0.0008350898735235301,
            0.00714334848104518,
            0.0011437252404393361,
            -0.005868019361398971,
            0.0007416187069109247,
            -0.008503555048004202,
            0.0029071797453709375,
            -0.0010618501404689997,
            -0.009693747364611597,
            -0.0039042233530691365,
            0.007418254555031699,
            0.0006679579531814945,
            -0.005631679729429369,
            0.0035986373977636363,
            -0.005332737032404923,
            0.00573124850138643,
            -0.008074652746945174,
            0.0005279388622434914,
            -0.006738825940130625,
            -0.007474318830136692,
            0.005674778722342024,
            -0.0014341578212438608
          ],
          [
            0.003188812238638602,
            -0.0004584325764505462,
            -0.0018769449487941012,
            -0.00346170623597127,
            0.006761490706153663,
            -0.0004325399161939053,
            0.004220669541700638,
            0.0013174618912042185,
            0.0021348610292579026,
            0.008131265879364925,
            0.0028533010814596575,
            -0.005502913269424054,
            -0.003335626431532686,
            -6.120532622395686e-05,
            -0.00012546577099425916,
            0.0012099263488736572,
            -0.0032783359469012252,
            0.004022939761830781,
            -0.002231274981737236,
            -0.00925873944537112,
            0.008699330632532556,
            -0.007102309451045297,
            0.0021727696868563623,
            0.006881627367212529,
            0.0010783012838157839,
            -0.008407140444875458,
            -0.0034233976687852103,
            -0.002604840577995617,
            -0.004995790250941011,
            0.008151966984393256,
            -0.005155221821316782,
            0.006320754976733774,
            -0.005845095214648301,
            0.004258670531251076,
            -0.0015699077483081318,
            0.004976477385061339,
            -0.003735600355700696,
            -0.0026028596345380696,
            0.0010288348461121948,
            -0.0075837425415560345,
            -0.0027429532033585564,
            0.00762418729524832,
            0.008806594815005474,
            -0.005371467430451384,
            0.0037346516539350457,
            -0.004125256547853979,
            -0.0030969624657267163,
            0.004001822210655445,
            -0.0011057626224927394,
            -0.003188282910115595,
            0.007264580989251115,
            -0.006632465530197243,
            -0.005256579505493537,
            0.0028745027598108546,
            0.0088931898349877,
            -0.0009395296091899385,
            -0.00819244990274124,
            -0.0010813341564691187,
            0.007015392724939314,
            -0.004228056896595531,
            0.007840367145906529,
            -0.009695827191032734,
            0.003746436465737195,
            0.0022655360868615057
          ],
          [
            0.005129756241871168,
            -0.005396920642102923,
            0.005558728898749098,
            -0.002995898539378263,
            -0.0017635821368785813,
            -0.008463907951748614,
            -0.007051503305835262,
            -0.006111976957541808,
            0.006393982364327575,
            0.0034437868475080007,
            -0.005417865975814545,
            0.0020956599873569446,
            0.009762397231889717,
            -0.006917262121328773,
            -0.0045645563003786195,
            0.007130270754064036,
            0.0014013924723283026,
            0.00023744126700108112,
            -0.0009393202468443256,
            0.0030553334109439676,
            0.005835487335085616,
            -0.0030409174199060147,
            0.0072918859051675595,
            0.0012358689604416908,
            -0.0016324435646970213,
            -0.009827667030961433,
            -0.0022929330618438083,
            -0.0048148217359049155,
            -0.006887676632810045,
            -0.0028746197448272035,
            0.0025278874149933903,
            -0.007784908053927446,
            -0.009818596356876525,
            0.003841101974345813,
            0.005066085734194894,
            0.009990299269693805,
            0.0036013010520230078,
            -0.003698710864450783,
            -0.0013989758927579997,
            -0.0023133250886073625,
            -0.007131671480416124,
            -0.0022566173240905754,
            0.001866005655629219,
            -0.005485106706352478,
            0.0022830237776132693,
            0.00866413344700908,
            7.172478020759266e-05,
            0.009316010451810004,
            0.004937440399316321,
            -0.009912744167295286,
            -0.0022287809543023286,
            0.009830785498239725,
            -0.008047246647930273,
            0.0008623098173197487,
            -0.007789985413538414,
            0.006362890477507399,
            0.0009523221078759464,
            0.0006147563809355168,
            -0.0034253258578261525,
            0.006642079859880147,
            -0.002587044257404546,
            0.00844937486048817,
            0.003723734844398539,
            -0.007211292547840871
          ],
          [
            0.006013304914548944,
            -0.008510599447471737,
            0.0012876937268801601,
            0.006274245500663532,
            0.005708826193823179,
            0.000599612063091035,
            -0.006939224925709278,
            0.009300155974736718,
            0.009845799677648088,
            0.0006562297443143729,
            0.009891842796506279,
            -0.006294533465787112,
            0.002511832130823794,
            0.0006684948703616143,
            -0.007863394828339641,
            -0.0023757891553038363,
            -0.0023230634589168657,
            0.007083162709587384,
            -0.008294338701792628,
            0.005084621086256773,
            -0.005616528630256532,
            -0.0011326996534361323,
            0.0008715531065198028,
            -0.0013913953340426086,
            0.007950826308609308,
            -0.007680875907598064,
            -0.007926862952111613,
            0.005611227106818006,
            0.0026463141782800295,
            -0.0012874390160000256,
            0.00706996019978823,
            -0.007793379601309006,
            0.008584235667063745,
            0.006906429167569974,
            0.006945357371845297,
            -0.008363658680215578,
            0.0020871551353634312,
            -0.008063582287941788,
            -0.0033075383100808647,
            0.008314041699202048,
            0.006766136866779089,
            0.0003545382332225475,
            -0.006497564539901651,
            -0.006692440046811116,
            0.0015267696182345125,
            -0.009710099468633215,
