{
  "layers": [
    {
      "type": "RNNLayer",
      "input_size": 175,
      "hidden_size": 64,
      "output_size": 64,
      "weights": {
        "W_xh": [
          [
            -0.07355464752556515,
            0.012822981399607485,
            0.3638901798226324,
            0.17043120316031302,
            0.022083908968474047,
            -0.26392772787055685,
            0.03820423858413128,
            -0.021409623157925325,
            0.0805235785210583,
            0.005123900458388522,
            0.010093688735972911,
            0.06428009114783591,
            0.0466094851816866,
            0.2851333048812164,
            -0.08432355769751161,
            0.03292632507532999,
            -0.10420958620104946,
            -0.3277478372696412,
            -0.19665998857802142,
            -0.2670509451125852,
            -0.05189999916056194,
            0.06753741428231892,
            0.010744325340119432,
            -0.06096383994275166,
            -0.011923735246471404,
            0.1684295426266769,
            0.28020669052273245,
            -0.0009943413505883703,
            -0.0624485739490887,
            0.02634151719828821,
            0.012975755996382482,
            -0.01161430472971984,
            0.12135894597434205,
            0.0035583206089167124,
            -0.08447236165790621,
            -0.07239547532384379,
            -0.06335800630787182,
            0.004031306155677224,
            0.057177296465237865,
            0.13092533975960405,
            0.1518262531095683,
            0.0008040831884036543,
            0.0687786114473032,
            -0.016840665431018573,
            0.00037247770879294206,
            0.0326228653279348,
            -0.0018554602248968682,
            0.16470598838407052,
            -0.03165935138047662,
            -0.0751684392103654,
            -0.024808466851940443,
            0.07468421462432571,
            0.006956993439351841,
            -0.007236742279621691,
            -0.056600233414920195,
            -0.010454223749715455,
            0.06450061475788489,
            -0.02248721316825797,
            0.03415188545694012,
            -0.041151891139633814,
            -0.025634951755024768,
            -0.03577932441426721,
            -0.009186512527544322,
            0.1165848462857872,
            -0.060130035553916286,
            0.07232323790040589,
            0.05989449277525892,
            0.06171355581224093,
            0.07964312651191377,
            -0.04944046416972329,
            0.0509459597027863,
            -0.022795002930578796,
            0.018766771094467158,
            -0.06435635310910354,
            -0.07091180309299243,
            0.05214867164774019,
            -0.0298593595168,
            -0.03186742725488817,
            0.030718430182918963,
            0.04989858141326915,
            0.03122577269116132,
            -0.07238188556688822,
            -0.062409634504595496,
            -0.07296588795427016,
            0.05165373213468631,
            0.06814637708940095,
            -0.02982855231553659,
            -0.033083355119167754,
            -0.07208123151737239,
            0.05995490487528586,
            0.02234223568505654,
            0.07505881278428607,
            -0.04620532237463354,
            0.010511212551342006,
            0.033791631842706546,
            0.07242824620812051,
            -0.03414400010513745,
            -0.04520328124970162,
            -0.0010623400719792704,
            -0.036828253859800285,
            0.06739709918057517,
            0.05771694095196635,
            -0.034885592658258226,
            -0.045786719207194834,
            0.02985069537732378,
            -0.0007771779166944187,
            -0.02672909655447269,
            -0.21892358820092778,
            -0.05237562341915436,
            -0.027450771185726024,
            -0.1556319760398267,
            -0.03375004254373191,
            -0.05825693967224356,
            -0.0378410501999515,
            0.011329798033330701,
            0.04039887207844087,
            0.033301188257183395,
            0.0672473645756848,
            0.02103911827603246,
            0.029256800194299243,
            -0.053901762609193646,
            -0.018572032999404853,
            0.07304373376449237,
            -0.0425559959910413,
            -0.04546825979611916,
            -0.04454598546821546,
            -0.03748533074576431,
            0.012831786754240071,
            -0.038455760228758136,
            -0.07209747568794392,
            0.012197083228479441,
            -0.01913548684050087,
            -0.02323753503472232,
            -0.00125127065676095,
            0.031264406440796144,
            0.014761487154552208,
            -0.013958487826146511,
            -0.025135434158322645,
            -0.030852242341105444,
            0.07025928811498312,
            -0.001699632902731521,
            0.0019936865196265308,
            -0.022854784081707387,
            0.04871579877809379,
            0.028884730435399422,
            -0.030452463349219035,
            0.023719870935771825,
            0.025893724627853762,
            0.07449422618578887,
            0.0015262828807625362,
            -0.053400045311781275,
            -0.06245017145690561,
            0.014668657419481215,
            0.043334291404061975,
            -0.025565366010499274,
            -0.04243748771998563,
            -0.06326421250841999,
            0.06758377642817405,
            0.06416593960789789,
            0.025794008857158476,
            -0.06067615385213927,
            0.03931160855264347,
            -0.016988037157601416,
            -0.004200485051728611,
            0.07442951650977055,
            0.057840264529066,
            -0.07022513370014222,
            0.04813542072815574,
            -0.022352480480530894,
            0.01627662954219887,
            -0.05313003881923781,
            0.043311367489288405,
            -0.36361517294538814,
            0.021788107891503136,
            -0.1422666425674881
          ],
          [
            0.6607896502930468,
            -0.2156461364148744,
            -0.20417414779733528,
            -0.0733573917559353,
            0.32079263839161476,
            0.2553494964170418,
            0.08094931092088765,
            -0.08120412636920095,
            -0.06723978028467122,
            0.02641245669905734,
            -0.07026724295264379,
            0.16975083674084293,
            -0.049117099084350205,
            -0.23815800256329264,
            0.62810213858301,
            -0.12556312794446878,
            0.09266745995176677,
            0.5806417878501018,
            -0.7629908416584995,
            -0.2530250002522659,
            -0.044551665662780945,
            -0.40898910886563306,
            0.00526568615755986,
            -0.054707776785648046,
            0.060571354291739085,
            -0.06978751842751722,
            0.19335410912353335,
            -0.11529869281176167,
            -0.1750403200499435,
            -0.06834395661475386,
            0.1733186850060876,
            -0.08929843527603633,
            0.13905168914354743,
            0.018177710114461287,
            0.5549958483711709,
            -0.03123989048816079,
            -0.013257308821829877,
            -0.01949329456940512,
            0.16043417328838935,
            0.3471822908049426,
            -0.20117866956066993,
            -0.0867635803993322,
            0.06183990572766966,
            0.0721393486876807,
            -0.1670360462062056,
            -0.29916558774628055,
            -0.006959860150970942,
            -0.13162147742228403,
            0.007637259100198482,
            -0.06718700535776605,
            0.011218452025362563,
            0.02611473794678887,
            0.06857080453197574,
            0.02367022350388069,
            0.0314125597428348,
            -0.06980892445184773,
            -0.021113775108849764,
            -0.05411804144637719,
            -0.06905762754407531,
            -0.06288576034907156,
            -0.021677764612946168,
            -0.03822218106828423,
            0.09261673048254963,
            0.20989772664393927,
            0.03951598150001097,
            -0.04381804511725095,
            -0.0074131721505082265,
            -0.02487709663281415,
            0.24891944786106443,
            0.07211889309273793,
            0.04868292141058139,
            0.06890810238909477,
            -0.04151840428056517,
            0.03743085393307445,
            -0.0043618373382938586,
            -0.00433908111282616,
            0.06359928754383783,
            -0.031688181876672744,
            -0.04056894046466385,
            0.0750952599603809,
            0.004911664719805406,
            0.02329769194578435,
            -0.0021087700600445347,
            0.038563484032713674,
            -0.06656351951812706,
            0.025465770508989058,
            0.0011187877584885875,
            0.019323837037023534,
            -0.06732899478897034,
            -0.06149369145487157,
            -0.03266364240582867,
            -0.028187825315812126,
            0.055581679059779385,
            0.03947078932666215,
            -0.007217680665531369,
            -0.06427079614202194,
            -0.012028099481277907,
            -0.05227157245555837,
            -0.24352964848926817,
            0.015285005862256437,
            -0.002187641004892868,
            -0.019556533639171696,
            -0.06429199329354876,
            0.036810968131751415,
            0.04136675635232151,
            -0.016836857645325533,
            0.02130906390430161,
            0.212462250994235,
            0.007065119035018913,
            -0.07499801225950437,
            -0.08624356962514558,
            0.06929386385611351,
            0.038320059899300096,
            -0.06918901816108536,
            -0.03727676397004947,
            0.051630780546360486,
            0.0011409990513747553,
            -0.017365128295411016,
            -0.05973676621286306,
            -0.02463297144896725,
            0.01399058595359072,
            0.04112694903841828,
            0.06384241541563766,
            0.003992388368127375,
            0.053517865635735754,
            0.021945563654314743,
            -0.006461286811515837,
            0.018598558528950787,
            0.03347939152390869,
            0.055106838226735774,
            -0.007024994030769158,
            0.001430187154908974,
            0.016520351112203957,
            -0.01565880926722156,
            0.04748240548575847,
            0.06110058498554581,
            -0.0033190824106129058,
            -0.06308200061949333,
            0.04606892596919947,
            -0.020777913698179225,
            -0.056092460090401655,
            0.06772145844219375,
            -0.026418631688198753,
            -0.06431600461142208,
            0.026939245161058264,
            -0.05858194917158362,
            -0.03557949953017222,
            -0.013934641497491393,
            -0.05393140325321462,
            0.020122201617129715,
            -0.007055856485819703,
            -0.011456361102659143,
            -0.04848585958493999,
            -0.07134323533113356,
            -0.0135157173809509,
            -0.03032467081961003,
            0.006490283832113419,
            0.0640542627399986,
            -0.034366190466592686,
            -0.005169784731885785,
            0.05506412340953344,
            0.047986953624549855,
            0.03551143615167761,
            -0.05141597820548205,
            0.006288617259155013,
            0.042440743121043456,
            0.03884628974667925,
            -0.02814456988382289,
            -0.03212952011703812,
            0.03660934110002127,
            0.03628989643200409,
            0.027520452782709343,
            -0.33168401553159693,
            0.06001554836918839,
            -0.029267000493448946
          ],
          [
            0.019549320726559273,
            0.3112726169614802,
            0.20058588588018145,
            -0.19561018944259678,
            0.10264141721331918,
            0.08137399458677387,
            -0.12361191999257594,
            -0.041882844986381756,
            -0.6443427330272675,
            -0.025976104545123467,
            0.03883502141770637,
            -0.0010463267714639168,
            0.450976084036977,
            0.17749117864972733,
            -0.30833621924006893,
            -0.1281975152630791,
            0.07953696147019522,
            0.12411139549086693,
            -0.06033296342312212,
            0.41333180011413045,
            0.41471964238262976,
            0.07732129068477922,
            -0.0004909149111622796,
            -0.035283743837741785,
            -0.052291942382051926,
            -0.20758861035020137,
            0.010570363917404213,
            -0.17517742447727583,
            -0.11361259991096438,
            -0.1637491432167615,
            0.39171064594579164,
            -0.024068684572179082,
            0.2761085452032025,
            -0.050828149145371426,
            -0.3622150403969275,
            0.06555197093445493,
            0.030316315985879458,
            -0.0505525716941403,
            0.19211656668246985,
            -0.45635963579947353,
            0.13048378665741953,
            0.03770297964823338,
            0.06966095680542118,
            0.025350300693346955,
            0.10962512066724515,
            -0.03729504753684304,
            -0.012811251152950204,
            0.08866526203723128,
            -0.038443418090253104,
            -0.06976016649226915,
            0.07006431982911916,
            -0.0006122047704811562,
            -0.07105771425561232,
            0.05974191711898756,
            0.0038116830515674133,
            0.0631356701413734,
            -0.0018574033745039492,
            0.061112279928741756,
            0.02420311128248516,
            -0.05016488837248566,
            0.002896569843272148,
            -0.055720140842309036,
            -0.09146568589249511,
            0.46262203628135373,
            0.042657782212994225,
            -0.003258158152447399,
            0.005715960334827325,
            -0.07360070781493819,
            -0.12000304382339584,
            -0.022685197758673524,
            -0.07072785065814677,
            0.05263066484792399,
            0.011193916619350208,
            0.021172667947771465,
            0.0036747900695959373,
            0.03662243483474603,
            0.06034397210174865,
            -0.07137733729203745,
            0.06190626948407617,
            -0.04239818220338834,
            -0.05617548142137433,
            0.03149072278976589,
            -0.00593951959611036,
            0.04123722240644645,
            -0.043743119142531886,
            0.03803176613741385,
            -0.015315732180216333,
            0.07245880158282593,
            0.0739054008476603,
            0.024435656257919547,
            -0.0408452748232873,
            0.04799864367079555,
            -0.0012563148027364412,
            0.019823922929148835,
            -0.011967873087503795,
            -0.007457170775664795,
            -0.02633273822268023,
            -0.03296112928857195,
            -0.11798551168400775,
            -0.07517941888341398,
            0.028004130113471914,
            -0.06603398113830826,
            -0.012152236181567619,
            0.016801751368092532,
            -0.01243379306809686,
            0.004558952920422632,
            -0.015745211016897513,
            -0.06582579160236608,
            0.010342232191243056,
            -0.04656561268803632,
            0.012960049112039879,
            -0.05356997489427945,
            0.06529501435161718,
            -0.038226865880803394,
            -0.012660826663771649,
            0.044292251169222016,
            0.055155158964045284,
            -0.001878546410541207,
            -0.20172051991118456,
            -0.02705638041426954,
            -0.06775855097515956,
            -0.03931657014167478,
            -0.04038295201482913,
            -0.05308039482034948,
            -0.04606334725255079,
            0.004891331474632374,
            -0.0481946653269366,
            -0.050596685605344534,
            0.06686248846380564,
            0.008776734306098696,
            0.03305602231929772,
            -0.07089122074813867,
            0.06341658635103543,
            -0.06391638080442265,
            -0.007824230883894612,
            0.020957184682908275,
            -0.03408087250835437,
            -0.05472133560981253,
            0.03412013532916555,
            0.037647061668252255,
            -0.05034521473416102,
            0.07162983537558003,
            0.032735177565198045,
            0.03197562157144655,
            -0.040820230167009634,
            0.05531602173492618,
            0.038409554933683185,
            0.031063847171750134,
            -0.0016650563515273609,
            -0.027506773558175192,
            -0.032838037953130755,
            3.4231489103198065e-05,
            0.05219526087066888,
            0.043573134395853225,
            -0.07441407712198332,
            -0.054834301661159365,
            0.07521323732597689,
            -0.05007673572110523,
            0.018133352675016937,
            -0.05284887078325673,
            0.03812999991406264,
            0.008754142635214512,
            0.031607408461515926,
            0.018706487270378852,
            0.04967189606873283,
            -0.015487326422540075,
            0.0015193868941429656,
            -0.0342777808393806,
            0.016429241131543107,
            0.06862240708000007,
            0.04381996528061331,
            -0.06717090979007902,
            -0.39183679514407155,
            0.0022607514836275877,
            -0.10167551775707419
          ],
          [
            0.32993372140313615,
            0.034252067606990344,
            -0.15179398616173498,
            -0.39534609386360076,
            -0.22498134245454027,
            0.3342643130068975,
            0.056289743924400074,
            -0.08525045101264452,
            -0.04205130874827379,
            -0.024387195932527,
            0.05121858393600552,
            0.07510969065561235,
            0.23202527042480536,
            0.15280216344624586,
            0.1512135455094343,
            -0.09800331832714883,
            -0.048706255916380815,
            0.09662657939856717,
            -0.40871667245106563,
            0.05568850030640854,
            -0.15664379109895282,
            0.08037879009112059,
            -0.04523427913980243,
            0.046125586364082566,
            -0.0692697528141686,
            -0.24723381874197223,
            -0.24118912824892758,
            -0.2898695724089498,
            -0.03149252487141005,
            0.08746302974374177,
            -0.159929686834876,
            0.11073902526416517,
            0.03275145993194825,
            0.010367718698125195,
            -0.13434906756575893,
            -0.011964962922678499,
            -0.04287114950738752,
            0.10819173615060618,
            0.09909674468628926,
            -0.05184493825143594,
            -0.14717927101770764,
            -0.12115683168568221,
            0.07038723962019634,
            0.025020430267833224,
            0.22874451233505433,
            0.09760066223566125,
            -0.04581709678043537,
            0.24474129596935856,
            0.05249862060046616,
            -0.005683298275602183,
            -0.017088866133348077,
            -0.03134724194288981,
            0.014575824865542972,
            0.00768472304172052,
            0.002893792243962204,
            -0.031875192684852886,
            -0.013012193723016319,
            -0.02522181876659705,
            -0.02590956052527845,
            0.026385209454208594,
            0.00765031131292572,
            0.06977791064438939,
            -0.20036379628705125,
            0.21526483382399253,
            0.029316610959209385,
            -0.017817664592545857,
            -0.0278254396776407,
            -0.07542190354633663,
            0.015674375512081045,
            0.07034500950994284,
            0.07500322641604094,
            -0.060811073353479565,
            0.06686039299058961,
            0.06742058486478418,
            -0.0260494393920968,
            -0.055224495834158796,
            -0.07328410132206999,
            -0.04651961133502483,
            0.03205437993126285,
            0.026347472367161243,
            -0.03170399844761683,
            0.06315315100091996,
            -0.06092116012989226,
            0.04118433009137332,
            0.0019762942875412304,
            -0.011202933859589273,
            0.06688922392019937,
            -0.019105002449563313,
            -0.048099804429377654,
            0.04044949608931803,
            0.009747130778857652,
            -0.00806201172758382,
            0.04972324610767749,
            0.026748307712316288,
            0.2242377609534505,
            0.053604121570190386,
            -0.03701776345424585,
            0.007423665592696818,
            -0.07955477336144776,
            -0.07089594594352167,
            0.03068440015491386,
            -0.015723223538257593,
            -0.07490946240330973,
            -0.05506895524495551,
            -0.03140217029148963,
            -0.006283304546294735,
            -0.021842299820820234,
            0.23863509426222346,
            -0.04968599353927472,
            0.07058165820618713,
            0.04308446464649635,
            -0.0544438250603674,
            0.033017148829673826,
            -0.016255405205179208,
            0.004658155864344482,
            -0.05642803425093046,
            -0.05820589638197321,
            -0.06873891220142148,
            0.20020018151827543,
            -0.022093758335862863,
            -0.03626643009256898,
            -0.06942714626027266,
            0.028058985649315513,
            -0.007212681720884934,
            0.04119781300069403,
            0.03951368787442448,
            0.02572682196525103,
            0.04710532563883954,
            -0.03449868802811602,
            0.03965096603883214,
            0.06214339068983711,
            -0.015336481882793768,
            -0.04024721992540339,
            0.048569913522196625,
            0.05948145591107855,
            -0.011750531851869236,
            -0.02422961072417497,
            0.06836258283743978,
            0.034883531122868586,
            -0.042247084402815986,
            -0.06911224154280426,
            -0.02795328310052024,
            -0.007797351310825998,
            0.0752746117163907,
            0.05633857855140657,
            -0.006813020692615565,
            -0.05769690821088965,
            -0.006895260966867198,
            0.060341736593457526,
            0.06628774316308904,
            0.057346293647016336,
            -0.0086793414305264,
            0.06903401489288867,
            -0.02309037780719929,
            -0.043309306259276925,
            0.0011407257630186574,
            -0.003689956314591264,
            0.011077684416924596,
            -0.0004955870674874796,
            -0.07389845440064054,
            0.07373324513263556,
            -0.03702308952069592,
            0.04330332866480113,
            -0.020489149625895133,
            0.05300482831804089,
            -0.014907097477989656,
            -0.0713590356353551,
            -0.06908089955041087,
            -0.04454572266603197,
            -0.05898466159510131,
            -0.03951708100833809,
            0.004242638442471469,
            0.19646226861164104,
            -0.04973386797511627,
            -0.015788004937281393
          ],
          [
            0.024491875838486606,
            0.36976968198013865,
            0.8831932112069861,
            0.07285383366341557,
            -0.33284975901103286,
            -0.27695619325880905,
            -0.05384467154299279,
            -0.3457637192000635,
            -0.1461326067581417,
            0.043355976380709205,
            0.022905231228453726,
            -0.34446888827311384,
            0.11320187986969062,
            0.3931800388377564,
            -0.08560507478091527,
            0.0017861881095137806,
            -0.1795269738953129,
            -0.637329667645026,
            -0.1466348895363505,
            -0.07509486082416779,
            -0.21134806053131933,
            -0.08642564333611537,
            -0.05258610482739476,
            0.011869299587308008,
            -0.060170884867013885,
            0.026737153945681543,
            0.24757045754160834,
            -0.035130275451447354,
            0.1996290891026303,
            -0.1619498964337962,
            -0.49799032338470933,
            0.0012654158827894813,
            -0.11138184466351729,
            0.025226950234796583,
            -0.2200876233542703,
            0.06583090273539825,
            0.04205572080769483,
            -0.0238590048204419,
            0.24660311035528118,
            0.2830491010372302,
            -0.08213749542638633,
            0.23088426816253363,
            -0.004121101476853226,
            -0.07066749927709111,
            0.46547234279696004,
            0.12462129796237927,
            0.020704141959520445,
            0.055002512256943276,
            0.03592087853070938,
            0.045018447086949714,
            -0.03699807568985948,
            0.0708424605876352,
            -0.015146399890061814,
            0.010904918138184297,
            -0.05199673933018267,
            -0.013030300247660914,
            0.04169660685285055,
            0.04679004745420351,
            -0.057875604691850796,
            0.06795190755367579,
            0.07537536213666725,
            -0.025248713898030947,
            0.009791932656751805,
            0.25773194776443514,
            0.03441809676410801,
            0.024836469143767692,
            -0.020871669885500058,
            0.00930202849414645,
            0.029178627989600376,
            -0.019577625124005883,
            0.06221131080521557,
            -0.023299916561431523,
            0.06348921533544356,
            0.037751923155744035,
            -0.04880721073437953,
            -0.01139143735590839,
            0.05000336785288788,
            0.03206754597627817,
            -0.07199196843127342,
            0.01917801069700327,
            0.06354549799701452,
            0.02985368991768897,
            0.001518452878876267,
            -0.03237206241096708,
            -0.025126527868571315,
            -0.02652289243403727,
            -0.01066592070072489,
            0.04975404989725475,
            0.006230949454095122,
            0.0740823151114474,
            0.025184896293857825,
            -0.07451584941044986,
            -0.02228611718629092,
            -0.016777161407735643,
            0.045309718046043064,
            0.05051272650433987,
            -0.060172616559581574,
            0.05983721895640133,
            -0.003907928431756625,
            -0.04424456813738847,
            -0.012706131795090087,
            -0.005062291211319167,
            0.006839096015832283,
            0.06682327448582416,
            0.06124699127994444,
            0.013217328770087883,
            0.01135424284268513,
            -0.09282242064053695,
            -0.0006770488619731729,
            -0.03866335760528865,
            0.16996059315130782,
            0.06452729167871017,
            -0.07449290289285752,
            0.01667920574150554,
            0.03716677834906766,
            -0.03657125344870817,
            0.03690849668686774,
            -0.01426897173961468,
            0.008168874769067877,
            0.03742814798162142,
            0.034062042993835556,
            0.0269444513386235,
            -0.07490930318772825,
            0.0102013453392929,
            -0.039733042926475795,
            0.0029561643717150587,
            0.011121431405234264,
            0.05666650160446278,
            0.0510531680475793,
            0.014074419296642132,
            0.0750025351059496,
            0.0012069814855154015,
            -0.02803929190748331,
            0.0028571469540143446,
            0.003667490633043516,
            0.0647328622934857,
            -0.07140121478126404,
            0.04065445440331479,
            -0.014512201533726878,
            0.056329389245884195,
            0.04866499586401868,
            -0.011404522962862124,
            -0.025463513556569208,
            -0.06083192870495857,
            -0.07506143386613685,
            -0.018575644759337727,
            -0.0677264433460188,
            0.034656155550006104,
            -0.03237359181104258,
            -0.03647486529718436,
            -0.06552995178992885,
            -0.049493686339178763,
            0.06710403249851864,
            0.05632488597018011,
            -0.03148093518152724,
            0.013581265615710394,
            0.06816929919172023,
            -0.007849053643974077,
            -0.00957809635467552,
            0.033783817012491044,
            -0.035724232318973106,
            -0.018672736830414143,
            0.05806998939631523,
            0.0494411587222217,
            0.00316721893349646,
            -0.0072476867557906555,
            0.007293436217583188,
            -0.0219997440596416,
            -0.02305542253264125,
            0.019624130673566928,
            0.018035944976261556,
            -0.004953791426617324,
            -0.11918585597324684,
            -0.057344826323471,
            -0.2671568191063726
          ],
          [
            0.26631527618083545,
            -0.16003525316404227,
            -0.20505867659402766,
            0.01353795974636571,
            -0.19731673631927402,
            0.019133737723171975,
            -0.42765882660732657,
            0.19277500703678818,
            -0.24926552692198164,
            0.05936418219952451,
            -0.05401060086715356,
            -0.1584407651120733,
            0.16414961210672951,
            0.14603296033493945,
            0.30955754668215424,
            -0.20081198904408099,
            0.08653735401316574,
            -0.1370098069571957,
            0.2081892916764646,
            0.6591545085766676,
            -0.24606301965091507,
            0.4828815437955565,
            0.019100509242450284,
            0.06530368219213332,
            -0.05718629109499872,
            -0.5284867126366553,
            0.19866050802498764,
            -0.017124577689576728,
            0.001375893226289516,
            0.19665308052162592,
            0.4035436696901654,
            -0.0007509810345493911,
            -0.0011774572058640942,
            -0.039450800896474014,
            -0.4279125355117176,
            0.05941212711803924,
            -0.0033089485276370373,
            0.09223246832723399,
            -0.028789990651066494,
            -0.002394153929513372,
            -0.2974313599386554,
            0.2560298437815138,
            -0.07090978901852779,
            0.06154041543358728,
            0.0210621196315362,
            0.2955443102694488,
            -0.05923466748807863,
            0.08917060702668397,
            0.013846447542685034,
            -0.004365542773063433,
            0.05434558674156899,
            0.0427020882104374,
            -0.025770228475546574,
            -0.003200528594445917,
            -0.03316796037684043,
            0.027288476454513752,
            0.03033302191205693,
            0.06982013286090406,
            0.04653819122033895,
            -0.05622170604038462,
            -0.03667169347044889,
            0.024214709699768716,
            -0.2982501876197504,
            -0.11071164651891506,
            0.014408838068688715,
            0.04423593875930609,
            -0.06778012822209097,
            0.049204105378383045,
            0.16048733206756657,
            -0.06697939127583011,
            0.044692860604158696,
            0.05143700403153399,
            -0.02340568833520011,
            0.033807972740689876,
            -0.05139092351546523,
            0.0179161877767173,
            0.01629376636377096,
            0.022600001669858732,
            0.015369396109518485,
            0.06831700437514636,
            -0.009344732385558871,
            0.07330786799994886,
            -0.009692994021642032,
            -0.03204606058030581,
            0.04852229222677924,
            -0.025106605027812715,
            0.006968782841570015,
            -0.012352677552705055,
            0.018326889066711344,
            -0.04871513363681811,
            -0.014041780141322936,
            -0.07463929387103989,
            0.04790747437957317,
            0.07289702399013719,
            -0.3745536669432725,
            -0.050144744590468485,
            -0.06453323717747426,
            -0.043113667838460656,
            -0.0888936087469442,
            -0.06472328494424552,
            0.003758993799272678,
            -0.01980680702638038,
            -0.0726841113285233,
            0.0740359603253163,
            0.035787903735358784,
            0.026969843562467025,
            -0.020668367738158354,
            0.15894935563887913,
            0.038753125369113475,
            0.014749379028676152,
            0.040456592910994266,
            0.0452867377145401,
            0.005715496810315246,
            0.025394611097056582,
            -0.012080115196872868,
            0.0709514828381776,
            0.04601358798859975,
            0.060314713508431525,
            -0.026489702162459678,
            0.04095403666854862,
            0.06267875043297287,
            0.03717665005965026,
            0.05621261014288166,
            0.02486204782380637,
            0.04241678310437648,
            0.058316775292347675,
            0.037043786665834286,
            0.05482738762030907,
            0.07458776258162324,
            0.05554817389675802,
            -0.009594209715721946,
            -0.02194639551168443,
            -0.0688937748786091,
            0.03178383673860985,
            0.00722648927503082,
            -0.06921123048283963,
            0.01730818451982251,
            0.03239702392172458,
            -0.0186935602835163,
            0.01617258529563094,
            -0.06639759970048326,
            -0.04321655573387553,
            -0.02457111717893541,
            0.07423639381577589,
            -0.03328180257209316,
            0.011348543603361586,
            -0.022072317562799926,
            0.002309821502207085,
            0.035101405703789154,
            -0.05857425711069538,
            -0.07340705744493368,
            -0.06272117995440146,
            -0.07255723745412954,
            0.061582804474625816,
            -0.0663592631184127,
            -0.03225985360486152,
            -0.03683248547801269,
            -0.0713234167932099,
            -0.0037555363791197394,
            0.0054155318977774786,
            0.005306143950769851,
            -0.060477474585161256,
            0.05205517520604981,
            0.049791052715120535,
            -0.02793338630687508,
            -0.042460435306414746,
            -0.022068618587364676,
            0.03309371163518296,
            -0.04618089004345699,
            -0.06579952555206282,
            0.05015397627004069,
            -0.05586050923727147,
            -0.0821971595252733,
            0.06743710069757987,
            0.21002192688872004
          ],
          [
            -0.22428795895618353,
            0.06260384317975619,
            0.16497898738639186,
            -0.63285954323954,
            0.20813642162455995,
            0.12996612898835494,
            0.21298417412382334,
            -0.17787755218835222,
            0.4589504677570758,
            -0.03354545491292591,
            -0.050223362725478074,
            -0.8886405889560872,
            0.42382254829279375,
            0.11763088617563712,
            0.3399815531289995,
            0.2841683252048173,
            -0.2614501481231224,
            -0.30124673623565157,
            0.10325772562373554,
            -0.22079052582446632,
            0.4042562683214234,
            -0.037526115717453866,
            -0.046355073650366785,
            0.05165719434556064,
            0.0036721707775507068,
            -0.24028790862922367,
            -0.1825905653646994,
            0.17397895424740514,
            -0.029394727929399143,
            0.16248522978759689,
            -0.2722276133767475,
            -0.11746873667655475,
            0.00834048557486402,
            0.058218067671732474,
            -0.1057923111356696,
            -0.04734166955939906,
            0.015227978174041173,
            -0.05496958649065364,
            0.02530478577899273,
            -0.22588556219779718,
            0.10703011361341179,
            0.18612405395360765,
            0.05340173511798012,
            -0.0315407021660782,
            -0.11761153705058763,
            0.10884855537188148,
            0.032220290120821476,
            -0.03843609106004615,
            -0.06980429756383695,
            0.07127292799047043,
            -0.054155000101154455,
            -0.05316796421780552,
            -0.009058704661654815,
            0.061532002957589135,
            5.110799623542217e-05,
            0.03332678151373736,
            0.04473121407580884,
            -0.07323949433666428,
            -0.07302712148968828,
            0.04317294602377146,
            0.010566016210080215,
            0.022348505378827266,
            0.06866761782995841,
            0.5339638144329341,
            0.04228103814853594,
            0.06326458285613305,
            0.022923636525183574,
            -0.058145489872989245,
            -0.1965647443569861,
            -0.016706965440687643,
            -0.0416032862479131,
            -0.06397862369819725,
            -0.06356608614250184,
            0.010498944755398018,
            0.0043376963854308975,
            -0.043169564455105086,
            0.049143672636945177,
            -0.035729437495587726,
            -0.023229001773110013,
            -0.060031144895149796,
            0.006977258417116591,
            -0.04587302849106323,
            0.06088420485903877,
            0.013543165877447472,
            0.05654633157791232,
            -6.379064521851163e-05,
            -0.02401553780179303,
            0.05947974226827228,
            0.0746987303462427,
            0.01852645609826324,
            0.0548258973017947,
            0.03181767011923775,
            -0.054788260896106396,
            -0.011331674408748035,
            -0.03388492265266807,
            0.046571376739464945,
            -0.05516495781952582,
            -0.06029502709951347,
            0.033464670564443896,
            0.033399148796732794,
            -0.015447873011375755,
            -0.020872008133221376,
            0.009283444286779102,
            0.0341688333108737,
            0.07113429890291019,
            -0.07545711528564351,
            -0.06743568540905787,
            0.08176588944930707,
            -0.01060954547604287,
            0.01241690366284963,
            -0.2960225635024549,
            0.01694653000384884,
            0.019979783078771823,
            -0.05588064533868927,
            0.036116074423510086,
            0.06944707453187533,
            0.010405807472927589,
            0.04941617744311631,
            0.010803974414877272,
            -0.011137984566093037,
            0.057350327596332476,
            -0.01212704501737677,
            -0.052071733106885884,
            -0.035112868114360644,
            -0.02107416658901705,
            0.009608860553427176,
            0.006328810326120038,
            -0.049672929743240245,
            -0.0020511966754955674,
            0.06604156997967807,
            0.04947929297035465,
            -0.006259473171295549,
            0.0628615225147079,
            0.021709117835974664,
            0.028925775439360243,
            -0.005886864541887707,
            0.0628410065661535,
            -0.061545939905916114,
            -0.07552743295081062,
            -0.040101534917583004,
            -0.036877385902247393,
            0.06889983489093061,
            0.035096341676533194,
            0.0581211287197894,
            -0.022014155546495544,
            -0.057704990722836816,
            0.03175878985569365,
            -0.01910503012366449,
            -0.06091125145537139,
            -0.05293752991615634,
            0.07251728719299076,
            -0.059805908763776124,
            0.05300737826986367,
            0.017411395106766092,
            0.014179659320674887,
            -0.04457103848905412,
            0.06359901863974925,
            -0.02713950387473666,
            -0.032677541723789484,
            0.05432870343112685,
            0.01152862386009973,
            0.03893485971923617,
            -0.03094136461941862,
            0.03571370962362434,
            -0.06958236167366792,
            0.03016826136821263,
            -0.042953526204786534,
            -0.039793262090912676,
            -0.06639853083050526,
            -0.018449743317680664,
            0.05171803952121305,
            0.06383712082169775,
            0.19965665684233913,
            0.03561011251314593,
            -0.10128724906077122
          ],
          [
            -0.2803800222862079,
            -0.10619015504264198,
            0.05205774393552104,
            0.13666663457785766,
            0.060184562932748556,
            -0.11052174681438723,
            -0.13233065401421545,
            -0.2496913700441432,
            0.1599516451419756,
            0.07303587767550367,
            0.013477321511919008,
            -0.24657588193337507,
            -0.01563589758605518,
            0.07225865530288882,
            0.2420959594699443,
            -0.05286899202155254,
            -0.07413591525733396,
            0.09115378456123813,
            0.2266001317850976,
            0.15694943813012002,
            -0.12886053289990185,
            -0.023418250971106978,
            0.06657639345668352,
            -0.03732286557166229,
            -0.03389914476853348,
            -0.03759170301557932,
            0.005462253484197683,
            -0.12183545482066976,
            0.038125668991088574,
            0.0470293734800286,
            0.13603742114076878,
            -0.04926775887669495,
            -0.12298037239246087,
            0.03606348569412132,
            0.13227492880260192,
            -0.05600812039100572,
            0.06092993479532395,
            -0.02279079187396164,
            -0.07111229411995597,
            -0.04256191314934102,
            -0.0004159870444472352,
            0.17417115542699227,
            0.04344391487376614,
            -0.01801830554456242,
            0.2008318404384577,
            -0.15065726386791475,
            -0.02514898523401881,
            0.03265811006032843,
            0.05201257506387273,
            0.0005913001326473544,
            -0.07272628350348305,
            -0.0016221710853750737,
            0.04033690367890236,
            0.015254606597519163,
            0.0524748274398731,
            0.07530858364251937,
            0.012959541924097956,
            0.003742570086560898,
            -0.020996640283849566,
            -0.05344295311269164,
            -0.07206169035786077,
            -0.011531698223590181,
            0.19237523839523876,
            0.21419861116335326,
            -0.03978453891986029,
            -0.00805630836995573,
            0.049182044280884185,
            0.03397526128035047,
            -0.06725278896994392,
            -0.06687234678794471,
            -0.044336417024866605,
            0.006376435242577194,
            0.04898660031014945,
            -0.026673578675087378,
            -0.006287734843774706,
            -0.06719677229897161,
            -0.013413898577304552,
            -0.022266967545221818,
            0.01841672147700918,
            0.00597254286282653,
            0.0444258218690136,
            0.005003129486899863,
            0.07419254864285547,
            0.02770812071127772,
            -0.06786212040544153,
            -0.06312521296272189,
            0.028101592388021734,
            0.07521769258768733,
            0.008027490406066068,
            -0.006377062108678486,
            0.057833382189674556,
            0.049338590463126386,
            0.021809072193415435,
            0.06658784702498056,
            0.038598725604262016,
            0.04645813647142065,
            0.0600475014814036,
            0.051464770667358536,
            -0.060874340676120804,
            -0.06532075710402398,
            0.010440950162020887,
            -0.03369014318719562,
            0.055349786463785924,
            0.05021327432427623,
            0.03527804019197202,
            -0.028504976126994985,
            0.010824001221543547,
            0.03366798350805987,
            -0.01427794779088868,
            0.000518616461949617,
            0.13614964221756443,
            0.06223022822161571,
            0.06475242920497663,
            0.06736855851312305,
            0.012945308835939556,
            -0.04019103228897799,
            0.04649705803822697,
            0.024595163240936066,
            0.05605229779852497,
            -0.03254920690555329,
            0.0038822198993902907,
            -0.0631180755733196,
            -0.04282428856235335,
            -0.029101708133375863,
            -0.019299619434432258,
            -0.02296377000746673,
            -0.02455382822292046,
            0.0010009498406937656,
            -0.027957591299897604,
            -0.07536634753815319,
            -0.04206652874106098,
            -0.04645144414379966,
            0.047953387366226466,
            -0.06530944107587623,
            -0.039915584420795736,
            0.03174403478617331,
            -0.03461182444573162,
            0.04547861862473969,
            -0.008567734342818129,
            -0.04446858939913049,
            0.05188940779907521,
            -0.061274561073030955,
            0.03902166088454248,
            0.04754022088861257,
            0.03242649417287652,
            -0.019131989998274562,
            0.05075986401947512,
            0.012047129678503729,
            0.07457009302565575,
            -0.024138395788778397,
            0.07255979492091978,
            0.018963633526700927,
            0.016239029842175498,
            0.0693928899039808,
            0.00015413817860590595,
            -0.012653275906223116,
            -0.06668661629050036,
            -0.04611076893859759,
            0.012639417602422182,
            0.006855477869980822,
            -0.010614018191223415,
            0.07242923173373096,
            -0.038687698989960606,
            0.01963223921253507,
            -0.06270813993200162,
            0.058331311605140365,
            -0.02313617141438573,
            0.07279921948613056,
            0.07262478128132897,
            -0.019564929399324416,
            -0.0732645670223514,
            0.022898388199027855,
            -0.23540390781875356,
            -0.032546613408932105,
            -0.19800186924822535
          ],
          [
            0.20148491322434392,
            0.11271034580119896,
            0.05983363175230673,
            -0.7831489497766679,
            0.2663841758042888,
            -0.07927829838074883,
            0.08246601397224258,
            -0.3559022457656512,
            -0.6456915055865419,
            -0.02371795722881593,
            0.07073727109617876,
            0.05771543792670953,
            0.0023409858029461673,
            -0.06518095405763374,
            0.15210605075950065,
            -0.09748176493781409,
            0.0012811623415029342,
            0.3551144845166706,
            -0.6560412906251185,
            0.15154599727087925,
            -0.22282941830062228,
            -0.26126274957526974,
            0.0544507459016705,
            0.00974101493768982,
            -0.051930446584893125,
            -0.40978951462284796,
            0.36391681353996463,
            0.07926588719517012,
            0.1494076423398481,
            0.16224412839458474,
            -0.25646693015159244,
            0.19625909862978222,
            -0.5092891365356419,
            -0.040458216005001796,
            -0.1441464231565732,
            -0.04571143629863392,
            -0.023893103720580768,
            0.4101066629028975,
            0.32797238288148295,
            0.4924782552041268,
            -0.06156430678186723,
            0.2676671925724327,
            -0.06317966647939856,
            -0.027256120953962182,
            0.30504829237991304,
            0.05851619869837409,
            -0.06881424638184815,
            -0.3512220960592235,
            0.07150168330477981,
            -0.06930946329644094,
            -0.033752332432814475,
            0.06071917318554597,
            0.06208513361025546,
            -0.07532756599883808,
            0.03144831540633293,
            -0.06160938961501692,
            -0.06759831373223277,
            0.052782949510778235,
            -0.04368695963735488,
            0.011128830877812412,
            -0.04549413052899958,
            -0.00015656445380360373,
            -0.09843200116914427,
            0.30805267699216426,
            0.04495189231379619,
            -0.021686734624341966,
            0.02492233161229905,
            0.05508273268137083,
            0.054467549603181016,
            -0.06289799596257967,
            -0.0072770326547152014,
            0.004288075505945788,
            0.06376089338152861,
            0.0652133342564881,
            -0.07091985250211279,
            0.06498794747204494,
            0.003542789333838489,
            -0.009012872698437105,
            0.028998325778438486,
            -0.003485445753934391,
            0.017167325386195226,
            -0.07465907162527156,
            -0.0037698272552667417,
            -0.0043899315456553956,
            -0.07531235511857927,
            0.04183139916031317,
            -0.03051490327433542,
            -0.058323559820257706,
            -0.05628322715635764,
            0.031679038096141754,
            0.03603288099334727,
            0.07002805654673987,
            -0.03514660686485382,
            -0.0017504216521992688,
            0.4345635115979758,
            0.06286606649604203,
            0.04343800540161406,
            -0.05805616316015219,
            -0.021925292694561036,
            -0.004914448599666318,
            -0.058217106064213646,
            0.042817877659056244,
            0.013244170715298098,
            0.06542562080856658,
            -0.02783831997525949,
            0.07025990539038875,
            0.03433180958032547,
            -0.0029185869490018787,
            -0.0004011657906629329,
            0.03257693008792566,
            -0.1259692653224911,
            -0.047620606051159406,
            0.0265987295378326,
            0.001965407875911665,
            0.016139138079291473,
            0.014011461611052142,
            -0.012393668290319002,
            0.002286871560006079,
            0.04295119520088291,
            0.005189811949424833,
            0.0695538336328919,
            -0.055925219441301785,
            0.01905745708927438,
            -0.008517271157099951,
            -0.03939321517519283,
            -0.027652165771499863,
            -0.032988720866736446,
            0.023660555897349708,
            0.06227608656806148,
            -0.059391462087732966,
            -0.004482524228020104,
            -0.04761315897209646,
            0.06538406131198558,
            0.03547087389849547,
            -0.01697848272022963,
            -0.033815615134647745,
            0.05310361543794655,
            -0.06516501429219582,
            0.06390891613926906,
            -0.009646061031346215,
            0.07057430646606948,
            0.0042359197340797045,
            -0.039385208195053006,
            -0.005569357439761682,
            -0.014026334940338323,
            -0.0738023299094012,
            0.05750104915519948,
            -0.024857246833797295,
            -0.043627271805272816,
            -0.058281102704986196,
            -0.07109550625016227,
            0.05193854678899608,
            -0.06442603673789868,
            0.04769303142306937,
            -0.03209296967668011,
            0.015957056775842235,
            -0.03805021464702827,
            0.06672405625044413,
            0.07110779096760962,
            0.052775525757963224,
            -0.06766331130235782,
            -0.044909920975542736,
            0.0023517455737560866,
            -0.04912303326962651,
            0.054635449571596925,
            -0.026458197607240552,
            -0.006411108197843143,
            0.00017572844750900207,
            0.04596696837168372,
            0.029671885541454196,
            -0.04255769076552241,
            -0.07142429879943597,
            0.24356241554942717,
            0.062322778352985456,
            -0.07508577388525552
          ],
          [
            0.1386428480697782,
            0.14030540554177992,
            -0.029372879680153174,
            0.3309764586190915,
            -0.19082073965996418,
            -0.21278255448058317,
            0.28577058241408926,
            0.20573645680309657,
            0.1968724590123185,
            0.006375484924852695,
            -0.04878385649626851,
            -0.693844854402479,
            -0.01337015032825593,
            0.04376193130134361,
            0.10534507674817617,
            0.11863366673614127,
            -0.20601419579056862,
            0.3430653112727807,
            -0.45597016862252504,
            0.06720582038249119,
            -0.2345247291620625,
            0.1050776902447392,
            -0.06969467237649904,
            -0.009812800724072576,
            -0.04933084577459637,
            -0.0636834182049635,
            -0.12560873218403273,
            0.044926888074807846,
            0.0845669515580498,
            0.2700294680210548,
            -0.7206728899806599,
            0.10936291270557545,
            -0.0226585942281881,
            0.006606118273511416,
            0.06879618886005812,
            -0.05013631359378316,
            -0.012740915383693749,
            -0.21852820953313143,
            0.12664084137957102,
            0.18121662894196192,
            -0.17861752268141737,
            0.09067199215715788,
            0.061146469065666356,
            -0.053817835856312404,
            0.30121381153020327,
            0.051149534284119905,
            0.01364553447895557,
            0.15507976215755598,
            -0.07214043998622154,
            -0.03018311420205253,
            -0.06104993193920404,
            -0.016005518799141735,
            0.008563287281125292,
            -0.04637953160486708,
            0.019032752979622466,
            0.05933665198885664,
            -0.05828808761537058,
            -0.07473934365426232,
            -0.02531585479331914,
            -0.044732129524782976,
            -0.001077126422423677,
            0.06970265565071322,
            0.17561885673762515,
            -0.11344806474520683,
            0.03973551716501339,
            -0.03988626037662968,
            0.0745050827158374,
            -0.015670941039438474,
            0.19736701499835987,
            -0.0011325498126189965,
            -0.07393704066851534,
            0.06288799669352858,
            0.06514097982562271,
            -0.017037993941231587,
            0.029181282008404724,
            0.0030749437900323834,
            -0.044698530800653676,
            -0.008090039512730185,
            0.0006078562906429302,
            -0.005755553189299267,
            -0.03312108378120556,
            0.07528000016967905,
            0.0165003624677018,
            0.0619208932847357,
            -0.007471428357449267,
            -0.030418210947549665,
            0.024615657988928258,
            -0.010033087125093543,
            -0.06536261246410786,
            0.016030915673145935,
            0.0682672189652971,
            0.06241755736410455,
            -0.011141264163698872,
            0.003511235255958395,
            0.2854880051760763,
            0.018569335542559184,
            -0.014301845130540433,
            -0.051788168123279466,
            -0.03679077238190792,
            -0.02738241352777445,
            -0.021280172299628794,
            0.04596154780338234,
            0.013362822297982427,
            0.028558213708288108,
            -0.014408152257883097,
            -0.00023388118007366954,
            -0.02539592757249963,
            0.07340809725102335,
            0.05313187588433428,
            0.046778687370870084,
            0.26589465307092086,
            -0.0031570180578022605,
            0.005227115790494785,
            0.07178764897520977,
            0.005312773018095476,
            -0.0367853690724845,
            -0.07255136999314642,
            0.02284783551023571,
            -0.056910245128772935,
            0.0005110211430946754,
            -0.02179029910242917,
            0.056550063815362275,
            -0.07211304742990471,
            0.007668780068156009,
            -0.021587170889609666,
            0.07324286882514246,
            -0.0361282622856515,
            0.047257752036265366,
            0.026099096855883186,
            0.04405672410758092,
            0.06354032885442891,
            -0.025926417570235033,
            -0.0005027129843909739,
            -0.0559504901917647,
            -0.05957755853745042,
            -0.03559580771845184,
            -0.04441152737165803,
            -0.07215047570502871,
            -0.05880971084413379,
            0.02166792542167789,
            0.03403333256744602,
            0.060253232671130794,
            0.0017655938528149534,
            -0.007208013491022486,
            0.05758790990527472,
            0.0328809800500955,
            0.06884113063956267,
            0.07147675184057238,
            0.041652271694829365,
            0.06983313124695294,
            0.05935191913743455,
            0.024006816080176824,
            0.04995426048244771,
            0.038042601984700844,
            -0.06772361249838056,
            -0.028777297907372067,
            -0.01045552566912053,
            -0.018780901009677747,
            -0.04096030550634777,
            -0.05695806425679467,
            -0.02280431595621015,
            0.02740659530886061,
            -0.05075239998337036,
            0.0013787465567934726,
            0.025963589743216622,
            -0.06373864177217778,
            0.058817625780986996,
            -0.014958772169753234,
            -0.039823291053316896,
            -0.04495739597566973,
            0.011489121071887501,
            -0.0709500493531148,
            -0.2994946115189851,
            0.046750832788053795,
            -0.2135333254363311
          ],
          [
            0.31190184157058315,
            -0.02767302246919764,
            -0.3377909442417654,
            -0.35835747414840646,
            -0.12339391133958173,
            -0.0713383767379207,
            -0.035789239052365376,
            -0.08506874508723913,
            -0.024279327083556373,
            -0.01381979954556093,
            -0.0730788081902255,
            -0.002924059903625371,
            0.10674669262892018,
            -0.057996973977601944,
            0.7991604521432822,
            -0.35205243283957294,
            0.274093388088326,
            -0.46244992949400415,
            -0.09613690918978235,
            0.35511723388225774,
            0.2481251085058999,
            -0.42551302076443576,
            -0.051353931252937864,
            -0.04208900503863462,
            0.06183127049992855,
            -0.28223043387437863,
            -0.06729343584871184,
            0.09130846402098411,
            0.05152416973625984,
            0.1734803994492789,
            0.34840742218511167,
            0.13352344039503408,
            -0.12260575082141188,
            0.0705327728236128,
            0.12792627062411469,
            0.04003969697456808,
            0.07184211946333662,
            -0.24764802879442038,
            0.025082531234697326,
            -0.3111820326734228,
            0.1538405357354732,
            0.098595463274441,
            0.030583141985669443,
            -0.05471326636102716,
            -0.04423709125863043,
            0.3295518167611603,
            0.06820313163006823,
            -0.24615925900855315,
            0.0729252450922342,
            -0.06598236589848865,
            -0.009298771661768332,
            -0.058200206552833776,
            0.05014143466598246,
            0.04946530722991867,
            0.05929512923888043,
            -0.010043826071488085,
            -0.04327632749239104,
            -0.02209074837573008,
            0.05822849496629269,
            0.059510693852732346,
            -0.009499793380487329,
            0.06254267530600656,
            -0.11961612444909382,
            0.48283379652343483,
            0.04317770499805519,
            -0.00535712698732968,
            -0.025590103978496516,
            0.00918858198268771,
            -0.07502019224040163,
            0.07463301760099424,
            -0.017279487778493738,
            0.058520815170422555,
            0.03589689184784235,
            0.008368764511776303,
            -0.053207726011890805,
            0.051652043707601944,
            0.03796195367523898,
            -0.03359600598234021,
            0.05995052568814886,
            0.05185141977544362,
            -0.036973705168483,
            0.02389503235851148,
            0.0082728581277145,
            -0.012407503022970598,
            0.007362753182917237,
            0.050991887281204615,
            -0.06738462380580743,
            0.0551168409704101,
            0.02881305023952213,
            -0.0237257997440671,
            0.016833124876206654,
            0.05526732770048341,
            0.06679951393679011,
            0.07218756959938648,
            0.11721178754616168,
            -0.0406727157839639,
            -0.018620173868855103,
            0.015753299316899713,
            -0.0751392354223667,
            0.044227586301601424,
            -0.030805810534934516,
            0.07234899278932137,
            0.009116956035410906,
            -0.003833994242769631,
            0.06234544018472969,
            -0.03533299135180397,
            -0.03314963123277855,
            -0.08224549582172726,
            -0.07331058848958184,
            0.05500120795583631,
            -0.11361915450071892,
            -0.02830798431277265,
            0.04134925537317555,
            0.0052438570869409035,
            -0.017165979712276964,
            -0.0070928883329165054,
            -0.03416276826004368,
            0.03644914432592797,
            -0.11798633337608068,
            -0.03708943709192057,
            0.033994792560128675,
            0.048293444816074504,
            0.02802239836291577,
            -0.007352757846507477,
            0.032178243166170725,
            0.0025242976151642754,
            0.05736734889795532,
            0.03687740865995799,
            -0.06378927975327243,
            -0.04963880747900272,
            -0.001894249689304836,
            0.06086794753290649,
            0.03940082397408305,
            -0.010815876934793217,
            0.033372663947780296,
            0.049085283835040835,
            0.05199753560433183,
            -0.03675002290359605,
            -0.03230813896180409,
            0.002866382272201068,
            0.047976631378380916,
            0.053117449110073864,
            -0.06944652719073928,
            -0.06653878500439056,
            0.015295672013644707,
            0.004212120720548995,
            0.02592605037368599,
            0.05057888026047312,
            0.020330619818258247,
            -0.0723345757956593,
            0.04555082120860918,
            0.04617575529283466,
            0.0547387783331381,
            0.04550059814659066,
            -0.05469834261717174,
            -0.016851975223457112,
            0.05473087980025175,
            0.03881753568982696,
            -0.054732569827460394,
            -0.046314973155391945,
            0.030993609410355033,
            -0.032309113533073384,
            0.024093399301798227,
            0.05247678437735488,
            0.032786047783422284,
            -0.025367296882649562,
            -0.03136119580221523,
            0.04702730351993796,
            0.014204361960394554,
            -0.029146263204401508,
            0.0398772786635086,
            -0.043114251448631354,
            0.3545635045249966,
            -0.07281932447814095,
            0.32594031555269143
          ],
          [
            -0.06726340162185311,
            0.01175521364640817,
            -0.23522942824430487,
            0.6574132978762719,
            0.20550695300598995,
            -0.42598747235670437,
            -0.055798303425489734,
            0.14767325546199875,
            -0.4878724608777213,
            -0.061145158950766804,
            0.006822497170026254,
            -0.44237513232253345,
            -0.0397674911428447,
            0.04780199040544805,
            -0.025655491134786823,
            -0.02600295556855381,
            0.10143153318715754,
            0.3084403788614894,
            0.027852696945207176,
            -0.05105296032890518,
            -0.4074487277836972,
            0.5173719603803015,
            0.04910448348098334,
            0.040282204547599954,
            0.02813731804015307,
            0.10711094552618089,
            -0.17390382262974735,
            -0.10666626431415166,
            -0.04526288750200603,
            0.1715572542292081,
            -0.5335193032518347,
            0.12522066570209184,
            0.0361604727290236,
            0.04625515372060943,
            0.2711421386490149,
            -0.028424889401937943,
            0.05314274532541592,
            -0.1998407865329884,
            0.08308811424635774,
            0.2111496954053456,
            -0.5062401749653391,
            0.2816378193949051,
            -0.0340350819773453,
            -0.03284617658930375,
            0.318399710311794,
            -0.23396108883571065,
            -0.04255387884044487,
            0.270130160196377,
            0.009248061938247135,
            0.024481441568584936,
            0.02636368969134048,
            -0.0463281099212917,
            -0.013799418243775258,
            0.03140887247407438,
            -0.049435619667088794,
            -0.048178448413389446,
            -0.038676381160125,
            0.0539592459968644,
            0.0438945524579471,
            -0.03173314823511439,
            0.05141185174563963,
            0.008359324045848257,
            0.13403666858017171,
            -0.08396324075923288,
            -0.020192356054870957,
            0.028216731079810126,
            -0.06321876884376804,
            -0.00467366656532664,
            0.14432312395749625,
            -0.03828946056816743,
            -0.06598196583726557,
            0.0011698491148532525,
            0.06238959635258322,
            0.04411970880169362,
            -0.012052828686250752,
            0.04726316832763197,
            0.06957839642595791,
            0.026933719212424434,
            -0.038246553690925875,
            -0.0076626129690953865,
            -0.04626455136556113,
            -0.04589527614809289,
            0.06934527391096772,
            -0.04738997505339691,
            0.07226167596171436,
            0.06329760837898606,
            0.020974257899007698,
            0.06969345290995559,
            0.0724089964888981,
            0.062126785746719385,
            -0.04297102863105169,
            1.642125656724225e-05,
            0.009069178901537939,
            -0.01854390123851426,
            0.06878822233357587,
            -0.04529934025911761,
            0.000940920936900902,
            0.024034493397217208,
            -0.047763244319793376,
            0.0743506869514531,
            -0.05562710535093318,
            -0.0007773849596889176,
            -0.028774373077372913,
            -0.0036880206118406617,
            -0.0562415637436695,
            0.0657756772185757,
            -0.07503954663481306,
            0.015201500124833013,
            -0.037709124317408776,
            0.026153910654088605,
            0.14814212636340696,
            0.010663519367118082,
            -0.020114600006806975,
            0.05138752781305937,
            -0.051463240244882566,
            -0.0037478017739236563,
            0.012650762607407898,
            0.07211621109458753,
            -0.019559708390279096,
            0.06429587605672611,
            -0.027808522762125525,
            -0.005067857929371561,
            0.03116378194874811,
            0.051708283072135056,
            0.019258509877837532,
            -0.06692941775375773,
            0.004018536469321335,
            -0.06335929199730309,
            0.030664074147701545,
            -0.0218132090043801,
            0.016227754038960332,
            0.06633701176412736,
            0.01806404544452893,
            -0.07055602144189067,
            -0.07311675957076452,
            -0.009488061224022085,
            0.03586684741334854,
            -0.018997584251014075,
            0.021642835449830297,
            0.021744809833296352,
            -0.058195430353080224,
            -0.049583979459734855,
            -0.06064724599590876,
            0.06603254420417616,
            0.029513302797728957,
            -0.05403746491101949,
            0.013225260337999853,
            -0.043657067678306384,
            0.05949510924224839,
            -0.06918029663709911,
            -0.026901046671794236,
            -0.07094856847981074,
            0.0731888418545344,
            -0.05090127609927021,
            0.017110062567079865,
            0.009866989157872263,
            -0.07245152750751813,
            -0.010561553716266756,
            0.019659820165026154,
            0.05881590010698441,
            -0.060867454713054533,
            0.05041035373908624,
            -0.021668832496314808,
            0.04639194957792646,
            0.061399689713037206,
            0.019548428965841788,
            0.07473905770755714,
            0.04067529051311569,
            -0.016911265621445397,
            -0.048658570815203264,
            0.07326776761055505,
            0.006710716129541147,
            0.1697053191002438,
            0.0009465254651847277,
            -0.3956517461257118
          ],
          [
            0.3333813984691848,
            0.13506416166024524,
            0.21942165803862054,
            0.4376216399116345,
            0.30642553186571486,
            0.03579709428087473,
            0.13416050142233005,
            -0.03719587295413713,
            0.1483365329547342,
            0.07471683475138428,
            0.07546623155633682,
            -0.4799197288634554,
            -0.10480112941404117,
            -0.19838039344064767,
            -0.26640249604563543,
            -0.09312498705597375,
            0.1406193120538468,
            -0.26488910386264314,
            -0.39983971331004275,
            0.17169959024135115,
            -0.4777820450384811,
            0.6757678560882807,
            -0.06776469320143655,
            0.006162169975141005,
            -0.035855385707923626,
            -0.03167617846614424,
            0.1259957834149895,
            -0.07426761709145932,
            -0.11325332055372979,
            -0.008220558438728936,
            -0.3846584429192254,
            0.06685096178632244,
            0.041864915509082404,
            0.013753493778905737,
            -0.31791539574464367,
            0.0030305652774625103,
            -0.06534656549543473,
            -0.025264661457226,
            0.030967603684996802,
            -0.13337721412605594,
            -0.23967938484302884,
            0.10805922005343714,
            0.055331554954301906,
            0.07541731115626683,
            0.0995348607964648,
            0.16942460226710498,
            0.0382011017298025,
            0.15575123669928614,
            -0.03669471438643912,
            0.0009560678708609993,
            -0.02433962710228632,
            0.03630055436105235,
            0.011074037516160512,
            0.06737664048124355,
            0.003124933599428642,
            -0.02582572696142358,
            -0.044821722492825095,
            0.03159950939512769,
            0.023149053452741847,
            0.05366200258918126,
            0.02807111757280699,
            0.020267203404726986,
            -0.2831544171092214,
            0.010221232759639844,
            0.07276782199969224,
            -0.011372218896641917,
            0.05496602292592852,
            -0.04267676583568357,
            0.14469484797451296,
            -0.004092734897996497,
            0.012113721608572436,
            0.009319423519489889,
            0.028664267462298207,
            -0.024528375785819234,
            -0.005216709010918613,
            -0.020432283957364544,
            0.011639616872112929,
            0.06116011185970359,
            0.0005804124426336404,
            -0.06372786709861847,
            -0.03417572667980948,
            0.011754285439050313,
            0.0734328954038886,
            0.06224326922071895,
            -0.06852244312972916,
            -0.04909714933326419,
            0.0682069261340039,
            -0.014527429037320468,
            -0.05864677950807075,
            -0.0019278007704579964,
            -0.011971782998631636,
            -0.042744011198267005,
            0.012883677957071668,
            -0.06272433354353148,
            0.0019448872044962385,
            -0.03062938995545645,
            -0.007908213101875367,
            0.0197357630944274,
            0.01979720505827963,
            -0.016185854185842577,
            0.05792988044909163,
            0.017184775078622885,
            0.00880473920062691,
            0.050277995037538506,
            0.023369204286404974,
            0.059864171229867716,
            -0.018502100979037664,
            0.22458048424590454,
            0.010295060571311715,
            -0.05869021414942491,
            -0.11142060459776411,
            -0.06759388850373028,
            0.06056884209703346,
            -0.056863792323783476,
            0.042846786324364686,
            -0.04247997557081507,
            -0.027963991478421095,
            -0.013940780101647433,
            -0.18460596683962535,
            -0.0412341768456539,
            -0.06979500960138284,
            -0.018353082905277457,
            0.036321249164255165,
            0.02829948431590737,
            0.05492096430578776,
            -0.04385870934150637,
            0.071047792000877,
            0.047800321213718605,
            -0.011633787627966477,
            0.057149113936319065,
            0.03042516329808055,
            -0.01922674075808918,
            -0.07412009292852682,
            -0.06593104408780896,
            0.00800867277887829,
            -0.03813324279660301,
            0.027992042085682567,
            0.01924656766777355,
            0.005824112085206237,
            -0.05381145745967984,
            0.06044776044172444,
            -0.03561692507002819,
            -0.04820017890030027,
            -0.026726485655092676,
            0.0019524366911885943,
            -0.004949110873144258,
            0.031271910671306996,
            -0.04912647434999336,
            -0.05747037404141367,
            -0.0065708617861422874,
            0.006070846833864663,
            -0.03899609864488213,
            0.07385053595807621,
            0.01044395691804377,
            -0.01574148923655172,
            -0.06172390593334251,
            -0.07166494743551645,
            0.05400333206823561,
            0.016714079997112663,
            0.06997569001812608,
            -0.01633876658734687,
            -0.02774718738887067,
            0.026178739521702812,
            0.00026621362932112425,
            -0.024090054263787276,
            -0.015601715009316494,
            -0.0026876752053140995,
            0.038852563873146576,
            -0.04318006385322574,
            -0.019238530591722106,
            0.07291207488560707,
            -0.04878402114436223,
            0.367004664964133,
            0.0031183243082389678,
            0.05846273227780689
          ],
          [
            -0.15145583382982628,
            0.03306734030369474,
            -0.1083391033037974,
            -0.14133427812844557,
            -0.5835799809747991,
            0.14264711274284878,
            -0.10513172200395797,
            -0.25071414484607385,
            0.12291739366965314,
            -0.04504411447353981,
            -0.02017897357666088,
            0.46586861772542015,
            0.10769088301387099,
            0.08638091231326327,
            0.045163417247069154,
            0.16740875332106284,
            0.24346393690568646,
            -0.25156663860397965,
            -0.11870242548244773,
            -0.3436241805351849,
            0.26020455720588376,
            -0.2305264279932188,
            0.053912295491021875,
            -0.04135632069134871,
            0.04476729226377181,
            0.20462172568792542,
            0.4775441806951959,
            0.022540346354981335,
            -0.02539982135392228,
            -0.006193742498106242,
            0.32748664730692917,
            -0.0868452056251381,
            -0.1807881834048085,
            0.008512738856887428,
            0.0811703738321619,
            0.05805923248777774,
            -0.02860156693962363,
            0.16786275747025525,
            0.051614537044458536,
            0.00344968809240019,
            -0.15007793783958268,
            0.13015811983485936,
            -0.005929256460104837,
            -0.01978407338257577,
            0.14191661082267423,
            -0.2817261886775134,
            0.006569544562019858,
            -0.11195971014004032,
            -0.05271157284961542,
            0.02349411739600836,
            -0.05405642421510304,
            0.004197617612032287,
            0.020714658733963137,
            -0.009314202132685453,
            0.02682005347108786,
            -0.026207046380300074,
            0.03984038070536999,
            0.01221210532605796,
            -0.030324545307190476,
            0.011172330738218064,
            -0.019264719023144333,
            0.0597770849273742,
            -0.11293627046525129,
            0.01405805352327125,
            -0.03757982162585151,
            -0.013519696436714787,
            0.03199191183541471,
            -0.018674137260333505,
            0.07382535465697102,
            -0.05785941384554693,
            -0.01813629678012521,
            -0.07041233637758293,
            0.05816129904745178,
            0.07330007822404012,
            0.05565825880037274,
            0.0672977196569567,
            0.011527398835880553,
            -0.049685513232812194,
            0.058443001133758984,
            0.05666774143222529,
            0.013513251641856586,
            -0.018652189461465928,
            -0.031700870849657566,
            0.001964465346352473,
            0.07280415341896938,
            -0.06766678225945744,
            0.03159993434672752,
            -0.012151727688961222,
            -0.01939386595589341,
            0.05371515295908304,
            -0.01014526911724703,
            -0.0512877059038876,
            -0.06618722796897084,
            -0.06579220546833646,
            0.09062459668623109,
            0.05674003650916394,
            -0.04399215386631273,
            -0.0317828836360654,
            -0.033500685506128565,
            -0.07200249274918706,
            0.011292964124374569,
            0.042214414798930136,
            -0.013996924843616032,
            0.05373378011243639,
            0.00934873270236232,
            0.04618208548405772,
            -0.005946734052268754,
            0.0524143900695941,
            -0.023242454095871577,
            0.033203540308895066,
            0.015223839573347785,
            0.0613055846351865,
            -0.055461915672404875,
            0.07188515595179003,
            0.003379009633852764,
            0.05848295593491111,
            0.05784695056827567,
            0.012922664770720113,
            0.19858295321042888,
            0.05613926419097505,
            -0.004116727353392177,
            -0.0066578686758988065,
            0.05338686065821931,
            -0.06407107747656936,
            -0.04288737172770716,
            0.0407477562852467,
            -0.07002544197290189,
            0.02617117647310284,
            -0.03484349100543723,
            0.0007013081368427709,
            -0.0634269365371534,
            -0.04470069215676735,
            0.018945270082284277,
            0.05217362406093655,
            0.020117861664551248,
            0.04667751621065838,
            0.06302035796850226,
            -0.06661794713817898,
            0.042234495611920705,
            -0.01163447454671171,
            0.06967548626586965,
            -0.07434273181018641,
            0.01042923042013684,
            0.055480531617747506,
            0.0331997216699685,
            0.041693846017107516,
            0.02624562040961452,
            -0.03934151095797041,
            -0.04858494322819003,
            0.06970470232638122,
            -0.046490751054625766,
            -0.06261298551233599,
            -0.0079419854122285,
            -0.057722405366082745,
            -0.05088439270849021,
            -0.00884393712755345,
            0.05132519011292215,
            0.038403195816347005,
            -0.03360658231171778,
            -0.00947132699487642,
            -0.014261069883262943,
            0.018800579384483,
            0.01890834801425291,
            0.0650800832562191,
            0.0508729567281455,
            0.004138138612088657,
            -0.007435598414076039,
            0.02279709711898964,
            0.06565568901166162,
            -0.07189259678445178,
            0.04270255093564394,
            0.02263280234948338,
            -0.1777100904070139,
            -0.06778966442965638,
            0.43034705164595644
          ],
          [
            -0.1350302114299707,
            -0.014448020606962323,
            0.38962717569186406,
            -0.07246632186615101,
            -1.0287209689740517,
            0.38722268185330694,
            -0.2781158048666488,
            0.09241150814999607,
            0.25850824121255245,
            0.0747245672725166,
            -0.006678197796610483,
            -0.035218761546079044,
            0.14776323964541177,
            -0.1565513630209932,
            0.1190073178960263,
            0.16482237356426097,
            0.131860379296444,
            0.10772015090174265,
            0.691042568662881,
            -0.39392874734922523,
            -0.35601435619537736,
            0.14081847742070633,
            0.007194541899027476,
            0.03611687685099546,
            0.006228974070328519,
            0.3118582327439932,
            -0.003257233980024118,
            -0.03173242312291506,
            -0.13133639614002843,
            -0.11169384868579818,
            -0.22104687428554645,
            0.09999515699972217,
            0.22673922440402097,
            0.06327840921318652,
            -0.36037171316732747,
            0.02562899929881228,
            0.058670714766674445,
            -0.029055181705537628,
            -0.08102073593676533,
            -0.07688886107702014,
            -0.14376507258548513,
            -0.18753370202102942,
            -0.009732345357890665,
            -0.0271185115045574,
            0.021804465775588516,
            -0.16726898631694612,
            -0.06266195434792934,
            0.3255089246175461,
            -0.056561173936350115,
            0.017030826234341462,
            0.003811615015180847,
            0.029942557088294616,
            -0.05277047958852362,
            0.042572404539716294,
            0.0312178698013231,
            0.032429499225086894,
            -0.01758676867049483,
            -0.03151057605382079,
            -0.01736829608336586,
            0.06000923672646029,
            0.039684525971636714,
            -0.05179639468295929,
            -0.14692281933346127,
            0.30068304244252886,
            0.040959516463725726,
            0.020884696388619006,
            0.06001145421390332,
            -0.026650392427111147,
            -0.07483966071536961,
            0.024379563939994145,
            -0.05221487247822189,
            0.05881501547790381,
            0.044420598839026645,
            0.017107984533808338,
            0.03502523214370963,
            0.018599233710116375,
            -0.020349362108377546,
            -0.0681480305886821,
            -0.07319489811982573,
            0.06221659050888188,
            -0.03781039768442714,
            -0.021803316537752054,
            -0.04961013031934213,
            0.00021153191273426408,
            0.04966721112703769,
            -0.03292739643557972,
            0.02124383156189741,
            0.057400816973649946,
            -0.008913555758416403,
            0.002796673421968418,
            -0.02770970827623133,
            -0.04125814392839056,
            0.05694292371649186,
            -0.018815624348546583,
            0.04531250834656044,
            0.05193192477192525,
            -0.007491446843943081,
            0.03004731494870304,
            0.10675704854387773,
            -0.004358517125824565,
            -0.04669726399638763,
            0.02956610132982236,
            -0.02770435083779086,
            -0.04227473346057151,
            0.031919404538307994,
            -0.03227424133627247,
            0.0576596554959254,
            0.05158338814325079,
            0.01439865392164022,
            -0.02421800669129135,
            -0.2785504642023038,
            0.017208404509437725,
            -0.04240255752817972,
            0.06020834635405707,
            -0.014681533404739579,
            0.004597887841766929,
            0.025406901356848824,
            0.00917254932160845,
            0.2123253144894891,
            -0.03735011966510576,
            0.02300314416514833,
            6.015230306082031e-05,
            -0.014072180843568677,
            0.05138018495864581,
            -0.0027870228124243085,
            -0.018612235654419468,
            -0.07070728027349794,
            0.028299180233638935,
            -0.015055221993723777,
            -0.061378969642421885,
            0.05684313603969181,
            0.026126902919977435,
            -0.06567752591257456,
            0.07006798469857269,
            0.001046082273940846,
            0.008583283275824583,
            -0.05802333302022871,
            -0.025568370229009207,
            0.005318832283882136,
            0.003156824606770567,
            -0.015373977693642335,
            0.03243243030879203,
            -0.044727525343023135,
            0.07383774004360912,
            0.06456503585225375,
            -0.006549165551921379,
            0.0032557744802773347,
            0.074764133425151,
            -0.04802517525016185,
            0.0583501602056921,
            -0.06301457512048524,
            0.008780477464795669,
            0.002985516973682545,
            0.04872937675368691,
            -0.06383689272468633,
            0.06441383855987652,
            0.03563879118528354,
            0.05177828513525494,
            0.06846523947009721,
            0.06460221132905293,
            -0.05465887203016354,
            0.038561234922725576,
            0.03928227796962214,
            0.015383045191265168,
            0.06255551859939383,
            0.046660411728079845,
            -0.007523543631525922,
            -0.0638557187926022,
            -0.002694989276422935,
            0.05773495081180437,
            -0.06208487172278178,
            -0.05062383946242628,
            -0.2163246128795458,
            0.02863165154866354,
            0.23893478755773884
          ],
          [
            0.1779672004657847,
            -0.0009102388081490598,
            0.3534559028937982,
            -0.04681788486908061,
            -0.44268137637103827,
            0.16015395335525476,
            0.08664244544757786,
            -0.2595861217132293,
            0.05740614899145139,
            -0.06287572955368534,
            -0.06371541816879588,
            -0.2447532707164604,
            0.06344304240388,
            0.16457393565135583,
            0.0576303760578238,
            0.09790676118554366,
            -0.05914810613389871,
            -0.23597722407377872,
            0.2824083679124807,
            -0.04942483203603735,
            0.22144482439285448,
            -0.2444989299341468,
            0.02558092977111706,
            0.04101690081096042,
            0.04215445891474855,
            0.02773729013869562,
            0.06750759834528468,
            0.14138152575297377,
            -0.10314941454481046,
            -0.042612700053257326,
            0.11992342774738247,
            -0.04309730056568772,
            -0.1263634152138279,
            0.06996337960475434,
            -0.34924455744951227,
            -0.0698237551672446,
            0.04038979229336839,
            0.004351234803475922,
            0.08886188223189219,
            -0.33680074656383074,
            0.09879687990368242,
            0.05929340120651847,
            0.0522774977855454,
            -0.061159726364177866,
            0.03216227799614597,
            -0.03566680980194035,
            -0.028672835493885517,
            -0.09109906944321797,
            0.003616361347865707,
            0.014788313090859442,
            0.05395208879993631,
            -0.023900475956545285,
            0.0419702036236024,
            0.02756847980707197,
            -0.01871437824542998,
            -0.0287052831045526,
            0.014220304958388094,
            0.011280407990945568,
            -0.02685546224519248,
            0.07523589995853326,
            -0.018931062158326684,
            -0.05381386567778387,
            -0.040541412108416594,
            0.10315295254377337,
            0.026559953973698952,
            -0.02644459968222438,
            0.0064816370267983675,
            -0.009146691562972625,
            -0.19385533854528775,
            0.021071144400457056,
            -0.0009397131378013762,
            0.0719891570553265,
            0.0714750056108472,
            -0.05479695908100667,
            -0.07382458943384866,
            0.06039620322836246,
            0.015557787866771228,
            0.06208529638709105,
            0.007868952773791724,
            0.015695609218620205,
            -0.02757049308400937,
            0.03153708916760384,
            -0.04657867878130341,
            0.0442350687806503,
            0.031707392093717535,
            0.06088062654785299,
            0.04754632621502472,
            -0.06092211122117974,
            -0.0008463554410679253,
            -0.03465459694159529,
            0.061955519014911045,
            0.03799419702737329,
            -0.06864936349643676,
            0.04166053490834498,
            -0.14224702898236175,
            -0.00831155597304227,
            0.05907952432042331,
            0.040920943877440705,
            0.06959818479213487,
            0.06934917261900468,
            -0.030558713468355723,
            0.011811203699035086,
            -0.0170515984703027,
            0.026540435604176987,
            0.04979635943705664,
            0.03302862377628203,
            0.06970871234534294,
            0.08925239428860912,
            -0.04245726366138474,
            0.028126883611639453,
            -0.14408684009861653,
            -0.01676153847888369,
            0.012198557730385612,
            0.07329026888255925,
            -0.004859428065140892,
            -0.044222592723105573,
            0.06802368152253908,
            0.022811645107907008,
            -0.06283865898696468,
            0.016102728187654125,
            0.05857782825743675,
            -0.02175898779570256,
            -0.0022043088508394704,
            0.06571671525323765,
            0.02046227690052113,
            0.0654677489474871,
            -0.0571899272083726,
            0.01732641325095538,
            -0.019137478889421182,
            -0.033648443398814475,
            -0.07228353436746211,
            -0.015794901047626618,
            0.02870538389133341,
            -0.038411034942773134,
            0.07013326870956672,
            0.06340398017150488,
            -0.04197364475741883,
            -0.07439413646884253,
            -0.02555419099762289,
            -0.06001024617670633,
            -0.0738692761043273,
            -0.04770862902923406,
            -0.00560314916978559,
            -0.04713924247696179,
            0.029564988271048864,
            -0.05959640235126164,
            0.01753634977498572,
            -0.016881167776917887,
            -0.04392634518704204,
            0.0527927313794284,
            0.02379469511997208,
            0.03715122276393555,
            -0.06881171846115368,
            -0.0065143528726855915,
            -0.06347392705918278,
            0.026543369219816954,
            -0.04818049701525883,
            0.04351800577621466,
            0.05955642242404459,
            -0.043770997017008505,
            0.05424652920378349,
            0.06844728125783732,
            0.06819691654263883,
            -0.05049760207795478,
            0.06382944940968686,
            -0.06927314025500904,
            0.05568142704751351,
            -0.03238076094147724,
            -0.008938553921329612,
            -0.03367283917284385,
            0.04033141170098506,
            -0.06741258670968292,
            0.2790442410795323,
            0.006885681627934209,
            0.03947047966842214
          ],
          [
            0.514431098274448,
            -0.03192307188309633,
            -0.2888239021036493,
            0.1017885040467304,
            -0.31799708898231427,
            -0.30175742545706497,
            0.33560510102234054,
            0.2382791895282064,
            0.05349719457232112,
            0.039544894627799976,
            -0.03998373155545482,
            -0.35948336604741526,
            0.15097267522944882,
            -0.02318203962722398,
            -0.16286292486331977,
            0.08092841364736071,
            0.31153818586121435,
            -0.044100050029079144,
            -0.4556275084454173,
            0.04769638177771502,
            0.03238931574105497,
            0.004199177600909152,
            -0.060651743683190706,
            0.051948412429290644,
            -0.017978229839641723,
            -0.1165925562583165,
            -0.009129880648354871,
            -0.21817280193226998,
            -0.08451034899526505,
            0.20114540554028493,
            -0.1051540043322525,
            0.1806259771764659,
            0.21983031413485948,
            0.04871025575498385,
            0.26976073431516107,
            0.017014836291614446,
            -0.0443109395385595,
            -0.36785374824304623,
            0.07247383157591068,
            0.24187915634265486,
            -0.2491051623771378,
            -0.04238746534181002,
            0.042480563800727386,
            0.06613253335095702,
            -0.028437470629202388,
            0.1915231446718674,
            -0.023773040554872997,
            0.04601757613594533,
            0.021049214536647834,
            -0.025350554358766673,
            -0.003001227768151926,
            0.03374714080389421,
            -0.02865586783947803,
            0.01466401216447262,
            -0.02595552771554281,
            0.05541973054225778,
            -0.05091814924567957,
            -0.05084657290305781,
            0.06847383756648563,
            0.05799361882869612,
            -0.055725384331058475,
            0.06859943639070416,
            0.04502102671377888,
            -0.2085866435476535,
            -0.07081319003493323,
            0.020252768987019915,
            -0.01989226089289363,
            -0.0035758452042929934,
            0.1912736709475952,
            0.0582757548441155,
            -0.03613342729570321,
            0.05802370846825779,
            0.0186729649976424,
            0.00828001247062854,
            0.07421385744040708,
            0.030284548737310332,
            0.04040625340143829,
            -0.025178767479328658,
            0.03530827058684541,
            -0.055250941129496,
            -0.07158444672413539,
            -0.0055852211247783,
            0.06198465252606457,
            0.021524417228078713,
            -0.05883359514564225,
            0.04208914400694738,
            0.04136836611988598,
            -0.02250034942287673,
            0.027274706306650798,
            -0.006885898275299132,
            -0.042277269396926,
            0.04335160630016009,
            -0.072967855229696,
            0.04316893367670176,
            -0.004478844226804212,
            0.03127187967185016,
            0.0022376068193623866,
            -0.04833383886634957,
            -0.18278667123321396,
            -0.01699371945281808,
            0.028600469882607935,
            -0.07214230612641963,
            0.021724968159567426,
            -0.04796378636537783,
            -0.06428608572272783,
            -0.027515130324185767,
            -0.022413855746168984,
            0.1291248213087324,
            0.050573401721610664,
            -0.03746297488078065,
            0.29045166748380913,
            -0.022115183815023337,
            -0.04623001936499136,
            0.07536656890104469,
            0.039711159607312474,
            0.021544963977764106,
            -0.05563464521422054,
            -0.04701643563253439,
            -0.14684260172649205,
            -0.030453660749297798,
            0.04963457849739446,
            -0.021371288357852222,
            0.05941908687002169,
            -0.025646899465154603,
            0.06367638087080295,
            0.062046571477990684,
            -0.06271103579248213,
            -0.06884690079091069,
            -0.06641514459569729,
            -0.00043425289168746994,
            0.07277715828928759,
            -0.012034325067160956,
            -0.04615844943054509,
            0.046814355241354966,
            0.00023832580260055303,
            -0.04902605472317931,
            0.053421905105467474,
            -0.07006501532966315,
            -0.04189235903557796,
            -0.0196400057509905,
            -0.051566654943076266,
            0.05917875419121736,
            -0.020460197514937994,
            -0.021518333963824847,
            -0.043925885568333566,
            0.0432348534791399,
            0.06175267307868561,
