{
  "layers": [
    {
      "type": "RNNLayer",
      "input_size": 175,
      "hidden_size": 72,
      "output_size": 72,
      "weights": {
        "W_xh": [
          [
            0.5984196562013221,
            -0.1334236349534855,
            -0.0027590497038731928,
            -0.30737521814428564,
            0.005815105710994395,
            -0.17091751892670207,
            -0.5491208626335488,
            -0.03465224917276615,
            -0.3202241216243016,
            -0.061745063354703526,
            0.05157959083673212,
            -0.2976493277964118,
            -0.3232212186225447,
            -0.05924710634431442,
            -0.2732489990573832,
            -0.14263879625480158,
            -0.2162362984157459,
            0.3506457293782367,
            0.23252719476297867,
            0.9652026659359318,
            0.4983382689024616,
            0.21527763739177264,
            0.05710709616992732,
            -0.07386665839087195,
            -0.009533632476890333,
            -0.4232167062658348,
            0.2704645501796385,
            -0.05600335673099064,
            0.1488175008095301,
            0.2769498825630249,
            -0.34820222983901455,
            0.34552132333589064,
            -0.19626739627422937,
            -0.008980527295813475,
            -0.1349399864459155,
            0.05859150985887067,
            -0.008533463531375532,
            0.5756633142343682,
            0.2565616078346475,
            -0.0889968220301177,
            -0.04895538473718175,
            -0.15620894624735604,
            0.02593664882295992,
            0.0476958992898786,
            -0.17704068460907782,
            0.5446696541566712,
            -0.010698746169170437,
            0.01002225078927666,
            -0.04069021072402277,
            0.04319309723639364,
            -0.003233414167718038,
            0.030256936561752212,
            0.06005920667166435,
            0.04994263765438166,
            -0.07434042712275835,
            -0.02659177560783508,
            -0.04376800020980792,
            -0.0012258201196292534,
            0.013093124874088494,
            -0.012966538480340004,
            -0.006380537504830336,
            0.016609601311406694,
            -0.2519866863470748,
            -0.43793160935272424,
            -0.010143052812440967,
            0.09224294022165393,
            -0.06859289443625112,
            -0.0362819467728413,
            -0.12332610479065839,
            -0.03786139585319282,
            0.0079573224916516,
            0.004197330577337785,
            0.05217825802198088,
            -0.02152743068188955,
            -0.0004774354956029736,
            0.013759779692370896,
            -0.04715028952995091,
            -0.059150622634811495,
            0.03085372741207923,
            0.054300171483207024,
            -0.017249893888255784,
            -0.002487064563727784,
            -0.04566682722557437,
            0.018699243856265424,
            0.01974606052596499,
            0.02951348967767911,
            0.06659207165404894,
            -0.07031907366128637,
            0.030379165835095312,
            -0.04052052524628138,
            -0.06912119187808415,
            0.06083226161093096,
            -0.17515269986031964,
            0.24579480684771832,
            -0.09934671831864995,
            -0.00886453408934311,
            -0.018406446482795373,
            -0.06648181160746267,
            -0.19620592738319573,
            -0.06007526498508242,
            0.22393686692112422,
            0.015152667409107035,
            0.06446415419518124,
            -0.006222658518738419,
            0.04997260954938525,
            -0.07482243920201942,
            0.07356199850346122,
            0.13127597755107553,
            -0.03116712657305091,
            0.058028187900823106,
            0.08515057466620168,
            0.009650292224647292,
            -0.01618893739321034,
            -0.062190606220590895,
            -0.044580861177228384,
            -0.4874360218111866,
            0.023879665094878096,
            -0.010315436058314018,
            0.12363706926424149,
            -0.03149332891203156,
            0.059080556297430545,
            0.0572878884897139,
            -0.02784126242671065,
            0.07073214410373775,
            -0.027440392144308587,
            0.009764152256777944,
            0.07306825543994709,
            -0.06722705092053916,
            -0.027762375565290022,
            0.04280556788382904,
            0.06865767728591876,
            -0.006340919894258937,
            0.005530244286221925,
            0.0748362800542363,
            -0.05208698553586124,
            0.015587222164204717,
            0.04474152287914536,
            -0.010832446827594933,
            -0.0055896423872451445,
            -0.021396689942736948,
            0.061107593254175904,
            -0.04997068139117654,
            0.028419479642512607,
            0.053200965617103926,
            0.02282297748683411,
            0.013915493928443393,
            -0.051441569534281015,
            -0.038675883510035154,
            -0.06472464521004784,
            0.06928323186988737,
            0.06902758582551276,
            0.03127388502480029,
            0.05389912416130528,
            0.024329541145348257,
            -0.024805487350011764,
            0.040160855892668865,
            -0.047162375546560956,
            0.02736366479556361,
            -0.05183845239043976,
            0.05153111418560126,
            -0.0303615004877891,
            0.0354741475382398,
            -0.0601647338710061,
            0.05271043282359357,
            -0.03793225868548244,
            -0.03584730421683765,
            0.0007192066238816824,
            -0.0038301027216715577,
            0.05038756619350694,
            0.05071662073941656,
            -0.07122164036195094,
            -0.058918782019783913,
            0.2538270296196577,
            0.041665976854447534,
            0.10316665618059358
          ],
          [
            -0.14753632497606628,
            0.3679975163188113,
            0.527932304557661,
            0.11891710161705056,
            -0.2652157295702205,
            -0.27526733312672297,
            0.3947144860439023,
            -0.3115537576248442,
            -1.0537726389216506,
            -0.003126751089844234,
            -0.056436416031329345,
            -0.707065822959081,
            -0.21422512260604024,
            0.7048556949606998,
            -0.008902171692135872,
            0.06300151755493681,
            0.1310985620565673,
            -0.3721130774542895,
            -0.22140960635395307,
            -0.24016230561506943,
            -0.2208564512006951,
            -0.7133842983632678,
            0.04361803429122534,
            -0.02184287270468311,
            0.026242635800503927,
            -0.1625619974636141,
            0.1534393675082935,
            -0.3146342841418575,
            -0.4184505178309825,
            0.11832817316556431,
            0.5375671475069275,
            0.30094008549698475,
            0.1336545084207079,
            0.007014650046810345,
            0.11338779189074434,
            0.07067176114500583,
            -0.017844854390224638,
            0.40806805168412086,
            -0.43811412565990004,
            1.062210030302954,
            -0.6928734607603189,
            0.04302233095046266,
            -0.07392261330624444,
            -0.07207549974972902,
            0.30926474917985886,
            0.035433844898154356,
            0.04830947024204648,
            0.07478761551533335,
            -0.03164003895215641,
            -0.03306644182521047,
            0.02140945273204059,
            0.060823124453927,
            -0.020081953183014138,
            -0.05679749591957365,
            0.06415378883182644,
            -0.023111343981292352,
            -0.050921180634609,
            0.007881443091582674,
            -0.061921376077255896,
            -0.023828924884000846,
            -0.07347262638825969,
            0.010773382383786015,
            0.4198027611977856,
            -0.04707637860008046,
            -0.01487844217767586,
            0.11323971706350656,
            0.033931016959462594,
            0.030915294074948946,
            0.1834704694137785,
            -0.022983682915998206,
            -0.009336612755010477,
            0.03073163330282636,
            0.04166355076029166,
            -0.06779500972579766,
            -0.054733382372972685,
            -0.014006111663574704,
            -0.03414062361449877,
            -0.0023631221275180747,
            -0.024688562894145193,
            -0.05500666386562667,
            0.001147656859717322,
            -0.06770360135942534,
            0.018813131361277838,
            0.03948278399125377,
            0.009174719019465469,
            0.023506215546892487,
            -0.0032416231632941134,
            -0.07288140220590711,
            0.04228582859699939,
            0.03206435678728542,
            0.04384031942694297,
            -0.07138456226074522,
            0.146631228804549,
            -0.08544164130216368,
            0.3623288979331472,
            -0.02236324891822672,
            0.0373797977117665,
            0.038141698036962685,
            -0.06967863578908531,
            0.009805582781329272,
            0.24240672443110128,
            0.04377648110670239,
            -0.051532150565980525,
            0.04771074031212684,
            -0.053368616573549105,
            0.07021871063900843,
            0.06941569394278592,
            0.4334202700691399,
            -0.024041912406514057,
            -0.055495142463047056,
            -0.292350665923866,
            0.01353794866866885,
            0.033970287118907455,
            -0.05968910595898411,
            -0.0714312804192842,
            0.5977234654358269,
            -0.023387570082134494,
            0.02799479724033184,
            -0.21970937458738013,
            -0.035280553746113726,
            0.02061498050812527,
            -0.0629622413229577,
            -0.01730164935340803,
            0.01293272135561259,
            -0.045890042774356044,
            0.02376906423334635,
            -0.0744985949377273,
            -6.728811019941772e-05,
            0.07196001982122473,
            0.016445130142537408,
            -0.002618105514211225,
            -0.043770309878748435,
            0.06322569163159016,
            -0.018804073292657528,
            0.025837253294758222,
            -0.004337911206551151,
            -0.018136110308752958,
            -0.018518813013322068,
            -0.018263040730360468,
            -0.06286192541116828,
            0.019122650130224364,
            -0.042205928525653524,
            0.015534448111737913,
            0.018015907718286275,
            -0.0177565463150286,
            -0.04228011224044542,
            -0.030386984160439327,
            0.073450191367062,
            -0.028630658068382817,
            -0.0554626763118632,
            0.01179333165780222,
            0.05175495636535439,
            0.04891506650902845,
            0.06904137480983079,
            -0.056923664103207566,
            -0.060608507795123376,
            0.001767956465364734,
            -0.07150273067089861,
            -0.0012131070051068227,
            0.032995915952909544,
            -0.07263008149843618,
            0.005272210870452043,
            -0.054987263608049966,
            -0.06194955939148236,
            0.014887073229823244,
            -0.03687990370646107,
            -0.00457130596880824,
            0.05136031191536235,
            0.051590102415210046,
            -0.0617211654550581,
            0.02854682053582333,
            -0.01962174468435579,
            -0.506120997369373,
            -0.013150814239604826,
            0.26471140672927096
          ],
          [
            -0.1304141523840243,
            0.32160451876798757,
            -0.2923190365079542,
            0.12577772865060635,
            -0.9584100815962528,
            -0.2307979491257451,
            0.3935346547990338,
            -0.02661763665465874,
            0.11490817306624684,
            0.05255291742328039,
            0.02074480080565215,
            0.4542998920347509,
            0.000526338716407575,
            0.027102255171614357,
            0.3441775907787333,
            -0.238134787147115,
            0.25281094154846484,
            -0.8258725302942687,
            -0.15286956118130107,
            -0.3590914328054873,
            0.05970778976831409,
            -0.41764314992331103,
            0.055996154010984955,
            0.022834855376541036,
            0.02982373600108161,
            0.11883799805216023,
            0.31802006110037356,
            0.24866658448676537,
            0.006280535911926034,
            -0.3882237444020176,
            0.6019835045451382,
            0.19813565310792564,
            -0.44734201880062013,
            0.04452771102380065,
            0.3041458482263097,
            0.0527814309351448,
            -0.00774742372353604,
            -0.45081487049440777,
            -0.32744457782948433,
            -0.15340781029581624,
            0.43194658330961627,
            0.12371481667449793,
            -0.054256321369988925,
            0.03945804848425694,
            -0.04311865758261842,
            -0.2621901388771043,
            -0.009950109770745452,
            -0.15198074424352628,
            -0.04018607866040132,
            -0.05433044836994108,
            -0.03286956439318423,
            0.04727870492858033,
            0.010928592966735914,
            0.036165642532522205,
            -0.0456394071001804,
            0.05280258475992557,
            -0.04018750076913363,
            0.00178975985262661,
            0.07017104663603098,
            -0.02612416306940201,
            0.016962868894049007,
            -0.04734275437678317,
            1.0216735073093488,
            0.4070021073047051,
            -0.015267948417018727,
            -0.032231911024907724,
            0.04714343250611091,
            -0.04929094438129585,
            -0.10916045588996791,
            0.05276806654159909,
            0.011111061016179646,
            -0.04466989244906125,
            -0.0285145294699459,
            0.039068629161112804,
            -0.05319104014384829,
            -0.04264571258909545,
            0.03234936796526473,
            0.02207555224001695,
            0.03141811655820893,
            0.04500331112601905,
            0.05965019783513566,
            -0.036018644067779285,
            -0.03500359762729361,
            -0.05766417933385674,
            0.05786235119074078,
            -0.052589301667717,
            -0.021428541807020307,
            -0.060795611117827594,
            -0.020864145994905707,
            0.03396680277697944,
            -0.07120622978168376,
            0.014287034453890665,
            0.27825876635963054,
            4.8117749698612635e-06,
            -0.0018556914809365892,
            0.0633277477633513,
            -0.05995893369786688,
            0.012179548153048947,
            0.20057306448253476,
            0.030291372596998933,
            -0.013902723327118038,
            0.02379605433474355,
            0.04562333324325932,
            -0.021981813266848622,
            -0.0015624363261945995,
            -0.032104442275376614,
            0.07358465999195853,
            -0.07421334626256625,
            0.004469093819548746,
            -0.05436855423610318,
            -0.10581945278251974,
            -0.026291620655464087,
            0.06478337295070992,
            -0.06788210297620315,
            0.007145422143038635,
            -0.2042051609087677,
            -0.02503837907861242,
            -0.0024665098102285427,
            -0.06926475549196766,
            0.013129334976755558,
            -0.008552437404015512,
            -0.04977974698631476,
            0.054671642209357746,
            -0.006757025790360596,
            -0.04485325410100774,
            -0.04507755790429358,
            0.001511564478589189,
            0.004370015177953809,
            -0.05480314652930289,
            -0.00803545903220853,
            -0.10461920227815764,
            -0.05252447926643451,
            -0.012871513053922715,
            -0.06335809580132432,
            -0.06601790270067624,
            -0.006325905315073627,
            -0.001164823521695002,
            0.017938636373748706,
            -0.013637891953941217,
            0.021696758425257617,
            0.0578003967089923,
            -0.0015643798644924684,
            0.03490957622793005,
            0.06050756484518259,
            0.002973289112832442,
            -0.05318231776592808,
            0.013837403693978442,
            0.05777771144909212,
            0.030153463163369615,
            -0.0008516518157163366,
            -0.07470824425133243,
            -0.02457749034550761,
            0.025800756329113883,
            0.02527556809470534,
            0.05899870624863911,
            0.07419158836234648,
            -0.021302273388647472,
            0.023465677422898887,
            -0.06494524054968555,
            -0.01740921368819478,
            -0.0206241290231376,
            -0.033506639241935615,
            -0.07322722419964431,
            0.054320844754136524,
            0.017187833903265573,
            0.02534222124588173,
            -0.05489423582457751,
            0.02485040153169675,
            -0.000595708468789452,
            -0.02543878474604328,
            -0.04541034860361923,
            0.03712682143450308,
            -0.2393863080213226,
            -0.03329673339196166,
            0.22526799446951015
          ],
          [
            -0.0634825958746649,
            0.3333685746512502,
            -0.0002761167448344907,
            0.020911444156628614,
            0.4379422554948608,
            -0.190660569674104,
            0.5528155574684738,
            0.34548767932613383,
            -0.20941507981915577,
            0.016834289654141056,
            -0.011203808968317644,
            -0.2649373184898741,
            -0.8369851040748845,
            -0.510340844755916,
            -0.006384358823163275,
            0.1300011184585395,
            0.053219605640639565,
            -0.5134549488079326,
            -0.08847318902499877,
            -0.4395674169253374,
            -0.64604029854208,
            -0.4420420274606754,
            -0.015442824449957846,
            -0.02874568144643533,
            0.06919551657184282,
            -0.029745667567929297,
            0.5607466813085354,
            -0.23950884692516372,
            -0.306295368120174,
            -0.4486878115057208,
            0.519352993365737,
            -0.13687560644680885,
            0.5828291301931716,
            -0.024553916939568148,
            -0.29899007657519894,
            0.037541512117394996,
            -0.0438331855877377,
            -0.057943724456996845,
            0.1821228143278716,
            -0.023637939453252356,
            0.3743826235386844,
            -0.2641855321926524,
            -0.03418030846878635,
            0.0003978399082886876,
            0.0490076564153034,
            -0.29406180793130815,
            0.027886961919938356,
            -0.1234613389656779,
            0.0159973192025923,
            0.07372999502106099,
            -0.06944748213064314,
            0.03609724337844067,
            0.023267261405510012,
            -0.026062863149198805,
            -0.06754089559752295,
            -0.0259336876219826,
            0.03184660360297786,
            -0.00926199542804347,
            -0.007134613818185684,
            -0.004082440895209732,
            -0.022681846541648988,
            -0.07006341378967398,
            0.20468033686842893,
            0.6730798355322525,
            0.06105631483504888,
            0.20937316628319366,
            -0.003932897743339543,
            -0.04162429095195267,
            -0.0025265465433671496,
            -0.05572450396879763,
            0.06930179562521682,
            0.06640728804468334,
            0.047353164776280765,
            0.06988696612629273,
            0.0568052245306289,
            0.023184407663483036,
            -0.07249760807029376,
            -0.005409688509026261,
            0.05307656892115718,
            0.020676480240668996,
            -0.0062367355969266125,
            0.03281859181643973,
            -0.005918838090398906,
            0.02220488635387885,
            -0.016167636358117847,
            -0.04770703629831727,
            0.03623199189015337,
            -0.006790806085449214,
            0.06071340514888972,
            0.03289889599457499,
            -0.02169976430141654,
            0.03730457860094473,
            0.19314636824940234,
            0.0878653588618553,
            -0.0889687155943346,
            -0.003250272682208788,
            -0.06003868716665943,
            0.03587326022427072,
            0.004997506665126065,
            -0.05506506937647544,
            0.1518488377607115,
            0.01123602546744383,
            0.04493437174003208,
            0.027208432371466668,
            0.05695103553958279,
            0.041160683463168646,
            0.030568333857023497,
            -0.15887240144782597,
            0.014972341574947371,
            -0.05393193618110564,
            0.06964199345412357,
            0.014123370155282894,
            0.03804665161804058,
            0.037687336968498936,
            0.024528430534310627,
            0.08492713659172497,
            0.003778144783787876,
            -0.06778449538168571,
            -0.07894441147251108,
            -0.07138694725484847,
            0.02339532304630941,
            0.05059382211573884,
            -0.023107754895797715,
            0.009688495044866241,
            0.0038734702172184277,
            -0.026088992799623734,
            -0.036573190275719425,
            0.06357820106416738,
            -0.03733911684684978,
            0.0047087876466631465,
            -0.0014479974190330699,
            0.04049918190129095,
            0.018333572676893076,
            0.027110529882487952,
            -0.07385977756281774,
            -0.07288424004852505,
            -0.026692264100321265,
            -0.014569411262707145,
            0.011970006619051565,
            0.04887438370069268,
            0.06086371608007317,
            -0.0018293168657015496,
            -0.06063333175538524,
            -0.0297476955090571,
            -0.04999684239067251,
            0.03633405696226846,
            -0.04003373124917771,
            0.008926257575846044,
            -0.026525467745184307,
            0.014514261444779533,
            -0.05849496713341679,
            -0.025961846922965555,
            0.0021049223349416946,
            -0.001252975319458824,
            -0.04727578766693275,
            0.019735084119307203,
            -8.918061467923233e-05,
            0.018437755635110423,
            0.06491107799089206,
            -0.045497775614750505,
            0.052447910563876696,
            0.008653184125322108,
            0.03316644860375449,
            0.06419660821325003,
            0.0006731437461124506,
            0.0691648831300233,
            -0.05614722816227757,
            -0.03287635180264762,
            0.056478815674183655,
            -0.0458092546876725,
            0.03844380316500426,
            0.016417095267306198,
            0.36076780497352934,
            0.06584044166770793,
            0.7175053216933127
          ],
          [
            -0.33832343039637375,
            -0.23594351692391222,
            0.2346090508191873,
            0.17461784385499773,
            -0.123504880073546,
            -0.1360834552113469,
            0.2138928577047814,
            -0.8723622442256139,
            -0.17290073803700612,
            0.058282356107529985,
            -0.025799261774775054,
            -0.37195705246368016,
            -0.08163417733899882,
            0.23947053792922315,
            -0.17057966916548165,
            0.4811192383209979,
            0.1967660038962493,
            0.29963938246484295,
            -0.19411707595067637,
            -0.20338715210307587,
            0.13961227661316633,
            0.36203320373013526,
            -0.053686769882002466,
            0.06771678240258978,
            -0.03260288820580887,
            0.036863298413758336,
            -0.2613909850486389,
            -0.05806117293271485,
            -0.029837568942257333,
            0.14969508170124698,
            -0.35463667049224595,
            0.08402177054010171,
            0.6703233338927398,
            0.005321951326751709,
            -0.20908008807689915,
            0.04654409918689788,
            -0.03199779152763855,
            0.3317075874379105,
            0.10716143321707951,
            0.28234226584113525,
            -0.6037980273437008,
            -0.20432906126609984,
            -0.019916330916469407,
            0.0455029707083148,
            0.46829796263148243,
            0.4447276083306511,
            0.03551842195600709,
            0.2266245413606416,
            0.018918672590524585,
            0.04935110164142113,
            -0.025175209294282068,
            0.04531816066902293,
            -0.027860767480238066,
            -0.018373027861837588,
            -0.05336602423974162,
            -0.019496057662382507,
            0.03754967367724628,
            0.03950804319381761,
            0.07352657876288078,
            -0.0018075861373618995,
            0.012303672908864124,
            0.040782408490943056,
            -0.5208961199479403,
            0.33975870842744293,
            0.01754667905293644,
            0.019104100478532036,
            -0.006169610345698307,
            -0.02174424754253031,
            0.07975305907179712,
            0.039316473670569924,
            0.046027204850125916,
            -0.05204371741343781,
            -0.007972974173015453,
            -0.04234723037430611,
            0.06652397211047599,
            0.019135093723053734,
            -0.05683034943418725,
            -0.03190306984225951,
            -0.051231901578125044,
            0.06054456792229056,
            0.05039921330583334,
            -0.00024129123068657166,
            0.03150552641920758,
            0.001070107100408585,
            -0.024707596077268454,
            0.049926932376465796,
            0.00023093805455996763,
            -0.058009572534252554,
            0.027953993297854404,
            0.014501307839864433,
            -0.05497142664202202,
            0.025725921431537305,
            -0.03818538834393999,
            -0.03902287880168291,
            0.1535618613029562,
            0.019707244882304867,
            -0.056631941950977156,
            -0.0656259731899914,
            0.25627432392770605,
            -0.05402549997556495,
            -0.0348321822879568,
            0.06652177698513913,
            0.0007256345164950023,
            -0.015578919392326147,
            -0.022842480258109504,
            0.002687609224028581,
            -0.05130180096115705,
            0.1475475541420779,
            0.05105001018085943,
            -0.0603125632723831,
            0.032896003465778735,
            0.05691542361154646,
            -0.015846606825128,
            -0.03924733637644431,
            -0.03523314611642763,
            0.1862379141684539,
            0.02880966227500776,
            -0.04564114579769503,
            0.24137186758372978,
            0.06438114027827975,
            -0.06171777807393926,
            -0.013019815824499514,
            -0.04455178840399381,
            -0.05372286736918437,
            0.07356300270058518,
            -0.037639894326816636,
            0.029003646200522495,
            -0.01316951782092516,
            0.06537892306649197,
            -0.05830174661219801,
            -0.009739213027467877,
            -0.0529864620188278,
            0.05274293015604549,
            -0.010192573148264966,
            -0.02859432787608216,
            -0.06055086715508151,
            -0.06746446371528751,
            -0.059124159712168486,
            -0.07388515020389765,
            -0.005753593762755874,
            -0.0034852370156184392,
            -0.05695469173114001,
            -0.04228467006407135,
            -0.0171950321805623,
            0.046148438071194245,
            -0.00579146712008452,
            -0.007692180866125942,
            0.015983350922882264,
            0.010080175624014129,
            -0.04252384445153786,
            0.04424512533950069,
            -0.01139930131561774,
            -0.0626337024705753,
            -0.0118475018988361,
            -0.019761163028664326,
            0.007374082880563404,
            0.07108909626836364,
            0.025857506006077127,
            -0.06874102915123105,
            0.025917406862146636,
            0.019438341635102996,
            -0.04015738460147884,
            -0.0726718826153762,
            -0.0032575182896329574,
            0.05244451940450266,
            -0.004832818885795551,
            0.041939686556583936,
            -0.002266955450283506,
            0.059838507939999216,
            0.040371063903165194,
            -0.06925936133682783,
            0.022724672359881168,
            -0.831053440906171,
            -0.03186040419732734,
            0.21946823619491235
          ],
          [
            -0.5571951057652007,
            -0.3616670599101761,
            0.025413713783654226,
            -0.2896309765190683,
            -0.3696653762242375,
            0.12916380391551655,
            0.06614949342070513,
            0.3870201971232048,
            0.07732823891004277,
            -0.004985133791362881,
            0.041620197873532605,
            -0.2585210545311399,
            0.20854535266245744,
            0.23475604034832653,
            -0.5516106604833536,
            0.6082013076036605,
            0.16265858618062512,
            -0.03287255558296345,
            0.0575268236994562,
            0.5111337818635332,
            0.2329980341382842,
            0.4980357337668857,
            -0.0012226731065505736,
            0.033827812966750234,
            0.018450194456003835,
            -0.4446873226055866,
            -0.49452072457900487,
            0.03715924405821204,
            -0.07431467233511065,
            0.4187201863233366,
            0.29170048511192936,
            0.017767186365064087,
            0.07624161590646436,
            0.04985547290540612,
            -0.08673762747914282,
            0.030805179559646095,
            -0.07109703556054355,
            -0.14720505807046164,
            -0.05195787947229549,
            0.4239669165892837,
            -0.6259737023624146,
            -0.46110329288381635,
            0.019827831860858628,
            0.02198412936150526,
            0.16780321014958863,
            0.48823711350322674,
            0.02766553051825736,
            0.2949602623293771,
            -0.040033460931070734,
            -0.010841525548806644,
            -0.04276774807670927,
            -0.07416091364052887,
            -0.005059984509264259,
            0.011403524609755689,
            -0.030566708272138445,
            0.04955375058516791,
            0.045392611296582605,
            -0.061336639296329806,
            -0.07160984561770548,
            -0.018773870033781233,
            -0.01857228593277132,
            0.006263929816914246,
            -0.5108794854127326,
            -0.25403820516692666,
            -0.02075661929620573,
            0.17253843268394206,
            -0.05673105960528815,
            -0.03615914916238083,
            0.2674613503039741,
            -0.05407778177166886,
            -0.06682313395837225,
            -0.03126903852109851,
            -0.048272405787275145,
            -0.017962893545535225,
            -0.04425265922173463,
            0.06816848214469139,
            0.02069399627863483,
            0.009794534432585933,
            -0.0009074258631580762,
            -0.032314088647290067,
            0.05790853755784443,
            0.01103492995028657,
            0.011072926290710994,
            -0.01468266934812626,
            0.07240597060226446,
            0.06874920303651007,
            -0.028623324685592526,
            0.0002138121478661159,
            0.008383679301101427,
            0.015837389639673558,
            0.01749991428408186,
            -0.028204381891623546,
            -0.07311954967873405,
            0.1220925825974461,
            -0.10552264746058822,
            -0.03237398609477197,
            0.04078132421735695,
            -0.013290351849657565,
            -0.20210339807898758,
            0.07441699359414021,
            -0.13752358966898165,
            -0.03506653932008535,
            -0.012648233358372951,
            0.07402847521698112,
            0.006507453639369429,
            0.06529541558048867,
            0.004507710461896963,
            -0.15894326390028768,
            -0.035090083125860455,
            0.06996010566848641,
            0.21971723412032312,
            0.07517831925473596,
            0.00958307028457138,
            0.03141190860964893,
            0.060079852348655746,
            -0.35097382961898294,
            -0.06626866806218848,
            -0.01626371888855751,
            0.28220126619621994,
            0.03149508931750333,
            0.045452530528002064,
            -0.06252235792988188,
            0.020744231989841412,
            0.026884653919307402,
            -0.05641832509229398,
            -0.02177701134709504,
            0.009406720516679831,
            0.060594408034543204,
            -0.010390246299670655,
            -0.025706518599826107,
            0.07702356235301337,
            0.012927734582369598,
            0.0632809344023647,
            0.013537521234734062,
            -0.06644001684758578,
            0.042155757728821186,
            0.07492800053680808,
            0.03658028508217945,
            0.02032047555432047,
            0.036932017747904555,
            0.0011477335784179504,
            -0.05301185184114707,
            -0.04859418630847844,
            0.0429978868178149,
            -0.07383087067346446,
            0.020569644274229318,
            0.05126696301223059,
            -0.06568028175816662,
            -0.05122550670132233,
            0.000517427995675529,
            0.04419548799981092,
            -0.05237422631106192,
            0.037840264757727324,
            0.004661467938701619,
            -0.0002217835481113234,
            0.00482842506831338,
            0.060234983284924284,
            -0.03697204364888963,
            0.023942573848809365,
            0.0551040475092207,
            0.020465560747518652,
            -0.06536132016003099,
            0.048826251817145144,
            0.03260460374362428,
            -0.040824395931328604,
            0.07469075442596455,
            0.028806587718546578,
            -0.052006860097941324,
            -0.026351656437093696,
            0.06525362082563892,
            -0.051486544227209205,
            0.051879772178365965,
            -0.12193259650452988,
            -0.042067623837525096,
            -0.33922368683130694
          ],
          [
            0.020966299304231783,
            -0.3526523823112762,
            0.29029845187884173,
            0.7386680473755,
            0.41431663674393265,
            -0.39774455484858395,
            -0.45420781108358044,
            -0.561956814399448,
            0.5596430948521872,
            0.029418248826796747,
            -0.0014391266059178703,
            -0.17020379450018158,
            0.38781702311243715,
            -1.1073272047264748,
            0.3312342217956382,
            0.15375726119264005,
            0.20028374460158102,
            0.5891303899819404,
            -0.38645837671142425,
            -0.20004308402899973,
            0.06017612927624375,
            -0.4808282268593478,
            -0.07496607090919485,
            0.010535562881386226,
            0.03421599439931079,
            0.12464146453146085,
            0.43931869679595625,
            0.2619869371844916,
            0.10650571630246222,
            -0.2868555591684522,
            -0.5427291029718934,
            -0.004225271766834032,
            -0.048233058892206554,
            0.02031701089941787,
            0.21468669395138018,
            -0.011418806439712645,
            -0.04900391805587356,
            0.02445971449605802,
            0.19546484422236887,
            -0.3560884452775895,
            0.302457446281025,
            -0.033868025835943436,
            -0.04995200444659875,
            -0.030458477827374895,
            0.14176564267438396,
            -0.5153709700293683,
            -0.05224852929529513,
            0.02632048194112478,
            -0.06581590050661151,
            -0.06882716458876736,
            0.0164207994634208,
            -0.05149990882506488,
            0.038480523299920716,
            -0.04584751559675047,
            -0.05362055431861698,
            -0.07136134130865367,
            -0.008124984944267138,
            -0.026715089221739742,
            -0.01147152073037501,
            0.05080315291943267,
            0.02588139046992098,
            0.038803465022988676,
            0.3499334534033176,
            0.7260502745076878,
            -0.044974488033165824,
            -0.19395516613204006,
            0.018518104613973504,
            0.026755775436795613,
            -0.3671792135569082,
            0.008957488493347071,
            -0.03584663797662835,
            -0.06397505103007474,
            0.04121331440231328,
            -0.01649360988835621,
            0.009740781052101508,
            0.008305997391736597,
            -0.05061656751447048,
            -0.015655949379249738,
            0.009397706481612242,
            0.006824220530750241,
            -0.0007598283234430958,
            0.05365669686006079,
            -0.0435561876295901,
            0.059876197298681696,
            0.02853653851746435,
            -0.03535727908529757,
            0.032133114578662844,
            0.03951469025670859,
            -0.038715515705810416,
            0.03093854158072637,
            0.0688244213346947,
            -0.036614027279801585,
            0.02505077626965971,
            0.09866824401636438,
            0.4327608580397185,
            0.008103615951904675,
            0.0741815398308013,
            -0.014882209658473443,
            0.2033514185227079,
            -0.03217316779697451,
            -0.002897803936438885,
            -0.04245445125426584,
            -0.060667290453727526,
            -0.053344465895410996,
            0.05111061906345506,
            -0.07492987583087841,
            -0.04806116674375295,
            0.23645127351644973,
            0.0003624938056889102,
            0.0160777991257868,
            -0.23534043061805812,
            -0.039861648288456474,
            0.0621320887400993,
            -0.006529803185141694,
            -0.037427965344647124,
            0.06475373273934185,
            0.014169611966400082,
            -0.051974214057428234,
            -0.1375021662962811,
            0.0667691979190607,
            -0.050953573860818425,
            0.050442737576658764,
            -0.027347559169618518,
            0.07193162985748146,
            0.002653257233996481,
            0.049777840604262394,
            0.00938300677712664,
            0.06060839167976785,
            0.07503976003746181,
            0.0013036711233568856,
            -0.17852685180651728,
            0.07086690708456624,
            0.06315732544184562,
            -0.06619834389836743,
            -0.06192196756996311,
            -0.03896944484837535,
            -0.06833062508133643,
            -0.0699427885646704,
            0.007496242375400711,
            -0.05435582257301774,
            -0.009288644073833202,
            0.005512869858175035,
            -0.07187336881533132,
            -0.01623739469433442,
            0.010222710327862719,
            -0.07298357623027503,
            0.06328654173772623,
            -0.0743054908253508,
            -0.008756466092708623,
            0.0641012169408416,
            0.04199191186731123,
            0.01930798292048587,
            -0.03682665830155327,
            0.012842366959623777,
            0.008214255291970743,
            0.06365871902248181,
            -0.059236518912185045,
            -0.04311790144420686,
            0.011026414618471592,
            0.0739624775183919,
            -0.06641026643062532,
            0.03519061703387322,
            0.0011369737437768729,
            0.007793428642051056,
            -0.025291533352147448,
            0.05299976769328067,
            0.007596650743266917,
            0.025851353340743996,
            0.047793098356398514,
            0.04610287038539357,
            -0.04791175493109817,
            -0.018143313882013748,
            0.10056572395409757,
            -0.050691734466439306,
            -0.6837510420114101
          ],
          [
            -0.031774108347963896,
            -0.1517740055515953,
            0.3046286766326669,
            0.6055457310543234,
            -0.07604538048522584,
            0.2511682965771395,
            -0.28503427227329126,
            -0.3709469453544412,
            -0.08698179223989615,
            -0.021591839288261302,
            -0.048049502979820205,
            0.42785825349170953,
            -0.3160164950350354,
            -0.23000254924002625,
            0.3971493979164546,
            0.21158252441951345,
            0.18785773586641644,
            0.5663337017676486,
            -0.16268403798175132,
            -0.0022077335917796244,
            -0.3837048181271663,
            -0.5887383201053222,
            0.0163796524414437,
            0.010944207136844616,
            0.04172777753772845,
            -0.14408820639314598,
            0.127283729637259,
            -0.21470962663946228,
            0.048254675524624736,
            0.22052002424402425,
            -0.14036158265589732,
            -0.013749547290519777,
            -0.4502566257542823,
            -0.045789208931027656,
            0.0822665908829571,
            -0.040353693499032894,
            -0.01711504228447621,
            0.35132315421026267,
            -0.6135888031451895,
            0.03458904651001942,
            -0.4042119921628439,
            -0.3940786521098418,
            0.05824824022432097,
            0.05719378254697682,
            0.2849894180610059,
            -0.27669751779990925,
            -0.018225843624282336,
            -0.27321712541184273,
            0.05558788558828705,
            -0.014105205847601734,
            0.0008340077877417584,
            0.0057071250030753945,
            -0.013434418147855856,
            -0.021143409591445277,
            -0.009016159340596483,
            -0.007593668065813242,
            -0.03896371990276157,
            0.05960273759598729,
            -0.025784572805765495,
            -0.007469315273521057,
            0.007961754119139852,
            -0.038312633032638654,
            0.3317656485206091,
            -0.7351863356762468,
            0.07482638883563197,
            -0.08100585057797875,
            0.0478059255655753,
            -7.912617814759677e-05,
            -0.16114057053107883,
            -0.02035858095772798,
            0.0510173080256043,
            -0.05195240363269851,
            0.05608003808858617,
            -0.055612194195534356,
            0.03414984268139072,
            0.0032219687447919143,
            -0.01569476438581556,
            0.005972128875033275,
            -0.04055867044405612,
            -0.04425328543617337,
            0.043751885930280426,
            0.04899896370536734,
            -0.023664966179826122,
            0.007688031537049833,
            0.023778349565851745,
            0.032153415576719455,
            -0.031244421422927632,
            0.007927530186479168,
            0.02374633730884884,
            0.041911324250143864,
            -0.008885264662075773,
            -0.029713830039099748,
            0.18247996365524297,
            -0.01392262100839569,
            0.47136924490465687,
            -0.07319567228156781,
            -0.05949649812145029,
            -0.012893593746897997,
            0.32881929387032927,
            -0.0393407258796077,
            -0.03891484295860288,
            -0.03041743564898522,
            0.02687459249356529,
            0.04806979177238942,
            -0.06975757457923232,
            -0.07466219713186817,
            -0.037813044663955755,
            -0.17692946156526812,
            0.012093311078280308,
            0.053508809648981456,
            -0.38104365944837254,
            -0.04134526999856146,
            0.06539533491863135,
            0.012410079560042739,
            0.038333299655622,
            0.5885467033794699,
            -0.001374840470331188,
            0.027105477096891484,
            -0.4153064704979528,
            0.03729241550086185,
            0.020013565259092564,
            -0.012263429513691162,
            0.009771621262250216,
            0.030190532808627338,
            -0.06895150393722507,
            -0.044975587744946685,
            -0.07247444120891006,
            -0.0272670737955924,
            0.05484592364669401,
            -0.04223828268889825,
            -0.09665482016689665,
            -0.05589370516657319,
            -0.061495300499037085,
            0.0544475729609072,
            -0.05157522493894652,
            -0.05209845094776862,
            0.023635780375883847,
            0.017737917762064945,
            0.05738600596592931,
            -0.07048083212239126,
            0.025144472248673652,
            -0.028104229879531317,
            -0.03189018219061871,
            0.06665020066216552,
            0.011961203912303611,
            0.07283876344061131,
            -0.053829252209248266,
            0.028179299425413112,
            0.06941211428541565,
            0.06560875361941969,
            0.06170528953067654,
            -0.011158736108897116,
            0.06001086663443726,
            0.019740945788450384,
            0.029927843827532358,
            -0.07542329976631276,
            -0.07119519172404828,
            -0.07372671455475836,
            0.025140332471579444,
            -0.07437613599311148,
            -0.02280599818105046,
            -0.06300117505360817,
            -0.037452427380321125,
            -0.05579925161086283,
            0.06657437006957405,
            0.07274931409350709,
            -0.05712770376146262,
            0.05352367869881565,
            0.06633268973304514,
            0.03513371528150119,
            0.012498195901041537,
            0.06989082200937481,
            0.33258121718947053,
            -0.017376373492937275,
            0.6746711485226778
          ],
          [
            0.6827517505670021,
            -0.6107090017539728,
            -0.3310513327319332,
            0.26579444242976463,
            -0.636518948688094,
            0.08010068755762385,
            -0.5087012346460976,
            0.13115146908224984,
            1.762238225775357,
            0.031921161889895154,
            0.059177794680657966,
            -0.24729627083736472,
            -0.5628500413563609,
            -0.00037137175088745324,
            -0.24485343353921574,
            -0.13583594764938933,
            0.20892328220851783,
            -0.09531703580745265,
            -0.0881534853815688,
            -0.10309805212304958,
            -0.1259452017157839,
            -0.4311486353165205,
            -0.02637134994870029,
            -0.01996663477281852,
            0.037378583386141556,
            -0.19816340268336677,
            -0.21337408351672196,
            0.021753983407682496,
            -0.54840016094179,
            0.25224959968874777,
            0.3692355204087485,
            0.1516742648873347,
            -0.11481812123667932,
            -0.028032577200614455,
            0.25211722741505416,
            -0.061176092063924326,
            0.04744163099057548,
            0.5235805399813876,
            -0.12411917472562672,
            -0.48606739490410183,
            -0.4362124176550274,
            -0.20360985757648312,
            -0.016907134769916513,
            0.07038358829533506,
            0.12222721699016158,
            -0.1556610378611189,
            -0.0670766122561678,
            -0.6006858948515743,
            -0.019954586862022297,
            0.0023974355260426433,
            -0.0625634676888565,
            0.05025272396679471,
            -0.04040198840076686,
            -0.07010376110714439,
            -0.07039418689737185,
            0.050513479042038,
            0.0155158010592754,
            -0.046472315113103645,
            0.031157271729966005,
            -0.011418919252387319,
            -0.0005786919293038623,
            0.02373856197040658,
            -0.1615170562090468,
            0.15160813341176904,
            -0.04942534677652294,
            -0.001580863991213716,
            -0.045519344489689306,
            0.041076588320675275,
            0.1183526922271825,
            -0.025700808969349002,
            -0.008087007764691859,
            -0.07143609381855996,
            -0.0484685419226736,
            0.02495598459244882,
            -0.012080716162311045,
            -0.036951399760754525,
            0.03634653725521368,
            0.02606241292125877,
            -0.025723665677582656,
            0.03138948992899336,
            0.028179687933418476,
            0.01880729219467056,
            -0.037385291992340315,
            -0.02324778671502755,
            -0.07413265149040145,
            0.0641758948652819,
            0.06841002565031772,
            -0.06914252421864102,
            0.019409301860435407,
            0.0006438715866265432,
            -0.019267552511006113,
            0.047895410085891696,
            0.07242740524567642,
            0.17715129938995938,
            -0.06928499127573874,
            0.0614062217393548,
            0.01400247736819977,
            -1.5544098058525857e-05,
            0.011883462219587136,
            0.05589665612460672,
            0.3826993867213925,
            0.029852487641443187,
            0.04730289437202702,
            -0.008494410285425191,
            0.041616139602967395,
            0.046974233146301184,
            0.05156600447351055,
            0.6580102485389836,
            0.07249750355096263,
            -0.03858567803780249,
            0.3277234056236181,
            -0.0035399957771794915,
            0.04642428589579384,
            0.0257045654231884,
            -0.021350896688739268,
            0.7681933589115644,
            -0.07250680385450269,
            -0.00579128314950543,
            0.09941588988156193,
            0.06270745918806427,
            0.032932066702696244,
            0.019230033078614595,
            0.0012631741657392033,
            0.06636183550672771,
            0.02947294122402505,
            0.07146033513831972,
            -0.026727727108950487,
            -0.02817392636205676,
            -0.02044725644405762,
            -0.00507963085411423,
            0.11531967683992435,
            0.018776461616842842,
            0.03742130041510375,
            -0.03712015507449159,
            0.06032373442215054,
            -0.02457078983223967,
            0.000251215560513135,
            -0.028748090391039906,
            0.005161368138562605,
            -0.027193099357086116,
            0.0013794050510157613,
            -0.07052289303541642,
            0.013806290331505357,
            -0.04941590919769573,
            0.07517547219866506,
            0.02901107518803296,
            0.06113122641340073,
            -0.042756412688823825,
            -0.0658864141600856,
            0.0159815247484707,
            0.015262982621335894,
            -0.06958957961805601,
            0.07129060642179653,
            -0.07468453159093327,
            -0.06989579151473754,
            -0.008453969657332402,
            0.007189343472869675,
            -0.008194065573954967,
            0.025482507297796997,
            -0.059425968491869194,
            -0.07470777076733137,
            -0.05439657101695257,
            -0.002247667717371296,
            0.05273723032049406,
            -0.03349942296931981,
            0.039283090944441657,
            -0.032405849199533696,
            0.005714760229390298,
            -0.06356311234785879,
            0.05360838314710174,
            0.0005392440665095422,
            0.0115315185109469,
            -0.2017477102499709,
            -0.06950780720587839,
            0.444773433091256
          ],
          [
            -0.17149546957623885,
            0.05169488213993205,
            0.143164981522752,
            -0.7145063988201763,
            -0.4441599260568751,
            -0.32317874288752835,
            0.5566257927420387,
            0.5249277822540331,
            -0.018296502113171766,
            0.0168521576728946,
            -0.06954478734863231,
            -0.5376723845269638,
            -0.6876030231607245,
            -0.07523622507312434,
            -0.04521510389400839,
            0.0520131469878993,
            0.38176973812324366,
            0.1854125756552093,
            0.602336354704792,
            0.3875663853228654,
            -0.05849307733695859,
            -0.06317070474458217,
            0.010997537501626072,
            -0.0545148255442432,
            -0.04134096555178168,
            -0.5915108195548934,
            0.009503151119985233,
            -0.11297030884504611,
            0.1260031954304803,
            -0.3601811440601263,
            0.456895446872047,
            0.11338261040053814,
            0.5154080417079717,
            0.001722383223794655,
            -0.37357219123193713,
            -0.03958779240390329,
            -0.05853986918910353,
            -0.051505425272264996,
            0.2882761516770286,
            0.2347581110662584,
            0.5638445455537524,
            -0.24843546564105395,
            -0.05334069282139934,
            0.07017638873324777,
            -0.289308788883598,
            -0.1165474715735852,
            -0.06231989093740966,
            0.12998959402076907,
            -0.042696392026285945,
            -0.07406940299126265,
            -0.05587295223429885,
            -0.017558056465353966,
            0.00035097986399902636,
            0.010219133941367545,
            -0.03524379906070231,
            -0.038560781525710665,
            -0.06550318701425323,
            0.06670859010736456,
            -0.04520182305735869,
            0.06941423461478487,
            0.022605924001611877,
            0.054332559414413104,
            -0.3297052012400637,
            1.1384070875114973,
            0.012657768666060318,
            0.2015342077291518,
            -0.0029291817812695025,
            0.022717862119722723,
            0.10249609436337445,
            -0.05079987041286214,
            -0.03479267510419887,
            0.03862290178961681,
            0.051602513584830804,
            0.06478471552570005,
            0.013908431100825389,
            0.0012573880280945526,
            -0.02205056912640646,
            -0.03628274859678641,
            -0.03452440812724004,
            0.051117163369278226,
            -0.04980404080166742,
            -0.0016455554170901054,
            0.016435326334119316,
            0.06793484665025605,
            0.01011234080021245,
            -0.009604405516540501,
            0.054274277269406326,
            0.03364698682620569,
            -0.07506753399441218,
            0.031751363896654075,
            0.06386888860899738,
            -0.04713022096176224,
            -0.22723329484497842,
            -0.043158001901556435,
            -0.059252397378315225,
            -0.0396571957933975,
            -0.029811605786200873,
            -0.0009753815088652529,
            -0.282571840068994,
            -0.034673591371593065,
            -0.24130902058518006,
            -0.015759665163001424,
            -0.06673727120957448,
            -0.06856122582816705,
            -0.06138347972935319,
            0.055293207197238,
            0.06025242913744826,
            0.16473945775264595,
            -0.0463316394051845,
            0.03756748169468416,
            0.30538617456326245,
            -0.024748772356205997,
            -0.056085187986388105,
            0.017467664052257442,
            -0.013527456871758853,
            -0.28941581116328013,
            -0.030734348943280455,
            -0.06389570166920773,
            0.49525085046723816,
            -0.007126433093565324,
            -0.06425955746834958,
            -0.05590951826783144,
            0.008737296813089426,
            0.027114677200116136,
            0.013492012301618256,
            0.007753349352228114,
            -0.029491384862254486,
            -0.04260612318277939,
            -0.0449627840424201,
            0.027794469534643682,
            0.03256600331973036,
            0.020042332934996944,
            0.025168516003361646,
            0.04817770065202964,
            0.03779050680436884,
            -0.06412063810298971,
            -0.03324564127791727,
            0.05252670908396874,
            -0.06630353159148213,
            -0.015335884048017237,
            0.032729070342310276,
            -0.04682849852292943,
            0.056154666621719904,
            0.055129851107318176,
            0.042259362703497436,
            -0.015853694524884346,
            0.026885417874818546,
            -0.034703858578261415,
            -0.01968370450016839,
            0.007773871436994567,
            0.011549526313411565,
            -0.04397103149720181,
            -0.05614223775363833,
            0.059296837300096925,
            -0.020762603419967718,
            0.04234401113447071,
            0.05208259014260076,
            -0.03269229625799158,
            0.005307874523152373,
            0.06344737617770656,
            -0.010602568252285602,
            -0.015863426905275924,
            0.021528583790844866,
            -0.0016308428529409197,
            0.04591145749861458,
            -0.07459899151647216,
            0.03285044962850678,
            0.014547032780087218,
            0.06998106179900564,
            0.01671229570883699,
            0.006017441114616218,
            -0.06302105334719248,
            -0.6674642499566013,
            -0.015562999567546025,
            -0.651391809035343
          ],
          [
            -0.041420844079361294,
            -0.08894824134930268,
            0.5587509785347076,
            -0.34209986744857523,
            0.41270670373519414,
            -0.2339008318025724,
            -0.5240348984608135,
            0.00659796607230058,
            0.06373422705250681,
            0.011292194275359256,
            0.041727411823253846,
            0.5487772229761798,
            0.4358840175615278,
            -0.016324331214211646,
            0.24995584631466877,
            -0.2264893329799789,
            -0.041524166726301055,
            -0.13585283074608642,
            -0.30996621696979315,
            0.11926066108855853,
            0.29759386886126843,
            0.26705097702891295,
            -0.02324931419047575,
            0.055425322921165435,
            0.04106808696808267,
            0.3900618653916028,
            -0.276477514072822,
            0.20615319310998934,
            0.013984153508572919,
            -0.21031242491388416,
            -0.006821638352845273,
            -0.04712509957992039,
            -0.40793822815328146,
            0.0323448970243334,
            0.13664019148077483,
            0.07312792854228183,
            0.005525539250382461,
            -0.6075139561655405,
            0.0019343576203863218,
            -0.2912041800888719,
            -0.17379292824073922,
            -0.20130682202110303,
            0.05174342112805785,
            0.055788540725145656,
            -0.1454480322081598,
            -0.1307588310798483,
            0.06778477962975314,
            -0.14383971251403496,
            -0.07231155276035377,
            0.010330686491179616,
            -0.014984720247284207,
            -0.0630963801818798,
            -0.06714677459518145,
            -0.024794073839627936,
            0.019888684332668608,
            -0.03668096776360485,
            -0.03938752654212569,
            -0.011908034876046455,
            -0.03243651420661967,
            -0.06446657205427939,
            0.004076322840329369,
            -0.0015323642979015173,
            -0.20317249767130474,
            0.47316220967423184,
            -0.0030291244960378044,
            0.07853406363117177,
            0.014582376756832145,
            -0.015124251108347057,
            0.03941040944692194,
            0.020652998165463343,
            0.03163166145136933,
            -0.051770954387975535,
            0.06401511120903619,
            0.04356835077075,
            -0.011034575262394736,
            -0.07429607215873653,
            0.06957079193328693,
            0.031199624950499175,
            -0.06340906152604492,
            0.03703200751338491,
            0.02640344394865593,
            -0.048688830794883675,
            -0.03165559543920508,
            0.030581156436817858,
            0.038478042802458506,
            -0.0522638695428223,
            0.06774023021878424,
            0.07247610897861588,
            -0.0236430315612089,
            -0.011012723358425014,
            -0.055404825830847784,
            -0.04768828016200456,
            -0.014085543619632487,
            -0.06785465779366155,
            0.3569955097312018,
            0.002729436558907228,
            -0.06169863889206417,
            -0.029490222463474894,
            -0.24092334338469445,
            0.055554352287510114,
            -0.20642119941230286,
            -0.02767948293548174,
            -0.05674630253559568,
            -0.07292717451363182,
            0.06474087744179284,
            -0.03423406487019406,
            0.0289353942811459,
            0.24423313421982917,
            -0.0595835263233576,
            0.018467172979802146,
            0.3591951230988245,
            0.05595731156968388,
            -0.016350666017216853,
            0.00854433121826191,
            -0.01765178262689071,
            0.19162625746883796,
            0.04733423602275515,
            -0.05428460133698956,
            -0.13508346017005465,
            -0.05356858641824386,
            0.05466443344473111,
            -0.01257470255252696,
            -0.06203212778105121,
            -0.07121770812692832,
            -0.008755878678799178,
            -0.041475130425465676,
            -0.06718956903055179,
            0.028054411073779706,
            -0.06201143033579758,
            -0.020216930582164765,
            -0.0021540846977692553,
            0.036122455219467456,
            0.07217669085135762,
            0.030754734255884875,
            0.04439261412256593,
            -0.006744784984552402,
            0.05778369112483987,
            -0.06674038291545785,
            -0.05040896261964256,
            -0.06250648263603306,
            -0.04029388807312055,
            -0.05339201304262846,
            -0.02602577110116846,
            -0.059570366353182753,
            -0.04020605089531106,
            -0.06504082063339203,
            0.005688499772581346,
            -0.06007294502550803,
            0.0553002969314972,
            0.06661871906649709,
            -0.06935818115320924,
            0.007665714167042245,
            -0.048926809016912876,
            -0.049933583794177616,
            0.044006305308820715,
            -0.03365795164569373,
            0.056489746961059586,
            0.03788235712710325,
            -0.0052261415137451195,
            -0.06368771869664373,
            0.061113645639977995,
            0.012321441196079114,
            -0.060086974454080004,
            0.054067045276724,
            -0.03608761130926677,
            0.04667996754660074,
            -0.05073096230381989,
            0.05953927341891134,
            -0.04399416307012281,
            -0.04313512936204246,
            -0.014354713623884983,
            -0.02458987489989331,
            -0.19345255782687706,
            0.017599536094053875,
            0.00478173238076161
          ],
          [
            -0.603186955243899,
            -0.20556320703686734,
            -0.2882565088063985,
            -0.2799660973064935,
            0.160530942083982,
            -0.19557935111115707,
            -0.41620334978751317,
            0.04947147272882299,
            -0.2719511985493802,
            0.029261033318159133,
            0.01478067366665839,
            -0.02357217467867611,
            0.43748816555192105,
            0.09651285002100429,
            0.6364510230547796,
            -0.8309435177088924,
            0.5478013816398128,
            0.5869825794005308,
            -0.3367461481480059,
            0.26242298069319053,
            -0.12303401241571235,
            0.07874864859761573,
            0.04234438368618858,
            -0.012417087713814348,
            0.048494376211877355,
            -0.3031576869924897,
            -0.22894172940912266,
            -0.2062716435291047,
            -0.21629567707795191,
            0.1556203494790975,
            0.42101852043928606,
            0.27736350127624015,
            -0.12226260427372009,
            -0.012065504991561999,
            0.18943572841373585,
            0.005043943547100221,
            0.053544202695618284,
            0.585728104129834,
            -0.2401033470633387,
            -0.20710723434724515,
            -0.19960524609743635,
            0.12453822376311448,
            -0.029663462997200987,
            -0.07088107912890307,
            -0.07812626755098162,
            0.3753650236632379,
            -0.037052365849667215,
            -0.22955864547318575,
            -0.01384530254622511,
            0.024343181632354632,
            0.032358440749824635,
            -0.05278808215140021,
            -0.04386532494250922,
            0.06590446115845279,
            -0.022176758894468608,
            -0.07483117922336131,
            -0.01343833295303181,
            -0.070405151650568,
            -0.04919425963071726,
            -0.03464786550877432,
            0.06595480860212137,
            0.0344486563863796,
            -0.5256889660287194,
            -0.8159633472042225,
            0.0711117709382701,
            0.04391706602826725,
            0.026881862316674107,
            0.0675436531281962,
            0.10487911273196016,
            -0.047942303670550794,
            0.0730165299173899,
            -0.025956146467777486,
            -0.027805269906962537,
            0.010609709117885571,
            0.003935591011266448,
            0.05510457786797569,
            -0.0017520376654221875,
            0.06862614444142585,
            0.0005965450917047727,
            -0.06755213982244364,
            0.04810108104597194,
            0.011179872448813924,
            0.06282749831351615,
            -0.004618315770610476,
            -0.006848540715604229,
            -0.044850169140037775,
            0.06778772949767826,
            0.0057629497840814975,
            -0.030767823513531745,
            -0.030770573176720238,
            -0.05988415028344407,
            0.06982782256839569,
            0.01765419325218642,
            -0.02759389399469857,
            0.33938279290204826,
            -0.06550848364738904,
            -0.05623227378709019,
            0.04959501433111653,
            -0.21020916262122763,
            -0.0651182507282332,
            0.129470290538876,
            0.034174527933237484,
            0.04728654371191586,
            -0.04891150727377759,
            0.05939470221325106,
            -0.06135023238366643,
            0.052133075504194284,
            0.11717854838425337,
            0.045603354283954796,
            -0.007544638358516514,
            0.15870259743985574,
            -0.053403010431760115,
            0.04142266862899549,
            0.0047192605497301116,
            0.025035044024713307,
            0.018830445778566483,
            0.03238526391494693,
            -0.0073341663003758245,
            0.8454299192695294,
            -0.06549664059093574,
            -0.01701959520407731,
            -0.0038960216387223232,
            0.031272773155002875,
            0.011765059959118779,
            -0.008100782293367165,
            0.05769646229629451,
            0.04956543237562823,
            -0.00541115197062908,
            0.0723801175118143,
            0.020007201916928216,
            0.15228039865583548,
            -0.0009968353610703654,
            -0.04962808437937326,
            -0.009581046712743513,
            0.040430350928464004,
            -0.010713702972974276,
            -0.0158099186592789,
            0.008436160279742838,
            -0.016711990211125252,
            0.05378496673461898,
            -0.06823911922110353,
            0.0029198909506538417,
            -0.01135185833038029,
            0.01745833951599675,
            -0.013430997958967891,
            0.01601946352268266,
            -0.006084533627501859,
            -0.0751047476025973,
            -0.014135948452418341,
            0.016432734887431508,
            0.06961480677622676,
            -0.005308582023126285,
            -0.07226932076160375,
            0.023671440679694955,
            0.02512406113992878,
            0.0012364075108195344,
            0.002199312218312627,
            -0.02877843591783115,
            -0.043466217832064245,
            -0.048096374154746956,
            -0.061186990216093376,
            0.03563678002220558,
            0.008409028748248976,
            0.02185310855619689,
            0.0037854432960885698,
            -0.0514842743108133,
            0.00531697539296698,
            0.056758545054699336,
            0.008948420523527276,
            -0.03595183482930077,
            0.049986538757783625,
            -0.015441085143433717,
            0.3127111365154532,
            0.028942808042564758,
            0.43124642624385207
          ],
          [
            -0.20065521889354007,
            -0.14325931542406012,
            -0.07805642334713388,
            -0.10847255529990533,
            0.3108897834627754,
            0.05352186685521128,
            0.019875036007900082,
            0.32734323014895844,
            0.09197682693148179,
            -0.004203110378647596,
            -0.0082201605777006,
            0.12637165701220762,
            -0.3286219649980309,
            0.07743008561503319,
            -0.5196947921692392,
            -0.11003056249061259,
            -0.25907116203168246,
            0.0788827268209708,
            -0.24533864079206033,
            0.0934414883871663,
            -0.2608693049809681,
            0.4031315358251363,
            -0.026749686086933174,
            -0.0003657696279888989,
            -0.046868101364489274,
            0.7376499045710044,
            0.5825687908999542,
            -0.20426025730053882,
            -0.27167123456685305,
            0.002578024900100184,
            0.03579203552251359,
            -0.13592288394457128,
            -0.3102782749785722,
            -0.04456418696654663,
            -0.30894241571844516,
            0.0057282233749323536,
            0.015434015104350399,
            0.04722963076935167,
            0.35507416222691085,
            -0.3983562130448627,
            0.04080098148562048,
            0.06436790180584831,
            -0.0022452832108589066,
            -0.059931921670240876,
            -0.09612323906515678,
            -0.05383638917337932,
            -0.021876138474804515,
            -0.10075947898950668,
            0.04171654104309569,
            0.06422091413106974,
            0.06592712557988505,
            -0.04069390731370914,
            -0.07164529602877283,
            -0.07034915570600873,
            -0.00865567843544958,
            -0.042002561311465264,
            0.015949146262077912,
            -0.003327871445204314,
            0.058943254180327406,
            0.005758449112850075,
            0.008762965527805366,
            -0.029020636256626146,
            -0.10818373808350956,
            -0.4186744914814717,
            0.03862842395275092,
            0.08527233789164852,
            -0.004346679088147725,
            -0.002889165432723914,
            0.1535637505895571,
            0.04780607096115724,
            -0.028817068148083564,
            0.01806449247411823,
            -0.058054673425630664,
            -0.0742716754574866,
            0.057849764901014886,
            -0.045065653470047526,
            0.02549594129300728,
            0.017240056186438174,
            0.05247079422167074,
            -0.034154722699779705,
            0.02484043681923212,
            0.022984906983945494,
            -0.01823671945036924,
            -0.02440846521109552,
            -0.053126182852910986,
            -0.05114158318042856,
            0.051320002506866816,
            -0.0332536016548191,
            -0.049504726587226766,
            0.06752623911837256,
            -0.03586203984943809,
            -0.021287142243417052,
            0.09064881218667326,
            0.12305675772517005,
            0.05850447516872731,
            0.04743996532620841,
            0.05898428610511594,
            -0.04582935830690686,
            -0.09390920123508888,
            -0.050988648112451296,
            0.169567626007531,
            -0.0406971582548672,
            -0.041664415475002166,
            -0.0141840520586951,
            -0.027306579586436078,
            -0.041904946942572185,
            0.0513300479997746,
            -0.06632567947191526,
            -0.03066794413797577,
            0.05774466094652163,
            0.19366521609296086,
            -0.03237922914323657,
            -0.06967319533932738,
            0.044059157435169985,
            0.05142786420293978,
            -0.06400537255536116,
            0.0007975306818751279,
            0.06832139125775104,
            -0.1475203050503162,
            0.04433827862186927,
            -0.06709418315312357,
            -0.042126819020787735,
            0.05787712829814639,
            0.018452683670073647,
            0.04907190246625506,
            0.002754678363386817,
            -0.04789613110662198,
            -0.00048565435909182775,
            0.017776432289996938,
            0.01988127323006649,
            0.2260992831072355,
            0.026106521484583395,
            -0.06790038126989861,
            -0.07222700813224324,
            0.07041199350550877,
            -0.01831318179165429,
            -0.055086623764608274,
            0.012510983652827545,
            -0.016015303356453535,
            -0.055906650850609196,
            -0.04345940579177056,
            -0.03898276482820785,
            -0.00729670769014077,
            0.06672888774576437,
            0.014079190279609063,
            -0.03523546084785952,
            0.05235037987238954,
            0.018681951161844887,
            -0.01319353278515497,
            0.029483714160078195,
            -0.05926906472378782,
            -0.049302216352670736,
            -0.020679975540163147,
            -0.04139592352383606,
            0.013863720910114674,
            0.0687500357822848,
            -0.046191991993410966,
            -0.05821826556894372,
            -0.06237117873437994,
            0.010309791864572024,
            0.0730215952504553,
            0.0020298832055774124,
            -0.06797224441387396,
            0.03215759794569706,
            0.02000027380087295,
            0.004135847765966386,
            -0.037478446905846424,
            -0.02908164057448548,
            -0.021027741235803588,
            -0.025423723292994305,
            0.03867292374398097,
            0.05518836929228542,
            0.02483357111046449,
            -0.021815965402403464,
            0.015333084987673074
          ],
          [
            -0.43184802605696004,
            -0.03163661708472166,
            0.5837387507397596,
            0.3806086100698667,
            -1.0836468792696055,
            0.01415176532381229,
            0.9290955229662514,
            0.37285561612951174,
            -0.14110450968784996,
            -0.027280190845864558,
            -0.007889543041834979,
            -0.2203131103972256,
            0.20394276996534913,
            -0.20253870826649983,
            -0.1673363541812715,
            0.36332621228651296,
            -0.09681232125850654,
            0.053945594904550136,
            -0.11825909248209279,
            -0.008278850250191191,
            -0.17795101931554116,
            -0.35753282349963134,
            -0.015889195193787446,
            -0.06572848061451857,
            -0.040991727054950106,
            0.24445113109018296,
            0.45034183764778685,
            0.20402048460540656,
            0.06431713552468724,
            -0.019149831756037797,
            -0.3439205019896987,
            0.04321415182233278,
            0.12219658832580428,
            -0.001391099853156324,
            -0.043005870932229365,
            -0.06768693960145908,
            0.001398943408477446,
            0.2549943807969908,
            0.18308194116131904,
            0.10036785264463237,
            0.07805909912639745,
            -0.21396337826610212,
            0.008082510867876156,
            -0.04944805388885516,
            -0.12742082021007134,
            -0.2565147541431808,
            0.03974199320689069,
            0.3562223894702334,
            0.054215372483373395,
            -0.004665674711770179,
            0.036779665690103214,
            0.02322903109439106,
            -0.02772923857470333,
            -0.005265236475416699,
            0.06497500470869928,
            -0.039943305694660064,
            -0.015457303606393857,
            -0.031529058937911816,
            -0.028392086924478283,
            0.03771252627659863,
            0.053869794208428426,
            -0.00792660401606421,
            -0.049029268635879225,
            -0.07557807137974873,
            0.030002539151568502,
            0.1316121907084596,
            -0.02852166465973383,
            -0.0531720454114082,
            -0.10259447947121302,
            -0.023944036051750453,
            0.027942878081775178,
            0.06957009207285712,
            0.03489250197452806,
            -0.05621339442824822,
            -0.0291662216461515,
            -0.007801566043296612,
            0.06438072554568817,
            0.03670955163627154,
            -0.05316595109938595,
            0.02198420279210629,
            0.012124554551590297,
            0.0382102366180464,
            0.0580928349427005,
            -0.0019669343598973654,
            -0.06667740586456238,
            -0.04578043700280956,
            0.0005369292792905822,
            0.009214954420850935,
            -0.05749551431811813,
            -0.057071713893244724,
            -0.06167752791095786,
            -0.07536468443973074,
            0.011238285385183228,
            0.038012689900492405,
            0.30121679199816154,
            0.05167267190862028,
            0.05444157173398285,
            0.03164564500490728,
            -0.12513086817526026,
            0.0640642317960994,
            0.18995860619365199,
            0.027507350659548985,
            -0.06651868812898394,
            -0.07047577635934361,
            -0.025814167335357678,
            -0.026015698544342762,
            0.046232127813227816,
            -0.4834760971588295,
            0.04363258225253194,
            -0.06502020532190632,
            -0.12611817582165202,
            -0.0726193833797306,
            -0.01170225966343727,
            -0.040435773813639025,
            -0.01216465801217495,
            -0.414872238176047,
            0.05747525065301076,
            -0.003515902338057403,
            -0.14723817652618185,
            0.053020124772138175,
            -0.030318290020142726,
            -0.013505349526123629,
            0.04345136863062444,
            0.00166130463442693,
            0.03210827686157873,
            0.01277614837296348,
            0.05354390112599529,
            -0.0343044968323683,
            -0.04894683438523863,
            -0.06402094684715037,
            -0.06991937501549705,
            0.05205123950385251,
            -0.025365444610192314,
            -0.07428019727705662,
            0.04415206145534856,
            0.062462794164455285,
            0.02089093183363684,
            0.05068274820110179,
            -0.02874807760023381,
            -0.04333422665672589,
            -0.024243790778885284,
            0.032549560154296164,
            -0.06649197393265788,
            -0.017228776655263504,
            0.031254285751179806,
            0.06185086396052129,
            -0.047510734211562586,
            0.006581780768623452,
            -0.05941008084621627,
            -0.04089805819222452,
            0.05891177311013525,
            -0.05728353197629042,
            -0.03173739606327088,
            0.0007453930544959464,
            0.04153536976662939,
            0.05746132265275146,
            -0.015933410896809073,
            -0.07033063740438222,
            0.0046705440529521,
            0.045862405065802886,
            0.042939678855197866,
            0.051451671772585125,
            -0.057944668349060535,
            0.0372758771298531,
            0.06297677951794374,
            -0.06469418730676892,
            -0.03240194360445011,
            0.06786776536436138,
            -0.02200935762869849,
            0.040963023802491144,
            0.061967131553031476,
            0.0249931017302239,
            -0.3051919473801687,
            -0.03976401816103601,
            -0.020050284655967362
          ],
          [
            0.7967088117831125,
            -0.6569369750665394,
            -0.4624626612459389,
            -1.0868929411290873,
            0.27318692195944755,
            -0.08545824599638224,
            -0.29867343880350017,
            -0.031395593987933366,
            0.8969309903580328,
            0.07470569380349025,
            -0.007517224411753121,
            0.41148832194899254,
            0.35501439151676584,
            0.7037723635580828,
            0.8240339484689683,
            -0.7890808063063622,
            0.009406289433218386,
            -0.6193783799873804,
            0.150587191643656,
            -0.018605234120927492,
            0.5427414226356794,
            -0.30723286548980494,
            0.07478599103678395,
            0.07378781926659252,
            0.056031276145070905,
            0.16450403222859067,
            -0.20526434614534586,
            0.3694483157863191,
            -0.28555650533790017,
            0.30832402556727045,
            -0.30931701193542277,
            -0.154616392822163,
            -0.48622639213672225,
            -0.06257967409287918,
            0.2750737874426626,
            0.01757269301796331,
            -0.023799669825985317,
            -0.3143110530729365,
            0.5405626385300921,
            -0.6194252889061684,
            -0.01800608016435108,
            -0.27075781037456614,
            -0.045924881600965625,
            -0.04722137146355486,
            -0.2510257766824492,
            0.07458704010701925,
            0.06857078771121622,
            -0.19999758508199428,
            -0.0006374761290306868,
            -0.0552680579302611,
            -0.05422228217690042,
            -0.05227555497469007,
            0.040772761912438116,
            -0.010473373795905835,
            0.06637121896061304,
            0.03423953006474546,
            0.003235775240467642,
            0.02912372512336238,
            0.04137151649311675,
            -0.07465495743357242,
            -0.02166888498484306,
            0.04936803436046515,
            -0.012625872667994727,
            0.38567518030268266,
            0.06198701495500151,
            -0.07065675376698927,
            0.03065033820193723,
            0.011662189628198259,
            -0.10726572368522223,
            0.014697779931773333,
            -0.02010140259006246,
            -0.0007202717098680677,
            -0.04623676801295167,
            -0.032786920645738654,
            0.031566640250930034,
            0.03124242244850549,
            -0.015663132344934563,
            -0.0644255550444976,
            0.04799406734462981,
            0.06705621520233761,
            0.05644259121187466,
            0.029976952957860833,
            -0.04387999720140104,
            -0.029671443308010283,
            -0.056297458520097085,
            0.053163812363127325,
            -0.06157808661344277,
            0.06657255952309511,
            -0.03462702757719101,
            -0.010086608457132482,
            0.06693251995074566,
            -0.05214693624922959,
            -0.10090024770057744,
            0.08496491293214074,
            -0.3320374075486449,
            -0.020721010203144152,
            -0.030886656174944415,
            -0.006070253573234194,
            0.2606679803064382,
            -0.06415377587765342,
            0.444304344523945,
            -0.05409575978414882,
            0.01789029479962588,
            0.03852503977683826,
            -0.05948831901238179,
            0.02037866319602752,
            0.007627501847450147,
            0.5690547904860735,
            0.03766606683669531,
            0.048189953544776704,
            0.05734519880381661,
            0.06671939734420036,
            0.03932690667829382,
            -0.053349289031391016,
            0.0392696380546482,
            0.018956663745062125,
            0.012374934751735145,
            -0.050878830262802516,
            0.31929985797566923,
            -0.06908673395830109,
            0.054276862605981205,
            0.025230632552213705,
            -0.06964377317579683,
            -0.0409741923275007,
            0.02833875218085917,
            -0.06823097140489878,
            0.05913767436505403,
            -0.05221600104527899,
            -0.03381810017548499,
            -0.02606951837769178,
            -0.11133816067118824,
            -0.0679971388702529,
            0.024588205600341445,
            -0.01983319077217771,
            0.05062429849661805,
            -0.0324153805375614,
            -0.018536025611034457,
            0.0010842156761125404,
            -0.034258625789182186,
            -0.013371934683205244,
            0.06578197636166393,
            -0.06926019492385185,
            -0.046857140761618093,
            -0.07530195916186441,
            0.0111743693531767,
            -0.020355257560589368,
            0.04989438632978617,
            0.03387474070569045,
            0.02053491367696783,
            0.017019299391530435,
            -0.028522136029290657,
            0.07120009137846046,
            0.051500902653512634,
            0.07159030749140509,
            -0.03126475137241661,
            0.02329268691594716,
            -0.070611584619363,
            -0.002624458240777089,
            0.04605629119032596,
            -0.03796319625923872,
            0.025612449743385515,
            -0.035772880071928984,
            -0.003180078722051241,
            0.02508785572989103,
            0.01753512472030483,
            -0.029479285571759432,
            -0.057791484289627784,
            -0.053833178608643076,
            -0.020557475563244984,
            -0.021169762482228877,
            0.0293010529473825,
            -0.0659591728354702,
            -0.8989524792802505,
            -0.06811708839878311,
            -0.1683766669192269
          ],
          [
            -0.0687250952314746,
            0.14048675987699172,
            -0.20645383076459467,
            -0.8013470104975303,
            0.4309381263237036,
            0.18428942637867693,
            0.03625974419826294,
            -0.6358025506187729,
            -0.4806711297164065,
            -0.008056139727629558,
            0.030188644650601656,
            0.7086155044185587,
            0.3151306922233919,
            -0.16943089368725547,
            0.010745339936919793,
            -0.09773860186044779,
            -0.2957879014389323,
            -0.4338302370414489,
            0.03951800416695484,
            0.21905207665153048,
            0.03761976462999124,
            -0.5767517286164713,
            -0.028333525850783674,
            -0.059161104902245125,
            -0.020233884408013034,
            0.20545062269304365,
            0.46749244478765933,
            -0.16819016739902715,
            0.3016691633383316,
            0.14290510481734736,
            -0.3150959401299041,
            -0.3906455555003074,
            0.17407834131439212,
            -0.02304031442496125,
            -0.012362450378576058,
            0.06451668820479271,
            -0.0600645044014163,
            0.17673094533953473,
            0.1397016639207135,
            0.07927370500124957,
            0.3937928484259804,
            -0.07838274452292382,
            -0.059055865379741716,
            0.026183472041035837,
            -0.20842169272482322,
            -0.0009634893058953395,
            -0.04547464428844007,
            -0.038966957953910156,
            0.07184201377514131,
            -0.04917391184310731,
            0.0597552550311017,
            -0.06646658356688036,
            -0.013240986909713606,
            0.03851755976291363,
            0.021637085965164685,
            0.07347412775262503,
            -0.07087326789604505,
            -0.026321156260332185,
            0.07138394079633646,
            0.05610328399213878,
            0.000584248793031289,
            -0.06408744052518074,
            0.22751530469545625,
            -0.4478675438591502,
            -0.021868369337745483,
            0.038424776658153824,
            0.05264910603957567,
            -0.027834813053145724,
            -0.10803416029981083,
            0.045105522531602785,
            0.05175738890250704,
            0.033092689649666614,
            0.03351535075878072,
            -0.010581785985570859,
            0.02833412278099287,
            -0.0634773009084915,
            -0.029102218492630595,
            0.05811851001453537,
            -0.018593789298835754,
            0.03175143417940059,
            0.0126869110170926,
            0.01778273154467029,
            0.061617747910247725,
            -0.05742234922220913,
            0.01656690130987333,
            0.02225014378949426,
            -0.0652979179635359,
            -0.01782458371680854,
            -0.07075602959779685,
            0.05297144782713929,
            0.0020772226203352034,
            0.005918318978401768,
            0.058700311100763895,
            0.006775084708670005,
            -0.28907218957355924,
            -0.04647085617264225,
            -0.022733403701580793,
            -0.04371453132565272,
            -0.013122877432582149,
            0.07423324091335355,
            0.09965419857977575,
            0.02340276817460471,
            0.04111556265439904,
            -0.037332894198022,
            -0.04776396876086231,
            0.011988533592682857,
            -0.015324409368835161,
            0.088141073675445,
            -0.018346290077415384,
            0.0496448359328827,
            -0.13952360388266125,
            0.07394781309339339,
            -0.008613916210756037,
            -0.011491982093856032,
            -0.0110416237188746,
            0.2432567765700137,
            -0.07184811964206154,
            0.01785237557188908,
            -0.11558617412181443,
            -0.001908807409814528,
            0.00405003841996035,
            -0.06992771438162379,
            0.0018944407240102557,
            0.022340343327736295,
            0.04680345598402713,
            -0.0006412424721082416,
            0.05782601651880069,
            -0.0615183313448249,
            0.07418302539007422,
            0.011246975147126791,
            0.10029614020652193,
            0.027624667605920295,
            0.06719189428574256,
            0.04061193244113111,
            0.003605319710692459,
            0.055694731761643454,
            -0.011314227599286061,
            -0.048188006830801905,
            -0.00927536526303746,
            0.023431828240743482,
            -0.02267385249429623,
            -0.05649666932405034,
            -0.06362828322873797,
            -0.05641729396371114,
            -0.07068577047343287,
            -0.06732608607261271,
            -0.06884443355543687,
            0.06070454874763494,
            0.048794559157407366,
            0.012846699397754999,
            0.0743082917564631,
            0.02689410150283704,
            -0.056522098713636074,
            0.02144984416362744,
            0.021758534825607412,
            0.005599704520310403,
            0.04492656435856317,
            0.02092636939585904,
            -0.0026567483201406644,
            0.039534388892979055,
            0.06543395397634715,
            0.0626864305910617,
            0.0486305648905135,
            0.04011567243721502,
            0.042709606533715805,
            0.051431005837609164,
            0.06081546325313854,
            -0.03008251718368106,
            -0.043482523224602984,
            0.0655506079312617,
            0.03551239468390942,
            -0.04675952812175617,
            0.40905876356887183,
            -0.06665588269236936,
            0.5244806614574548
          ],
          [
            -0.5828402840695371,
            -0.12998196015058153,
            0.26253877495970535,
            0.6710232980649752,
            -0.626537689092481,
            -0.2632074126830364,
            -0.09646751451130832,
            0.5203990888033996,
            0.28480737698254666,
            -0.04207303661903718,
            0.009165422164615716,
            -0.0656796415819029,
            -0.3045614609309339,
            -0.05669125282825854,
            -0.166093155335183,
            -0.040617039859234774,
            0.2695988252711955,
            0.6941890752519084,
            0.07083037844160667,
            0.19760073513605853,
            -0.05596887670328481,
            0.2010159416202528,
            -0.003617359456487816,
            -0.04950771966486772,
            -0.006496692481078828,
            0.17299393399143248,
            0.08375452771046273,
            -0.13755988752900875,
            -0.23656551429663716,
            -0.03178510535221911,
            -0.12759648498881576,
            0.200032966286827,
            -0.3003544665183241,
            -0.0716259520561568,
            -0.3639933360162786,
            0.0521066444253296,
            0.07114911393699756,
            0.32512788257807573,
            0.16105816347097435,
            -0.0026460360384592064,
            -0.07560367435783831,
            0.33607962585195195,
            -0.06355780665961358,
            -0.03625236341244485,
            0.056311412517781524,
            0.30648059586039267,
            0.0632189118921809,
            0.019947703306377417,
            -0.0010905413593170626,
            -0.02261818767401167,
            0.058724737671726465,
            -0.02594471752499425,
            0.03567812434985852,
            -0.05089047948433531,
            0.03357799689778251,
            0.03960552065849414,
            0.01556324883602303,
            0.02639143142901766,
            -0.06556237083128083,
            -0.028435622415726523,
            0.05208912873674111,
            0.06830581136928283,
            -0.062325826393689346,
            -0.3705666407289085,
            0.031696696337515776,
            -0.055852637884388594,
            0.03991195728059135,
            -0.017994687257039114,
            -0.10855160879300255,
            0.028333755435544325,
            -0.020130979366907137,
            -0.019018003918760972,
            0.01720469170390802,
            -0.06886783196768903,
            -0.007094781463188607,
            0.03578605076566073,
            -0.027705458467444523,
            0.050994314845458175,
            0.037043797857949104,
            0.018358138440769764,
            0.02592110391524044,
            -0.020358953953144104,
            -0.014617808920614338,
            -0.011459941793399611,
            -0.03858619732358352,
            -0.013461285813573629,
            0.07398186032509853,
            -0.05641275054534628,
            0.07494867528317871,
            -0.022422707319590576,
            0.04676088433864137,
            -0.037044240621080846,
            -0.029518129740265915,
            0.013198173386659018,
            0.15058598894141098,
            -0.04855781966701508,
            -0.06931249022797281,
            -0.02355968457377871,
            -0.14656997285731738,
            0.016359041034177083,
            0.21185192806850428,
            0.05015630441824724,
            0.06024455717978165,
            -0.0035620239907376977,
            -0.06389703021765691,
            -0.052858778058753206,
            -0.05786053970916588,
            0.0473043445027684,
            -0.012955230945980526,
            0.07411412756504203,
            -0.11739170822463169,
            -0.05874574176901582,
            0.05546187411020091,
            -0.04067775181984626,
            0.04755025457263472,
            0.05243254448021427,
            -0.05913225541763425,
            0.005211446972262029,
            0.2894271589976259,
            -0.024018518495726608,
            -0.006130353672643821,
            0.003535444358705253,
            0.05278880713432083,
            -0.0656313621950967,
            -0.026563243130839832,
            -0.055616134971800214,
            -0.03129171435097578,
            -0.06948643266528375,
            0.0441047418482655,
            -0.004702818487239528,
            -0.0073683851707452746,
            0.012146477462589495,
            0.06998267100225837,
            -0.06794073221940386,
            0.0053775070425394755,
            0.047437237283150205,
            0.025279087748685203,
            -0.03775492298827039,
            0.045755069584061475,
            0.03604982816817526,
            0.004086997040886706,
            -0.07010360071118422,
            0.025051964129958904,
            -0.04439311895147588,
            0.009527533079846912,
            -0.018606098049544557,
            -0.06323472811708986,
            -0.004574617547049978,
            -0.06895324016504797,
            -0.07559255203214385,
